-3.162665126194540988e-01,-5.239085838225422398e-01,-8.564529652774798274e-01,-9.256555065917889680e-01,-5.261475603760024100e-01,-5.494128103946354091e-01,-4.120067064143550506e-01,-3.954096801067907285e-01,-1.164638842242061989e-01,-3.764040422441291001e-01,-3.635493805511623711e-01,-4.086051835602534377e-01,-6.189997309345279808e-01,-2.272119261654999556e-01,-1.709522771724702739e-01,-1.907568444644702418e-02,3.791139028171270492e-02,-2.501892885552780554e-01,-3.405250442616353235e-01,-9.299976574618959990e-01,-1.439209039168404258e+00,-6.149857821240608535e-01,-7.366768292629494175e-01,-1.644996805496885539e-01,3.772661529607685971e-01,2.197188029228772377e-01,1.015579565669075604e-02,-3.397133329252380873e-01,-7.961320747477953486e-01,-7.164167298555312868e-01,-6.566500587092106711e-01,-3.036614986620020940e-01,-2.388983706717610900e-01,-1.177797070615171915e-01,-4.791341919022105156e-01,-6.379398153171780272e-01,-1.001982349425835528e+00,-9.035276528309496014e-01,-3.189118699722895967e-01,-2.765087529688761148e-01,1.025552668911393767e-01,1.730332555309223308e-01,1.742702088879043154e-02,2.762595123223900440e-01,-1.666428971816659166e-01,-3.578359337820387620e-01,-6.010338575332302424e-01,-3.789088875269539525e-01,-2.211303252978774059e-01,-1.304585942235867713e-01,-7.949979206927540020e-04,-3.637529716087565812e-01,-7.749692747899166179e-01,-7.816791587274584119e-01,-5.328736648634208040e-01,1.759934209704497321e-01,-8.677976762378977749e-02,4.003130824406556654e-01,7.475922386938993469e-02,-2.929018889245306179e-01,-3.453572589581905827e-01,-2.826399721390043807e-01,-3.258429394673221235e-01,-5.296960914528883180e-01,-4.027663336069398081e-01,-1.375258270210037992e-01,-1.572010749658754036e-01,1.798967707276604225e-02,-4.228339443626735195e-01,-5.744971377275792657e-01,-1.050139809178405326e+00,-1.208674960179856733e-01,4.316042515226445886e-01,-8.907863002656547791e-02,1.393711626294527883e-01,1.962021163198028884e-01,4.499352459869196963e-01,3.847009795307669566e-02,2.664282797969132477e-01,-1.776146164596261734e-01,-2.027483749798343338e-01,-1.825230059256782444e-01,-1.328023373643796023e-01,-5.594715259222959869e-02,1.957803464159321716e-02,-2.340564515179033023e-01,-6.881197739472627584e-01,-3.229653128632483106e-01,3.500534894985533607e-01,6.926999969218469166e-01,-2.067678769474432243e-01,2.533151632287249377e-01,6.057827233028199032e-01,7.502970291930768365e-01,3.073805064614387739e-01,7.747936176247166573e-01,3.459882203169439285e-01,-8.395785517015545707e-02,-1.206147870977165026e-01,-1.530363103342137210e-01,3.066838791100018682e-02,7.320647925677678525e-02,-4.194145287193822291e-01,-4.310254947435493422e-01,1.093333543172142208e-01,4.754287458577070580e-01,1.629391341839876162e-01,-2.002113276970093059e-01,-4.333132931798111542e-01,3.590350852721188035e-01,2.694668983113706617e-01,-2.122181629971452987e-01,2.529207635305839030e-01,3.491770842965960520e-01,1.388745496028628013e-01,-1.932690469870497474e-01,-2.257932599445009181e-01,-1.545896240903390506e-01,-1.232729042346370207e-01,-4.067665217803990152e-01,-6.273512187410852370e-01,2.895739363838850666e-01,3.168912334472951953e-01,2.538065675216283901e-01,4.693444185267239832e-01,3.096658261506202159e-01,5.721947260281806669e-01,5.163813448803605821e-01,8.239466952282971102e-01,3.427416119451731635e-01,5.523197785478024535e-01,5.718283035832828487e-01,2.005813944348809608e-01,3.419334691404103677e-02,-1.595483824354376468e-01,-5.487461442103011219e-03,-4.639213253864329922e-01,7.036500457224258154e-02,2.577620524458729134e-01,3.048444692336104711e-01,-1.459222516918371425e-02,2.138636173310557442e-01,1.848981686416831527e-01,6.110006353003688551e-01,8.153533426187447031e-01,8.258010206282543342e-01,3.705848263558514932e-01,5.380272952260127806e-01,4.075680678016875280e-01,5.725133813866877253e-01,7.784195114188963149e-02,-9.302477148978288701e-02,1.158878585594989852e-02,-3.511572888202987852e-01,4.514867985714483556e-01,2.896744959771674899e-01,7.854585816600871684e-02,6.885303982528791222e-02,4.072246146074268158e-01,6.847590019094754177e-02,-3.868224540485271645e-01,-1.940867875383863461e-01,2.215917801268106613e-02,-1.632170532966289167e-01,6.054130591393890731e-02,2.655473959672339235e-01,3.797815480112842201e-01,1.238781762962010008e-01,-1.342172623551382907e-02,6.160188595554810104e-02,-5.746145973134625384e-01,7.866389363972389748e-02,-6.648482697017259191e-02,-4.308744078026183200e-01,-4.623919609720721358e-01,-4.098970344365995278e-01,-7.826687959999024669e-01,-6.211645795062817887e-01,-2.049113603538604833e-01,-2.055170737597923070e-01,-6.360956739168490692e-01,-3.096023518864608470e-01,3.106063405675655448e-02,4.010822695304039343e-01,1.727222163933176402e-01,-1.134172750311344090e-02,-3.688411262908228988e-02,-5.270645019673573239e-01,-2.162593401151393924e-01,-7.419146158880542130e-02,-1.147985584030381201e+00,-1.075104112020902392e+00,-5.922834312422372571e-01,-6.038421595441287870e-01,-7.305929313252806923e-01,-2.790125152036413425e-01,1.494637089979075351e-01,-2.790176472764647753e-01,-3.367452156339358765e-02,-7.332617545694325445e-02,1.590588837850464843e-01,8.421258834659044179e-02,-7.968044202976851120e-02,-3.733848352802366516e-02,-3.202931618305529526e-01,-1.019708907156316874e-01,1.195429740609824515e-01,-3.824094199589745946e-01,-7.399409947269168786e-01,-5.118610199732892552e-01,-6.102123155683064626e-01,-4.835353643590566408e-01,-4.391372257544444158e-01,5.566212463170280150e-02,-8.040739032868819691e-02,1.081640300639548496e-01,-1.366105170419151457e-02,-2.978288656888618095e-03,-6.409847222391865107e-02,-1.334031548024173508e-01,-1.337992290139195656e-02,5.371164454464769783e-02,2.203107543806027135e-01,1.280344211337114124e-01,-2.723803925147968985e-01,-6.130839769355717062e-01,-4.922912553361430965e-01,-3.957352392552114795e-01,-4.422175003997232956e-01,-9.019885870446991971e-02,2.914489159682784325e-01,1.002432700581494807e-01,-1.880731557211735849e-01,-1.245759951807533794e-01,-6.408223753855771254e-02,-5.425232227778684774e-02,1.950287355243912960e-02,6.973631987893826305e-04,3.922863577262589857e-02,4.357338613838845215e-02,5.859996409336082519e-03,-6.164821308837236530e-02,-1.408223938839222311e-01,-1.641273344900709696e-01,-1.843744080793688067e-01,-2.219657571561119425e-01,-1.659039123212892319e-01,6.358295084205781156e-02,3.541281795408084826e-02,-1.249580092063134890e-01,5.122178264848841617e-02,2.858242953254025095e-02,-1.126725448539000890e-01,3.116097525860837825e-02,3.176863923736043815e-02,-1.067180683996974272e-01,-3.116185833291300680e-02,-2.629050016505998441e-02,7.303942450059589322e-03,-2.810585754904504699e-02,-6.913259100655322342e-02,-4.228940987801609735e-02,7.878389757449741349e-02,-2.284599062049052012e-02,-5.377556949811001380e-02,-1.495088963986727394e-02,-5.712024011574356325e-02,3.448165622854765938e-02,-1.722408701670274586e-02,6.960983247612806402e-02,-5.500928550286044577e-02,7.383295957086224992e-02,1.473979781951842150e-01,-3.503359446461486865e-02,5.956007339183981564e-02,8.617843741228124743e-02,1.107284435558251179e-01,2.873805594907538272e-02,-2.215413378810069875e-02,6.547271537190697821e-02,-7.887635984611822415e-02,-4.740641382273388937e-02,1.352487456017491090e-02,-1.548822989870578433e-02,7.121990488564179655e-02,3.722136062562884928e-02,1.934313759805718694e-02,-5.460149584129156408e-02,5.871033875748989106e-02
-4.708695327241981254e-01,1.071156774328805711e-01,-2.388098948995968362e-01,-2.687314770010418852e-01,7.103745311314095534e-02,-2.165961076596514545e-01,-9.304038486588359635e-01,-6.968555666284096395e-01,9.734398039792256929e-01,-1.142520269792071316e-02,5.594510867290584111e-01,-6.245007270583157188e-01,-3.405172323349448527e-01,-1.731041633948867398e-01,-2.496224043769546541e-01,-2.256969175271216106e-03,-2.832303099209040539e-02,-2.374292664028012090e-01,3.293396748537306684e-01,-5.115087239088028648e-01,4.054096243368363051e-01,9.829000899122667390e-01,-6.122130347168269066e-02,-1.370860899681856093e+00,7.825299466868498310e-01,-2.075346054334486212e-01,6.209920438141289939e-02,-1.504469553429255702e-01,4.855802053545996699e-01,-2.698234586499270171e-01,-4.655759819942392186e-01,-3.748062259283131969e-01,-1.046352011673723215e-01,-1.372125217890195759e-01,1.914035684469399812e-01,-7.118263812623339959e-01,-2.858214076249291358e-01,-5.765851021938070975e-01,-8.235343347101562461e-01,-7.768880792921399880e-01,-2.110870331059084837e+00,7.153509320399700222e-01,-4.736245007611714075e-01,7.528043859076274380e-01,4.143106783686075212e-01,4.300519080093231361e-01,-3.559771985213648349e-01,-1.220919918231697932e-01,-1.084687677792321586e-01,-1.903959977506919088e-01,3.392172851980296278e-02,-2.029187748853567008e-01,-1.027645390234070089e+00,-6.879968685007122886e-01,-3.253549158424495213e-01,-1.916449741694294107e-01,-9.241098036344627120e-01,-1.263108330010803915e+00,9.130611045463591369e-01,3.728409420176573286e-01,2.074423553828318723e-01,3.641664443186594657e-01,-2.304892345877479765e-01,-4.846368971702594841e-01,-1.560138854465887570e-01,-1.281917701000462317e-01,-1.068432820853425780e-01,-9.647957748812750756e-02,-8.312910241366553432e-01,-7.991232557948168003e-01,-6.348716968790694137e-01,-4.405400737810129530e-01,-2.924473320849609870e-01,-9.505111492752714719e-01,-1.401817381678454044e+00,1.679611348360783074e+00,1.425402732867134592e+00,7.554536564102259932e-01,3.040094099772109870e-01,-1.212971609926676297e+00,-3.197329662180227183e-01,2.001800803848792249e-04,-2.368412824554989027e-01,-8.984890534366050951e-02,-1.623888150015686746e-02,-3.928354594586992987e-01,-6.355248869904153719e-02,-6.939053981842302488e-01,5.124427470563343023e-01,1.606161920857655245e-01,1.037002476840032994e+00,-4.296973840258835886e-02,1.511819208668627512e+00,1.826183514406848618e-01,-1.888207855596524487e+00,-2.708514028921063410e+00,-8.011392385407167804e-01,-3.783683927188666307e-01,-2.906712497649492355e-01,-1.132417995153739421e-01,-5.080243831937499011e-02,-1.661243109702575591e-02,-4.141253450495040456e-01,-1.969559470751444663e-01,3.874192923354197182e-01,6.758689275134081020e-01,4.964074499123858342e-01,-2.415390145232354513e-01,-4.397622450600203181e-01,2.138530918141268611e+00,1.289239025151533158e-01,-2.940183417578970948e-01,2.929194683713004510e-01,2.941303031961824965e-01,-4.636904546333394106e-01,-2.592819009732678093e-01,-1.980376828475752249e-01,-1.365818917914250925e-02,2.040940140672068207e-02,-4.900821145178577698e-01,1.098872147468146071e-01,1.076184910443148013e+00,2.542236860454982206e-01,-9.196169246134665576e-01,-1.392663270211520476e+00,-1.374329735435981803e+00,1.809902623223089979e-01,1.525396987581212782e+00,2.135039131194810536e-01,8.229110959385458335e-01,8.725104975801520335e-02,-1.779722592479696941e-01,-2.253367072880348154e-01,1.176453851616712648e-01,1.014226172648905328e-01,-9.964712956833202129e-02,-4.230332414603700242e-01,1.528111889516742782e-03,8.840595617455898614e-01,-1.352386159336398386e-01,-1.050824448953430412e+00,-1.417513748356380665e+00,-8.601917316659316581e-01,-1.919467021429087872e+00,-1.433346020982894320e+00,2.557938820636530552e-01,4.578256778849496000e-01,8.794482052383773701e-03,-4.438321211420469536e-01,-2.161348225953559077e-01,-8.177118503700061408e-03,2.772662449109790719e-02,1.026568572307377941e-01,-8.840460976927413950e-02,-5.601863367776689362e-01,-3.477462270505235487e-01,-4.766928729115371133e-01,-6.926292978415365953e-01,-1.140137012087515833e+00,-9.353159478335014709e-01,-1.614058498731453906e+00,-1.927953289802569303e+00,-7.991780632110245808e-01,2.120353745115668154e-01,-1.079671509485286354e-02,-1.551357647359008773e-01,-1.873808462217906867e-01,-1.073442884003657088e-01,-4.038807827041217963e-02,-5.069554845793147746e-02,2.078902793675978244e-01,-4.953275494086448738e-01,-6.331012963830626727e-01,-7.915026255475293704e-01,-9.450427019796100447e-01,-8.916648673127416380e-01,1.002615463648948602e+00,3.339001142076480355e-01,1.051735466361213733e+00,1.520514838427168280e+00,8.603496693981805832e-01,1.225554935042793142e-01,-7.489661577640041590e-03,-7.777638648502258056e-02,-4.224943977205055518e-02,1.202742410418758401e-01,1.211338278080314849e-02,-9.993987632824083422e-02,-2.073292692901479994e-01,-5.156397416631968156e-01,-1.070073832070822344e-02,-8.702073173461162270e-01,-2.347581839027543249e-01,1.481624439586060271e+00,2.232149455722337805e+00,7.556934087905342601e-01,-7.466118744721658151e-01,-1.099502471446173607e-01,-7.528322907877272874e-01,-4.412060130503566713e-01,-1.048881975713887166e-01,2.986991417574908630e-02,3.883277450477425757e-02,3.628985866176084873e-02,2.443582436609625930e-02,4.617752786170798984e-01,-1.417598442223294009e-01,6.084137956811774828e-02,-5.017808648606851829e-01,-4.866935473903085674e-01,-6.686187622885164661e-01,3.943871350601000358e-01,8.511554490803716622e-01,3.105268137630183833e-01,-8.144063840422064438e-01,-7.056380001369481070e-01,-3.608151653130993175e-01,-1.993243176011274750e-02,1.031045584678455668e-01,-5.638824702362825458e-02,-8.318691001250859418e-02,-3.023740953468568304e-01,-3.296722917519295804e-02,9.171333345280242161e-03,-3.041536201520999017e-01,-2.840712105922946207e-01,-1.735248358668307067e-01,-2.293486248598325394e-01,-2.166975136323372741e-01,-2.116611356608569805e-01,-2.218154465358642413e-01,-1.178544853738540260e-01,-5.932937978211703933e-02,1.780901173416169631e-02,-7.766740636517581453e-02,-1.917910388066151536e-02,-2.654346086119275389e-02,-7.435984877432642859e-02,-1.045780134956887930e-01,1.959081811837543475e-03,-1.577499649191432818e-02,2.839177981413473079e-02,-5.998252885930071415e-03,-1.197577965092350843e-02,-8.514836770060689453e-02,-7.611142742753815478e-03,-4.616010288487888691e-02,-2.964407466757442572e-02,-1.073650978419403296e-01,6.353692318600141775e-02,7.359249730676553636e-02,5.311397395225687240e-02,-3.925128267221147244e-02,-7.379438186942098403e-03,1.699310939752662550e-02,-1.739308256103482345e-02,2.798367190045791819e-02,1.082105196926401031e-01,1.278126540993006904e-02,6.080136400296433895e-03,4.776179029760418276e-02,-4.155743568376872588e-02,-1.630756070957578574e-01,-3.804870760376372063e-02,-1.078721092670931192e-01,3.701176783487393485e-02,3.406249582319945124e-02,2.765654613064902692e-02,4.655937106191959489e-03,-1.854996538933880237e-02,3.182383722133610721e-03,5.384485313382408184e-02,5.673732415549150032e-02,2.615593117769761389e-02,-1.819157519315456155e-03,3.995536468833318228e-02,-5.371017355816629091e-02,-1.340542767475154211e-02,-7.747248400007178404e-02,3.603514479760738104e-02,-9.961870291290918222e-02,1.332837177112844787e-02,3.693190047629569400e-02,-4.795074764607425155e-02,3.156771425305113926e-02,8.414764016386544476e-02,-2.578325073883093801e-02,8.942479769972910830e-02,1.903392387588767609e-02
-8.312486834433734373e-01,-5.866498943489929507e-01,-3.268698869379135230e-01,2.074507842000032076e-01,-1.213852725938279420e+00,3.130339283888500246e-01,-5.421943224123274702e-02,4.067531479707764963e-01,6.401722351428730251e-01,-1.143498361781253164e-01,-3.508839209335749831e-02,1.349774444304682741e-01,8.103830621598302753e-02,-6.493705155799421591e-02,-1.615330994546007037e-01,2.643381992662741445e-02,-2.724544716520129872e-03,-1.077203453526814236e+00,-4.945829955255188204e-01,-1.573883245820826560e-01,1.006818053950214176e-01,-8.757013768447104163e-02,3.009885025999317065e-01,-2.174483242265243532e-01,4.356738659837109950e-01,8.201721342405388082e-01,6.707687864699509728e-01,3.040469931249201174e-01,5.402562672495140328e-01,5.021057638803331225e-01,3.983679997508509651e-01,1.194232178269648698e-01,-1.026587490077561782e-01,1.097973251207343265e-01,-3.642693746984232428e-01,-1.435754707125000973e-01,5.850289069932480823e-02,7.781507158118966538e-02,1.754574729534705280e-01,7.192483340670908776e-01,3.813227275316383169e-01,1.369326193942954906e-01,8.653772745630058938e-02,4.994782959462892302e-01,2.759454451447200252e-01,8.792684413921326991e-02,2.729558252102094462e-01,3.627165665339331380e-01,5.920953115567475361e-02,-1.109512977341611528e-01,-5.693028378600895056e-02,1.444354735190206407e-01,-1.570633905320661938e-01,3.661820331253448080e-01,2.618091033518108457e-01,4.910900568748596817e-01,6.708204854419673735e-01,1.206568757032260852e-01,9.213665275294784518e-01,8.379748025251463339e-01,8.012311930053082065e-01,5.802272953562813695e-01,3.061838327191674369e-01,2.651728305146252018e-01,3.483684536602579263e-01,1.261604007691443374e-01,-4.140224408916640814e-02,8.223290488345048888e-02,2.792259777418727995e-01,1.239060361261154486e-01,6.002947350344566280e-01,1.655387330945302660e-01,3.898242537834953336e-01,5.170049314036917476e-02,-3.872134826548759290e-01,1.441399557777633955e-01,2.389641616898464105e-01,2.995373536070611853e-01,1.110927289648697275e-01,1.764215589482636126e-01,-6.214377562633500995e-02,8.364420095703418989e-02,6.537946381809772722e-02,-3.789286886648142449e-02,-1.886669049528285139e-02,1.027826599295832699e-01,9.153431850628519773e-02,3.373138701710348131e-01,-1.186368977922965667e-01,-4.781981120132466900e-02,1.391784370993394693e-01,-5.214571550062535588e-01,-1.318756333678197390e-01,-6.789227312538272940e-01,-3.994147282921666209e-01,-7.696346944227338005e-01,-6.476327107766071123e-01,-4.520428145838633616e-01,-2.529338979171710799e-01,-8.659662708360235661e-02,-9.004250839894104019e-02,1.343160202969468330e-02,2.379196730992222675e-01,7.281371375385917166e-02,-7.061898319658554968e-01,-2.048589712575053512e-01,-3.739461842039651374e-01,-8.782498078315459367e-01,-8.155259043591117640e-01,-6.225129139398731803e-01,-1.227468691215509722e+00,-6.809628609949281985e-01,-9.178728576361299130e-01,-5.812688546542413848e-01,-2.587786752796665812e-01,-1.524839183515132868e-01,-1.699633849888201320e-01,-3.825000337136295198e-02,6.426592475147538570e-03,3.055568289969519680e-01,-3.476193337532450939e-02,-6.543599277762084387e-01,-6.753488236090987584e-01,-1.284569895589189326e+00,-8.619424847068271056e-01,-1.003311248215333462e+00,-6.739068028739459981e-01,-1.722255071135562199e+00,-1.408157084752489796e+00,-1.176813361052027274e+00,-7.803417517705837358e-01,-5.106160674400819222e-01,-3.610643781916608175e-01,-8.643327802594277798e-02,-3.460310220724313601e-02,4.779211271060513494e-02,4.374354508789322638e-01,-2.019312275355963915e-02,-4.159613222994337223e-01,-4.241479795829247723e-01,-6.389310759277774254e-01,-4.878792534713765616e-01,-9.178537225487750639e-01,-9.439644600167190758e-01,-1.388341050546878064e+00,-1.583236372232520672e+00,-1.415684420873675631e+00,-9.062975297128592622e-01,-4.163023350549031054e-01,-1.584441731296004074e-01,-1.908407769305483503e-01,-5.820518459187198901e-02,1.553951590687488275e-02,-2.876139322436237489e-01,6.585250548362203693e-02,1.080913324218861354e-01,-4.930695410979501481e-01,-1.950857162869989170e-01,-3.014430697311740182e-01,-3.711795487864654741e-01,2.724063328498708136e-01,1.563233366311201911e-01,-3.159822530233573068e-01,-4.921892079389521557e-01,-1.994322503888083103e-02,3.891454932457432542e-02,2.270614809649355303e-01,-5.702550319522233999e-04,7.769048661210845377e-03,-7.295065390788606219e-02,-8.572842502678768017e-01,-2.339378518481458891e-01,5.614078171208086721e-02,2.821963212972538118e-02,-1.362026131652872840e-01,-1.103561143023796959e-01,1.849177724773700682e-01,2.500787786686302638e-01,5.463052522798246269e-01,7.198335060807327379e-02,1.016685981356001550e-01,2.066317765849745303e-01,1.702509175277109044e-01,2.919712157510884754e-01,2.295831773658963404e-01,-6.330188295400375476e-02,-7.382938831362277979e-03,-9.128670458003536048e-01,-8.533536530069912862e-01,-4.842606213097853107e-01,2.909355900007368767e-01,-4.149619513511448171e-02,-7.560438174414399470e-02,3.862149109129400792e-01,8.069285632824435908e-03,7.231914219683092948e-02,2.752952818084629660e-01,-7.777694789376159157e-02,3.581862530155010549e-01,2.726895308632650838e-01,2.364847688555274108e-01,1.511936277985319044e-01,2.121822305693666852e-02,4.469704829886533143e-02,-5.198113046856477348e-01,-3.405524138923384792e-01,1.222464841729776737e-03,-3.319609378341625838e-02,-2.879711276326491487e-01,1.826364408795979333e-01,1.230189254697349605e-02,-3.853153597252191309e-01,6.864924541733122831e-01,2.703891694868785223e-01,1.781929372230169617e-01,1.727689393465315637e-01,2.682152300716581506e-01,2.813868380119075030e-01,-1.403725991385242067e-02,2.793081688916298697e-02,-1.540227767738131665e-03,-5.660261184822611147e-02,1.103235696214630301e-01,1.155894252454463117e-01,2.890979005677934977e-01,-3.118979016926629044e-02,4.056465799822282781e-02,-5.800769379055811803e-02,6.117532621313758606e-02,3.875246140224987146e-01,-3.529506053803171950e-01,-5.061470948097934741e-01,-1.358582900072043964e-01,6.063226173395181579e-03,-4.091840058647647216e-02,6.773616388876409905e-03,9.137548071608521741e-04,4.146789134172924884e-02,-8.676121143719608964e-02,3.017515700696725076e-02,2.478365025311931591e-01,2.852626318313001286e-01,3.540718172035727251e-01,1.236777409125082439e-02,-2.952237762507634034e-01,-2.963627119082858363e-01,-2.166404872658622138e-01,-3.162421364203760743e-01,-3.582819542457857387e-01,-7.357318044784860733e-02,-1.121175502143904879e-02,7.786333228298321536e-03,-5.620504527385527388e-02,2.732481632837237620e-02,-9.313635215307533577e-02,2.217154649342699402e-02,-5.597667607426547870e-02,3.914262204976095422e-02,-4.015700755557785259e-03,1.374792361330679780e-01,1.226669319255170448e-01,-2.796575041171254217e-01,-3.032330008769504870e-01,-2.518894500549211379e-01,-2.204670042655370032e-01,-1.005004232325401592e-01,-1.046437566081812598e-01,3.978135523309900452e-03,-6.832947150664203662e-02,-2.859751099249809372e-02,5.268102115767567262e-02,3.760940802347456646e-02,-2.939996993018799756e-02,-9.732611416346681477e-02,-8.320124150462732474e-03,8.046507914878084367e-02,1.462033645540555538e-01,-5.902206988752344702e-02,-9.194009939962990985e-02,-4.795526599809873947e-02,-5.858946813122095990e-03,1.071292609544850088e-02,-4.222314109510377778e-02,5.899082308755304246e-03,4.335545883724706978e-02,-5.100289265766115576e-02,6.319805827342639404e-02,-4.663662743668721411e-02,1.391142275859924560e-02
-2.800715675791752290e-01,-3.470365316228340991e-02,2.650029747125952073e-01,8.922461514513210235e-01,8.189743944194438630e-02,7.147587600965049637e-02,-4.391465399280888859e-01,7.092580219333385338e-01,-6.248802983480091777e-01,-6.035958166813775172e-01,-3.373737426762714597e-01,-4.175559396370422949e-01,-7.835813866059165855e-01,-4.559937645536039086e-01,-1.479452866263233080e-01,3.752180772179358748e-02,4.690472671959147744e-02,4.302960210398129037e-01,1.694342122611267321e-01,4.191497719765931995e-01,2.280242749053846829e-01,1.746354085957376456e-01,-4.279165336145452359e-01,6.230935971742376234e-01,1.142801490139664811e+00,-1.509500180331913577e-01,-5.664369857316249313e-01,-4.512265790451756020e-01,-8.678814426286403094e-01,-1.016133793842798339e+00,-7.617729453788775196e-01,-6.164439509347466317e-02,-1.109774401521757166e-02,-1.239793310226555006e-01,7.578458032831056346e-02,1.281063894644245225e-03,-4.992446603834043151e-01,-2.004433962846936812e-01,2.584253349756808205e-01,1.356143357002556060e-01,3.880455649320689315e-01,2.591054659096329593e-01,9.002521910358979307e-02,-7.903877539309016598e-01,-4.825961389618808606e-01,-1.047405847037303550e+00,-7.723775853842351768e-01,-1.444299707854594661e-01,3.554819686958109876e-02,-7.897961728562657990e-02,4.412606634607948303e-02,-5.115426839966378258e-01,-2.959348356698842109e-01,-7.092712556142105607e-01,-7.168183522324222956e-01,-3.453249534423276090e-01,-5.308947228743864377e-01,-1.039585695573843616e+00,1.883968658823260145e-01,4.532912641255950059e-01,-1.430348334359854701e-01,2.647553944987475205e-01,-1.061190008585039646e+00,-6.290281148571734704e-01,-3.806519354902981184e-02,-2.335165457781717552e-02,-2.162555876704877131e-03,6.224998081574373981e-02,-5.130506234215079786e-01,-4.812622220266947193e-01,-5.471186520103952233e-01,-1.619962969937787656e-01,-2.224494978395662736e-01,-5.645252340756400367e-01,-7.538617737440511668e-01,3.104827840845645337e-01,7.315836649593365770e-01,-1.575294882159654908e-01,9.807747044103476419e-02,-8.461971240238337355e-01,-6.790586262147793595e-02,-3.635768310255028252e-02,-2.150936812482472094e-02,-9.197062488250468473e-03,2.931958118696588716e-03,-9.514330203824455934e-01,-4.228189896246219992e-01,-2.668454438998385525e-01,-4.541329770500395768e-01,-7.207577468056819425e-01,-8.331960990508190390e-01,-1.055613997059863918e+00,-3.481803244133093167e-01,8.233516984509445247e-02,5.590272053532610030e-01,-1.199487187847407196e-02,-3.415919969533890432e-01,-2.815473819735473393e-01,-3.180400417879508668e-02,-1.092162916775199222e-01,-5.647570785511609077e-03,5.671895552241626448e-02,-1.034740396003291929e+00,-2.205795217559538279e-01,4.954819079702383333e-01,-6.322714789763922427e-01,-9.654869592620175522e-01,-6.665716411463559199e-01,-1.028905945699805979e+00,-9.784321060515694946e-01,-1.154160783813651614e+00,4.688329573905784531e-01,-1.933040269686301087e-03,-1.094828225184075604e-01,-1.297119420537786449e-01,2.144715791565298540e-02,-4.993027886336182108e-02,-5.386731863284057592e-02,-1.311765911544563595e-02,-8.533466004548101447e-01,1.736387191466987334e-01,6.488728984541596301e-01,-2.636448612147672121e-01,-5.888660423898132157e-01,-6.210074013989828057e-01,-9.568374070632051920e-01,-2.144576642368858088e-01,-7.821364605110223689e-01,3.228328673674785709e-01,2.292701504276064284e-01,-1.710471136975944551e-01,-7.507167892495134054e-02,-8.477904174063391474e-02,-8.629574155303604277e-02,9.358008039668615219e-02,2.784880327213273485e-02,-4.767566362373876765e-01,-9.414651729720122098e-02,-2.322425400665035777e-01,-1.379540612311746239e-01,-1.634371838332810689e-01,-6.220233893646596179e-01,-1.234111462318138397e+00,3.211996072779712552e-01,-4.472140514595919492e-02,6.384527149005975177e-01,1.775393613856014463e-01,-4.937675308698557530e-01,-4.068562024001282640e-01,-1.411581066501284842e-01,5.624131796304902842e-02,-7.974436257228148528e-02,3.589756351824359426e-02,-2.537976035590548407e-01,-6.237566232911444936e-02,-6.663980982542877518e-01,-8.608370974861141722e-02,-2.897574365830729026e-01,-6.119125658018179648e-01,3.582082579713194992e-01,9.633462712609238698e-01,6.047391170800884286e-01,2.568373939489238325e-02,-2.387457376104666629e-01,-5.416881961947506152e-01,-5.688929629149085399e-01,-1.596442036174992030e-01,3.726487620243026933e-02,-6.888873216662963483e-02,-1.860446334030148655e-02,4.764303009026021885e-01,-3.202238910269133432e-01,-7.446591561595573561e-01,-4.801105631163535281e-01,-2.084005883051740227e-01,3.255061440694561048e-01,1.142309649451711318e+00,7.664047414798985658e-01,1.085348325793781266e+00,3.546408655502779617e-01,-2.801186495274307631e-01,-5.403196575108807354e-01,-2.867028518134129289e-01,-2.306489840076883513e-01,-1.521242235608455673e-01,-1.003271172046260457e-01,1.290302748231602903e-01,7.892119340221235291e-01,1.676946258501156861e-01,-3.651675199999896981e-01,-8.266756733661658751e-01,-4.449670552002404911e-01,7.905469348218957526e-01,1.375145869624266659e+00,1.060813619814864467e-01,-1.195690467189614997e-01,4.612575460745119704e-01,-4.114637144142967995e-01,-3.351021448791778323e-01,-5.220395507316795136e-01,-5.316211859699166986e-01,-3.421163046098037452e-01,-2.439277151171600211e-01,-1.275038454222353519e-02,1.842503053599638951e-01,2.397311166200100097e-01,-5.594933855266678163e-02,-4.048353425289882845e-01,-3.006318697764243791e-02,3.691270427883693861e-01,6.217740817115491314e-01,-4.411069837673887994e-02,1.176835511429038215e-03,1.835964338626372983e-01,-2.649684379748469265e-01,-1.733700317764710064e-01,-3.866591498134144822e-01,-4.829587151379711174e-01,-1.159063085430814682e-01,-1.027795680590656568e-01,-2.886459486164481142e-02,3.827587400435981668e-01,9.719121653719414722e-01,4.667103472562760258e-01,4.586753596721219184e-01,4.748129184990717011e-01,2.202251286657434456e-02,3.046826415145897915e-02,-5.030040492823238951e-01,-4.357513476413391040e-01,-3.226492143858908923e-01,-1.454601962083830469e-01,9.402498062031298953e-03,-9.206401481476751691e-02,-6.366509635840357506e-02,1.776971238661514685e-01,3.432250476123957506e-02,-1.283780110223115556e-01,3.135990114624749581e-02,1.345024973035575250e-02,-8.956623165480762094e-02,5.159602541076222654e-02,-1.677028081794099124e-02,-9.987417223326222615e-02,-3.280298279279054152e-01,-3.909831552670128274e-01,-2.659674138282255296e-01,-1.935092347917953814e-01,-6.784922692143226242e-02,6.880160406035010917e-03,4.312722084037527714e-02,1.984105301811124600e-02,-8.252100245974980375e-02,-1.603858255443287029e-02,-7.047971743317218984e-02,-3.042185772010680845e-03,2.324273596522558397e-02,3.645391227132694506e-02,-3.351108909488051055e-03,3.598106423657630726e-02,5.519670824084533384e-02,-1.597113992338315691e-01,-1.587516895206583512e-01,-1.327235972773740114e-01,-1.643249678254088686e-01,-3.108334367107816118e-02,5.235906477282119970e-02,-8.339950158856168291e-03,-3.129122704045133457e-02,-7.857949450681310510e-02,7.693886944858392696e-02,-7.245805808844740792e-02,-2.386034493416364435e-02,-1.430784144378278132e-02,-8.147804726733390290e-03,3.347619041768293974e-02,-1.302741590062638823e-02,-5.105480353295954038e-03,-2.042983423200831275e-02,-7.372221518114641103e-02,-8.916670181278150975e-02,8.123304083490144947e-03,-5.476552051437134049e-03,-1.126373596374616835e-02,3.059836004589992775e-02,-1.366561159069674958e-02,-3.845578373770411340e-02,-5.161366532722030248e-02,3.099769406867667471e-02
-5.763678104125367074e-01,-1.005511527321098164e+00,1.253444901107144016e+00,2.105498414531327356e+00,7.910546601394385924e-01,-1.593632400725234211e-01,1.449891116587143924e-01,-2.771064860541405661e-01,2.517508053228191822e-01,4.549797874659123886e-01,4.111527236186451190e-02,-1.232485183810914098e-01,-5.501926368798147615e-02,-8.565491888515579244e-02,2.303801067848117862e-02,6.739038017591558738e-02,-6.268512142071173791e-03,-3.374108290030958246e-01,-6.560904424208265917e-01,1.024776150050267010e+00,1.356355768196684020e+00,8.152164679959803539e-01,4.606156728251799004e-01,2.291466064514992296e-01,-4.379485877622003032e-01,2.076854816321715702e-01,-6.972365205728744963e-02,1.035268406981549733e-01,-2.265443970344441227e-01,5.046123962547176961e-02,1.778692903987441620e-02,-2.922544224422023509e-02,-1.291677564870770123e-01,-5.564510148731736244e-02,1.270842926542402052e-01,1.204219296189405486e-01,-1.521505799412277593e+00,-1.330720258406682843e+00,-1.445150117949242308e+00,-6.891777485954494464e-01,-1.525251620966535437e+00,-1.566779247870597969e+00,-1.061111328349847449e+00,-3.367870948877556003e-01,-1.018340077779658626e-01,-1.587372506669263994e-01,-3.895975803562658213e-02,-2.171988739579198274e-02,-1.199527185236052250e-02,3.801220404077515491e-02,-4.040405254511923727e-02,-8.289292830877350582e-01,-4.652289814297195791e-01,-1.651684123156853756e+00,-1.424490143394512298e+00,-1.698299026847533089e+00,-1.241461826915157607e+00,-9.923741840959321436e-01,-1.163808896137943583e+00,-1.060523518302161738e+00,-7.239957545984606613e-01,-2.464432735099479910e-01,-2.343842357399661680e-01,-1.023783265198033865e-01,3.445258525291141488e-02,8.413507547588884583e-02,3.790629622543788269e-02,3.404736363951681166e-02,-6.005887985181306288e-01,-5.097176099238899249e-01,-1.517749064019856320e+00,-1.286845909765530038e+00,-1.198311660225350961e+00,-1.065164476329947485e+00,-6.589272683652414031e-01,-3.512129038376831103e-01,-2.994070387202523165e-01,-3.118910814928452235e-01,-2.874297690499178493e-01,-6.922954843937599578e-02,-1.595725123031291673e-02,-2.087132964640986410e-02,5.073625697525610545e-02,1.204122595162854942e-02,1.172483208070060345e-02,-6.764286619473106055e-02,-2.873357380601115896e-01,1.192035499795994768e+00,1.652734665894877386e+00,7.855323440457310236e-01,1.742186056942633954e+00,5.239947349670379673e-01,7.447515922120087062e-01,5.575503700001964713e-01,-1.060918490352267401e-01,-6.005142486997212120e-02,-7.136533834055343306e-02,-5.965166344462198567e-02,4.813571718078327871e-02,2.244946255908714453e-02,-4.831014238270316119e-02,2.245108331637965526e-02,-7.525875664650062691e-02,6.666566554765367414e-01,1.674209305321623820e+00,1.365455515866371927e+00,1.527585568510729352e+00,1.510841586128711223e+00,3.780857333753004368e-01,6.012100228031662663e-01,4.865692077075255834e-02,-3.281108573717922416e-01,-1.109539507667906127e-01,1.422152687680523081e-02,-9.801488244155772550e-03,-2.939302250044167550e-02,1.651590629167635398e-03,-8.584308778760894876e-02,-1.420193855402973257e-02,9.314949478845134523e-02,7.687899778180655730e-01,-5.628739250832823782e-01,-1.210352536613592545e+00,-8.828515851159964845e-01,-1.303492168367829995e+00,-1.818977938157034568e+00,-1.322370692888882759e+00,-1.006373264930993550e+00,-3.375352122823741530e-01,-2.861801942605438076e-01,-1.138310365904098564e-01,-7.235125220689338221e-02,1.004413520226738188e-01,1.304312739695000500e-01,1.284844904993708535e-02,-5.632475639792135919e-02,4.520048707945840960e-02,6.367958413652899941e-01,-8.740663778934983918e-01,-5.807463652442846902e-01,-1.271856132216589108e+00,-7.362405620072374202e-01,-6.505251473556622477e-01,-1.216943434746892150e+00,-8.409640306402914600e-01,-4.633402391965708023e-01,-2.387939462813305769e-02,-1.207768551344593350e-01,-1.110714572825540619e-01,-5.164773489696584952e-02,3.801207412545348774e-02,2.951051365688190861e-02,-1.822869833433881509e-02,-7.811454218443368847e-01,-8.254631181316822719e-01,-1.053531027960179944e+00,-7.315774145543570972e-01,-6.095188129786327513e-01,-4.097310060741495286e-01,-8.578860462236737039e-01,-2.942110934543859524e-01,-4.832079877191930439e-01,-3.883053899025437627e-01,-2.784106727153620175e-01,-1.609664611966177827e-01,-1.577696731399739691e-02,-1.367803067035844311e-02,1.989015754754441812e-02,-8.387822908320299864e-02,5.216935723252597717e-02,-1.350112226984004904e+00,-4.851582042634656755e-01,-2.147565092473231463e+00,-8.746002330836329941e-01,-6.671575380252379173e-01,-6.267430888611114081e-01,-3.551486828218933800e-01,-8.259245097553541415e-02,-5.857747846405012560e-01,-3.250595959471169194e-01,-3.595681564811397668e-01,-1.582988119351933509e-01,1.862663475476174224e-02,2.817913502075376428e-02,-1.012094010916556458e-01,-2.205255163595772755e-02,4.122731289659337106e-02,-2.377068166942632732e-01,6.182710994440746011e-02,3.079739126787450210e-01,6.338997373409684943e-01,1.027396129850425499e+00,7.449217205023680455e-01,7.425496870474475042e-01,6.763711979977758970e-01,4.921307733892983927e-01,3.437512208591274598e-01,2.486433752522657636e-01,1.396948729003064937e-01,-2.846446645636701092e-03,-8.506673626525519671e-02,3.523096768730307575e-03,1.078653674250832917e-01,3.377190988188195908e-02,-6.577472813730530499e-01,-1.682920886292205154e-02,4.797758983715402215e-01,1.139658232012871419e+00,5.004151914826482361e-01,-2.397189035019686373e-02,2.814861392683320473e-01,1.377897767458915457e+00,1.419850225080586670e+00,4.143392244807994063e-01,4.773415166992323044e-01,9.365211874034402861e-02,2.358970263230666161e-03,2.288244578765826626e-02,-7.296881958790533973e-02,-1.917465959719324986e-02,-3.033850652141971763e-03,-6.963899158868405714e-02,-1.539599077466691224e-01,2.359123769688247982e-02,5.296120863244083155e-02,2.909879200652464720e-02,-2.386270312444872255e-01,-6.273527587278435180e-02,-3.109422931279183164e-02,-7.894020915023072793e-02,5.463961907258403639e-03,5.826453454074737026e-02,-1.163846194958028379e-01,-3.451327295465053679e-02,3.037659415530957405e-02,5.831195657739148691e-02,5.051962476675444375e-02,-5.272152315433290687e-02,-5.390572925864840076e-02,4.535475098697756835e-02,2.283280001659409794e-02,-5.380376428322072857e-02,9.981017189158827071e-04,-8.004171207300876667e-02,-3.738120408520564930e-02,-4.639498655523513482e-02,3.848841803441144932e-02,1.107909018270325594e-03,3.658310548047143118e-02,3.315614598023243487e-02,-1.369354570864423325e-02,3.164506212572405774e-02,-3.236090040614299917e-02,1.210777552700259725e-02,-7.763437274048828884e-02,4.564439709548503976e-02,9.733936638125523233e-02,6.657465658679154186e-02,6.104089071185753168e-02,-2.385233638041846585e-02,4.339983146915861456e-02,8.689143094516423027e-02,-1.103557569966984592e-01,4.038268044807291623e-02,-6.269292122687525337e-02,3.440362762704073270e-03,1.377363249236920970e-03,4.123481665394914536e-02,9.146016655656519223e-02,-5.031085912387506243e-02,-5.582898000060271260e-02,-1.456318242053199555e-02,8.463689645558158947e-02,5.904311204899100746e-02,5.084762397712101062e-02,-4.939272275460388634e-02,-9.238114518144012086e-05,2.053797979627270884e-02,-2.127854698906578301e-02,-1.463938221724863167e-02,-8.434032228517371332e-02,6.993366586365300230e-02,-4.666904740319337275e-02,-1.289856103009552335e-01,-6.714506064959595288e-02,-5.839482011902928649e-02,1.051787212694035856e-01,1.114969187969487435e-01,6.616013243043854242e-02
-7.176949164195127739e-01,-2.962841067314113674e-01,-2.185501417619401254e-01,1.040230631031215935e+00,-2.720725813784091174e-01,4.208525260877114538e-01,-3.076454197479016606e-01,3.046585611064679955e-01,4.583284674351042476e-01,7.055174404512941644e-01,-2.765916372175267757e-01,-3.382667217705258300e-02,-1.090157669297735915e-01,-7.261354537938065866e-03,5.202072178745729969e-02,-2.297780880116619129e-02,8.664017512889850281e-02,-9.084846033013331823e-01,-5.699268728175873600e-01,-7.931233088490102778e-01,9.453340831425612878e-01,1.126003795915082595e+00,5.553094144601343762e-01,1.167894516304299968e+00,1.208392599959864810e+00,9.928364608614557163e-01,1.460039421633780865e+00,1.601691682914078596e+00,-1.765070262189703809e-01,-1.720058897176254542e-01,-1.071708250028949577e-03,-2.019323604560432570e-02,5.474443463122059123e-02,-6.687294384601499830e-02,3.412687062391858150e-01,5.218738367138898993e-02,7.594858484648498997e-01,3.307994463371159433e-01,-2.033014724562312026e-01,-4.196974912718347550e-01,-7.957535053684879900e-01,-1.381859282788639121e+00,-1.661302348458358669e+00,-1.385220905202326325e+00,-9.290492462625474790e-01,-2.586784152066516906e-01,-8.456592642432324280e-02,4.285091398072661539e-02,9.127946980322956816e-02,2.766728997320781064e-02,1.578594343738268235e-02,4.986993551261181268e-01,-2.561449014554699755e-01,4.462596543065340260e-01,-2.295429927274494075e-01,-5.218319609761286060e-01,-3.490752744317952572e-01,-4.460926982279829200e-01,-2.035659647418446294e+00,-1.622897819398471109e+00,-1.529080150816174655e+00,-1.056391668355082913e+00,-5.499227822592193116e-01,-6.988928518880244134e-02,3.242092540026062647e-02,-2.090808934795342772e-02,1.062810055138451414e-02,1.159815028712622986e-01,1.843152782533157563e-01,5.812243623106087831e-02,5.239100959070733809e-01,-1.811602326054599366e-01,-5.838133244153842494e-01,-4.527763814213436227e-04,-3.923054648066520711e-01,-1.888480562071975788e+00,-1.346277230216940568e+00,-1.425993979808155565e+00,-9.373131901146483091e-01,-1.737858157892924749e-01,7.472248159695161519e-03,3.727880285217576029e-02,-2.127477932979954245e-02,-1.157825860974120435e-01,-1.144471317833949120e-01,3.825829846245104582e-01,2.582791966603594780e-01,2.405046007153161247e-01,1.333511662471712267e+00,2.110566242078169896e+00,1.991032925450948676e+00,1.375273501175786173e+00,4.533391845287366301e-02,3.045806703599285899e-03,-1.250947598012677853e+00,-9.444924512880737977e-01,-1.601388903720464274e-01,-1.092685265679126660e-01,-1.393579409154253601e-01,1.253480438472610696e-02,-6.822258443312607945e-02,-9.530089365585657502e-03,3.453210427850175179e-01,1.534974045524957753e-01,-1.776639688451541466e-01,-3.863353754923735117e-01,9.614671596368172812e-01,3.377712003019035514e-01,1.103657651415690388e+00,1.401811001512199423e-02,1.003534476670630449e+00,9.775642397911561421e-01,-1.040402640810772772e-01,-1.310009618519597085e-03,-2.177294986100947183e-02,5.847312462885727313e-02,-6.486714917459594776e-02,5.033650033126607637e-02,-1.989386850763746536e-02,-6.015443502622235261e-01,9.533785685410395283e-02,4.120534628501479335e-02,-5.697735612886742906e-01,-1.102666596301887347e+00,-1.081466049399662843e+00,-1.354711520846545447e+00,-1.171888915682559817e+00,-8.143833825852997421e-01,-5.520780404914186201e-01,7.834781702663802527e-02,-2.029333398240537253e-02,1.929035793304000046e-02,-1.689802277287498489e-02,-2.872817709107879352e-03,7.106259912025435395e-03,1.492917298856882291e-01,3.649590461543436026e-01,2.121986828938352276e-01,5.516905973675415575e-01,4.108260552838257085e-01,4.025237022620427318e-03,8.915742979799307077e-02,-1.205100014477711312e+00,-1.124253073000014203e+00,-9.313877187042589600e-01,-8.657317774052865067e-01,-3.896801808455444549e-01,-1.146392829363198640e-01,2.290447489261254396e-02,2.722663666443170261e-02,7.733651084306442103e-02,8.843998744215932073e-02,-7.549266484085592754e-02,1.726185137177988771e-01,5.297142131784241675e-02,6.109675054059408028e-01,1.247588323186693549e-03,-4.350325008608055266e-01,-2.718142351586282368e-01,-4.910674205046294261e-01,-1.175725715719026621e+00,-6.887567583483187317e-01,-5.942223430930506645e-01,-3.858119170784878871e-01,-1.742592513113347674e-01,-5.088865499115836910e-02,-4.129420593726604305e-02,-3.036659081142445427e-02,7.144114800497009844e-03,-3.051417845768420942e-02,3.916299687920144490e-01,-3.075104835077220877e-01,1.601777642674474533e-01,2.352298905233956433e-02,6.205566025564115962e-02,5.518381765280008233e-01,-1.010017000227553946e-01,-1.069099475848068082e+00,-8.735895778600863970e-01,-7.094497115983503521e-01,-3.225424314777177726e-01,-2.279419242117697031e-01,-8.746290198690495621e-02,-7.025300157749750363e-02,5.682825345033185038e-02,1.301961344354681492e-02,-8.273610878002103652e-02,-4.137474354620064854e-01,-1.037182033283533533e+00,-8.843163960456922323e-01,-1.772538182323559530e+00,-2.044567391919964283e+00,-1.024838197303528764e+00,-2.237266149959884487e+00,-8.511395802302857971e-01,-1.223296907957416746e+00,-6.728956190523992520e-01,-3.747027224361066944e-01,-1.891874526982876836e-01,-1.126226295768200381e-01,4.950791386404785471e-02,8.196513035924701818e-02,4.541818591104682112e-02,6.373317076851676977e-02,-1.432510069929375796e-01,-2.100006196385672819e-01,6.569020745676217299e-01,-6.769245515646082900e-01,-1.176048354873159729e+00,-9.941198159163955328e-01,-2.573341429066117847e+00,-2.197599260302265822e+00,-1.353893988014307492e+00,2.793848698025725233e-02,-3.973559680959887208e-02,-1.455209351498600034e-01,1.558386378005500658e-02,-5.021490375941059514e-02,-9.337831816718752953e-02,7.229400129299966109e-03,-4.207451461246222019e-02,-6.917178155292572073e-02,1.315286952389596031e-01,-2.625375447645936222e-01,-3.371045909114369493e-02,-2.484695355495585567e-01,-5.093617960154256386e-02,-1.308894102009964255e-01,5.682031252007841392e-03,7.404262811892214913e-02,-1.237727547219514279e-01,-4.639841548818151098e-03,-7.114584749281606391e-02,1.808654723148613030e-02,6.586225483509156042e-02,4.017888563360803161e-02,8.138057083435906724e-02,5.678936248350997633e-03,-2.903555547220879399e-02,-4.934468644209892563e-02,-8.597397654444456638e-02,-1.773319561632237225e-03,-5.025564703584093490e-02,7.004606482862452133e-02,5.025453035866189744e-02,3.231144783428677170e-02,2.929020076489939270e-02,-1.030215655538001783e-02,1.026487532412992953e-01,4.898036804288351774e-03,4.264146888169061816e-02,7.278018586074710972e-02,-5.860327755365575021e-03,4.145839915434731265e-02,6.410307487848433163e-03,-2.886589177448289911e-02,-3.081261985619458341e-02,6.588122557205901286e-02,3.418142939302885874e-02,-9.881447612596275590e-03,2.261727923500314250e-02,-1.337564790359262457e-01,-7.612012663611753688e-03,-3.413819765994585004e-02,6.321895363752666475e-02,1.185192108076834304e-02,-5.143876560136304704e-02,4.136709369311016710e-02,4.371224125863421017e-02,-1.031348147120798170e-01,1.562753141699112919e-02,5.389556100319513321e-02,3.662215723872525724e-02,5.415108328193678905e-02,-6.974064320911209369e-02,8.747012778136251804e-03,2.365137463028278708e-02,-7.649127190061646986e-02,-6.362585028022621492e-02,-9.472061014941177137e-03,-2.376313115555948180e-02,1.660011207875043649e-03,7.990614935316511791e-03,-8.042949195227719339e-02,7.935561832880540234e-02,4.331347181705359067e-02,-1.115046392097187311e-01,-9.846893298748843337e-02,-6.222381659479038485e-02
-3.968983516436708214e-01,-5.783324689510755956e-01,-1.173726941899204124e-01,4.600523622804600365e-02,-6.764211271575298889e-02,3.429696421039914456e-01,2.330181046546671020e-01,-3.889800491503085933e-01,4.790174119027385546e-01,3.887110896806025839e-02,2.698321445685926134e-01,1.655146432640248414e-03,5.132212914617650251e-02,-4.016626691889375184e-02,-1.258824997985823757e-01,1.326974789757235512e-02,1.328621597433110313e-01,-8.452943071805862907e-01,-7.984159398868068136e-01,-3.293707387830536737e-01,3.689697683283826857e-01,-4.384694368235758088e-01,-3.297671945357414508e-02,3.340533950417058917e-01,4.027881622290868657e-01,2.383845743840669329e-01,-2.106442367639496105e-01,-1.695663113750510986e-01,1.187354360028907430e-01,-9.417797874078748244e-02,-2.092995061647598687e-01,-1.709867198879633232e-01,-1.391699038388070908e-02,2.886187355472621258e-02,-9.665923713362435388e-01,-3.366764059827052624e-01,-5.115679818447839144e-01,1.987810481299150112e-01,-1.832685425737728691e-01,2.400542533947057633e-01,-2.395613731079109313e-02,4.265275753468815156e-01,4.811744358474009942e-01,-2.303530234560155210e-01,-9.597242996076153776e-02,1.346714972208435945e-01,3.816726091138296639e-01,9.380160318759199478e-02,-2.786500558578074160e-02,-1.746511855170405914e-01,1.016121360705409676e-01,-1.396020799396671785e+00,-9.532532713112994438e-01,-7.874092084447551487e-01,-6.559132385413760646e-01,-5.210308972521648929e-01,-1.578560625087769842e-01,-5.814199806668643999e-01,-4.146746889772341405e-01,-3.920055164343815290e-01,-4.461709475514324952e-01,-1.005291783939290529e-01,5.410690840467088925e-02,2.163151322337950599e-01,1.304113650281396586e-01,9.909666423875357344e-02,2.564815281312272655e-01,1.209067229837994528e-01,-2.981218513267762660e-01,-4.612298113086475970e-01,-4.116093989561541155e-01,-5.701378712405511529e-01,-6.143653902478554141e-01,-2.447153459094625061e-01,-5.856376949276055344e-01,-6.207209205349808467e-01,-9.501583286975877618e-01,-1.118603754854019305e+00,-9.179441799043712713e-01,-6.581436071266977272e-01,-6.356607590070081359e-01,-5.367353061891824151e-01,-2.984280482818100766e-01,-1.116790198472043111e-01,6.671757788355767160e-02,4.707102205182188137e-01,1.814447340360419297e-02,-1.998856413460650960e-01,-7.803053522806687736e-01,-8.173421350129049801e-01,-4.139926596585924989e-01,-9.402624443782342523e-01,-5.895230436868694746e-01,-1.102643336839158605e+00,-1.005447290698816554e+00,-1.196445224230148652e+00,-8.395108884719223452e-01,-5.454266339397304542e-01,-4.872871419299399376e-01,-2.460028914975388448e-01,-1.373201193622694827e-01,3.938378446995150634e-02,5.676892428032468407e-01,1.431139481674372493e-01,1.040838592348779956e+00,-2.865472601655064677e-01,-5.315549009434292760e-01,-7.290890001253692576e-01,-4.963983248705228224e-01,-3.762496980490865339e-01,-7.580793592494079469e-01,-8.960915571873094843e-01,-5.796948475077252638e-01,-7.721279817172921334e-01,-4.269236255403248137e-01,-3.565906358269962939e-01,-3.142231605752200951e-01,-1.208705984714971704e-01,-1.260971370850257900e-01,4.998265181053574979e-01,5.028027909065780898e-01,1.163857129237241939e+00,2.185185448581590251e-01,-2.979349552839214987e-01,-3.750534562731969723e-01,1.147780034529317789e-01,3.518288805108312767e-01,7.265224009916683157e-01,9.871030417175172822e-01,6.437788495249640031e-01,7.760896230810830909e-01,6.218223285093605890e-01,2.849993915215842666e-01,1.512609783487597337e-01,3.687002019771986119e-03,-2.496933453943278591e-02,4.995152200206231519e-01,3.373695047541878655e-01,6.787567606051865265e-01,-5.973974766961520633e-02,7.298890506349167695e-02,1.039938175442046975e-01,3.480575479471186839e-01,5.413532126634063024e-02,7.283455169471859669e-01,9.089732646973196495e-01,6.394721884434264592e-01,3.925652337166312678e-01,2.454171131581544818e-01,2.116076543672822663e-01,1.208422608787527303e-01,1.497485542842323658e-01,-1.031233425355916611e-01,5.476595545379332047e-02,6.123885204727623488e-02,1.053966908766995961e-02,-3.132032218413623448e-01,-5.527122222247340087e-03,-1.421541158157312718e-02,1.100656221322330319e-01,-4.761624152091399331e-01,3.817116693318711729e-01,1.848055648917151517e-01,2.123065252994945085e-01,2.362569010127708313e-01,1.883142671714571337e-01,2.380170562339254392e-01,1.619252711479489959e-01,6.732054693065002426e-02,1.813494661150825693e-01,-4.933210618013308957e-01,-2.175003299209500029e-01,-5.085119812686560437e-01,-4.198063740091171336e-01,4.575448934205025159e-02,-8.842286632871422525e-02,-3.055491215236915137e-01,-3.959937992984234323e-01,8.103860690450536211e-03,1.182422238128809887e-02,2.122879217710815780e-01,6.914288155486664200e-02,1.189013289249092192e-01,2.409659739285086866e-01,3.146756047713592658e-02,1.841765193508016207e-01,1.350706401041556204e-01,-1.034447807007651265e+00,-6.481484852331192981e-01,-6.747715321599142557e-01,-4.410198961921808491e-01,3.210686466358897428e-01,1.158660783560977181e-01,1.506790929825183867e-01,2.114369708727594221e-01,-4.893386468288353219e-01,6.656569455181039485e-01,5.468130385865110910e-01,1.991625911763557077e-01,5.192060838054881611e-01,3.406811750803745986e-01,1.748360649050487436e-01,2.028462182644135414e-01,-4.215503798927323215e-02,-6.534092587707017730e-01,-5.701976264349275514e-01,-2.235489163214830211e-01,5.674304402271952014e-02,5.413452886941531872e-02,-2.328333119583670396e-01,-1.840431920017972511e-01,3.227352106989550551e-01,-6.282457029497547085e-02,7.856565744564127929e-01,8.221349150761205760e-01,5.563118822328245727e-01,4.107988191124614108e-01,2.777977705123547136e-01,2.742633835000304332e-01,1.584679885093275564e-01,-2.928537765177403190e-02,-1.551888625043921499e-01,-3.220034516310736894e-01,2.043541087740033679e-01,2.897602286382665593e-01,1.296051807783132614e-01,2.177900711083684548e-01,-3.139077802147169360e-02,2.368433918658458259e-01,-2.960610067946463086e-01,4.902104836666799081e-01,4.369390219318528557e-01,3.160566216623561520e-01,9.130086045928420546e-02,-5.441671083207591346e-03,4.678968352545560122e-02,1.750018430880698195e-02,1.174818885202798778e-02,8.659031178344188395e-02,9.510447890657863779e-02,-1.118132571303698947e-01,-1.116208308846487890e-01,-1.718855807281781389e-01,-4.158402704186472953e-02,-1.994730123926943821e-01,-1.502121918476720663e-01,-1.271472157802602254e-01,-1.301476007391710599e-01,-2.707400016400393072e-01,-2.030818013211601047e-01,-1.032161176714693623e-01,-3.740482121061618898e-02,-1.441077736055285941e-01,2.975548290234863308e-02,-1.769207584500046351e-02,1.494401701263901698e-02,-3.314738625056838639e-02,-2.052965021758334369e-02,7.168920104467516041e-02,7.884159465757290333e-03,-3.614263727028321771e-02,-7.577709093256745909e-02,-1.280352494797100393e-01,-2.241067504013125322e-01,-1.991076073839074811e-01,-2.598439271388626182e-01,-1.073598455202136176e-01,-8.680867506965420088e-02,-1.884794803474164337e-01,-1.113656420275198761e-01,1.904365163909836969e-02,-4.545617330060506417e-02,-2.483079808681619080e-03,3.313116572878015836e-02,1.170232369655332810e-01,2.122239087725563689e-02,1.649113573391579879e-01,-7.637680328411501629e-02,-4.144364978323216570e-02,-4.027119854092223172e-02,-1.350415695940256622e-01,-3.871568565044550270e-02,8.467510285800122424e-03,-7.695793198114363187e-02,8.257228533492049286e-03,3.031959929701680267e-02,8.060731218517495564e-03,2.525172156362762155e-02,-3.179012137762704526e-02
-1.946116965519758546e-01,-3.882039396137904053e-01,1.139741537218922629e-01,-7.802323939612484383e-01,-1.225359246535993929e+00,-1.467280906483443337e+00,-1.727954293416664955e+00,-1.477661287621542918e+00,-7.749171198446858089e-01,-2.122790920883992072e-01,9.900522421172093523e-02,3.031187171433336602e-01,-7.247702184534157710e-02,-1.710428948628843482e-01,-1.698445397567801551e-01,-1.186134763016070404e-01,-3.171939537980867502e-02,-5.052961616315237992e-01,-4.307701015721101534e-01,2.284916506999226937e-01,-9.403359642440619615e-01,-1.185637152054803245e+00,-1.436174731226631529e+00,-1.117921247806192175e+00,-1.293109514048017328e+00,-4.450363654034261152e-01,-8.390865417028101625e-01,-8.889328779874096365e-02,-2.953582193141937040e-01,-2.436356775375490835e-01,-2.519794181955206103e-01,-4.128959529354426783e-01,-4.033846314711238557e-01,2.106836277158138579e-02,-2.193906941371086272e-01,-3.573358100052215769e-01,1.903993391775403166e-01,-8.344734568240098627e-01,-3.918926987384417360e-01,-5.641870006656439784e-01,-9.223572226532784635e-01,-1.355570594076612290e+00,3.354073381382371988e-01,-1.319063381876264540e-01,-8.172838563068755835e-02,-1.104058339293687574e-01,-2.189683983391280675e-01,-6.841702766677974779e-02,-1.897853671886869931e-01,-1.708414155115709210e-01,1.478195936649484565e-02,-2.124167322808976910e-01,-2.294111685272862688e-01,-5.234828465722362462e-02,-5.291015569125017137e-01,-4.334923726632440855e-01,-8.211977084603685473e-01,-8.067582819504497404e-01,-8.003079284647691694e-01,5.227409217152103604e-01,1.781498600071345917e-01,-2.367238809858216164e-01,-1.817389990974179192e-01,-1.771518845727523550e-01,-3.153140871272745033e-02,4.107289246865306748e-02,-6.932332439758033538e-02,1.399228955937630459e-03,1.385384386625884701e-01,-4.737755097113546809e-02,2.319605859160654149e-01,-2.021220514737501750e-01,-1.062267661155276377e+00,-6.665520884163951276e-01,-6.583864068341841458e-01,-1.267541854459720563e+00,3.572225400522894279e-01,-1.336997345786428981e-01,3.488325986751878577e-02,-2.658474074511708585e-01,-2.094358676627572080e-01,-9.504210155415889275e-03,-4.431110483755108798e-02,-1.251737993203785038e-01,6.883840294497459156e-02,2.304504230041596463e-02,-7.983884613536004760e-02,-5.183076350268500665e-02,1.201738707162369080e+00,9.622024007615187502e-01,6.278680198972006465e-01,1.031725563087081410e+00,1.357098222050379777e+00,1.450478594172609714e+00,8.682563267035127152e-01,5.468517997982093037e-01,3.256745624858248256e-01,-3.028987600714437289e-01,-1.319942326427501478e-01,-1.502643821922247658e-01,7.018103122172631748e-03,-3.111940415499647034e-02,-3.446283311691922813e-01,-4.786138206296197684e-01,-2.014269573164992333e-01,1.259724270381859634e+00,1.075847933548731650e+00,6.499875237037611164e-01,4.714850751716171406e-01,7.672569937966554621e-01,1.301050852610226904e+00,1.044534480617514971e+00,1.357927541151185968e+00,7.118537084254458747e-02,-3.697042580895866792e-01,-3.866070763136036370e-01,-3.189943652665753748e-01,-9.663418031257873034e-03,2.685530532686535715e-02,-3.202339980106996276e-01,-6.711333537476170397e-02,4.440043939810207896e-02,3.605340870345971616e-01,6.679526120110998444e-02,-2.973191382269196881e-01,-5.410129752069327003e-01,-4.840221767035058908e-01,1.757753093370114095e-01,5.366697337998862505e-01,1.168157261877879050e+00,3.115087988846198530e-01,-7.482763689798797857e-02,1.304517830217779249e-02,3.727519647782568529e-02,-2.046096377799689389e-03,1.890816782335326060e-02,2.190551576793021149e-01,-2.561508555439793999e-02,2.778585094838511016e-01,-1.020539061180939094e-01,-5.615502971708052904e-02,-9.371624322261180584e-01,-1.188363822761565602e+00,-1.346536446988642277e+00,-1.272403334399218877e-01,-1.237930351629868420e-01,2.801318782315488365e-01,5.869092545531575666e-01,4.614321649866876679e-03,-3.899579853414608666e-02,-1.063183904107277838e-01,7.970885168178230840e-02,-8.022401553565146337e-02,-7.672546270999841544e-02,3.795639415046964810e-02,2.777629650196272171e-01,-2.416706848562542032e-01,-2.307761828890607103e-01,-4.148932234002182806e-01,-7.141248499338830324e-01,-1.479309598529993108e+00,2.167397082817284215e-01,-5.587981479722148315e-01,6.594089651415022124e-02,2.924501074241562248e-01,-3.831642487370075928e-02,1.322322197681464195e-01,3.688229124961128064e-02,1.196786909844797936e-01,6.197843026880420908e-02,6.594971307418978634e-02,8.997267956409296663e-02,1.289476849200440201e-01,4.041600141234973076e-02,-1.366519990712573851e-01,-4.049964132594731092e-01,-7.776418685473281966e-01,-1.410162112880813945e+00,2.606115600142970279e-01,-2.848232616034043763e-01,-5.292249023251071050e-01,-3.459322779929211999e-01,3.256569935114839165e-02,-6.326656201839084281e-02,3.561674182833800273e-02,-5.401947756859581951e-02,-5.848488513781332360e-03,-9.770142656197433606e-02,-3.655195465324910242e-01,-2.956930315423514019e-02,-5.870061036547700173e-01,-5.047604830828974487e-01,-7.393075474570127703e-01,-1.029019391611630807e+00,-1.750595203536806865e+00,6.125373612051544514e-01,5.511319979891886600e-01,-3.174838944439248301e-01,1.231690991605550733e-01,-3.554856932294186422e-01,-7.337799549389481535e-02,5.734091199939973099e-02,3.194928508273443823e-02,-9.641913245592383455e-03,-2.072988383544980412e-02,-1.960172390005754731e-03,6.125287800880205302e-02,-3.228848113220409433e-01,-6.447716381360529825e-01,-1.049412406061748015e+00,-1.233547526806938022e+00,-1.480922780505219194e+00,1.527603331471431326e-02,2.150453481236882791e-01,5.763959273269185848e-03,-8.501615782943962307e-02,-1.059680050430247267e-01,-4.886228575064168606e-02,-9.743549083268682534e-03,-8.588589849956170322e-03,-3.654727841043224623e-02,1.860309739254783490e-01,5.033179698647409772e-01,1.734089226844982845e-01,-1.805291209456785229e-01,-5.551310200771347736e-01,-6.673976374510426357e-01,-6.558165964535087600e-01,-5.197528500687683684e-01,1.474368570764483799e-01,4.569356557907937044e-01,4.649816460793924910e-02,-2.889665219334770080e-02,-6.286758399074469927e-02,-1.196071271921234774e-02,6.802766209615294934e-02,4.655561917595570087e-02,9.685981869238496911e-02,7.322145571032304123e-02,8.267515576378600684e-02,8.206374973068916723e-02,-1.490895799963498636e-01,-6.318973653815311564e-02,-6.337676286092283617e-02,-1.374070606869992051e-01,-9.104131952533515981e-02,1.135764764194166360e-01,2.533082479924030350e-01,3.205664440133043636e-02,-2.576762446285079527e-02,3.144062763387788645e-02,7.506998150364385669e-02,-4.344589094172095212e-02,-6.952005491532846360e-03,4.054287391705225368e-02,1.132119631327149073e-01,-3.919382982562126527e-02,-3.753529328540947119e-02,8.025762788743873166e-02,8.190853162714027691e-02,9.251532650722167628e-02,-8.203523559491800177e-02,-2.422168125009068959e-02,-3.875713822848831508e-02,2.672546799922415756e-02,2.221197258885030876e-02,4.488385031863962107e-03,5.969987943291613780e-02,-2.309902610435201134e-02,-6.953184267828176057e-02,-1.015097487786073699e-01,-2.735903955438201418e-02,-2.462171433286321556e-02,-2.296522904344044241e-02,2.818460139242142531e-02,4.910950066110647202e-03,5.596345350629404469e-02,1.778911908127114860e-02,-7.481752266452938727e-02,-1.409407248348260207e-02,1.089602101031539316e-02,1.174155232678619348e-01,1.612002357235414393e-02,-3.670494651337568442e-02,-2.518260583681914896e-02,1.881111745243232297e-02,-4.672644581046146717e-02,-5.132899358890665592e-02,-6.711325129378725371e-03
2.776145066353823965e-01,-3.945139076690276636e-01,-1.026371954459533331e+00,-1.638710832171385468e+00,-1.630500634047981068e+00,-1.381382323963591618e+00,-6.458976627262206227e-01,-2.585118591435993096e-01,-1.301012063554434217e-01,-6.553242605821592293e-02,-1.283936701468654275e-02,4.150798972211347526e-02,-1.834483110674389739e-02,-5.272345541555392701e-02,-3.687139713585300960e-02,4.050070084206196241e-02,1.379589916819152010e-02,9.405787713483068635e-02,2.715866156096433670e-01,-1.071357988888040902e+00,-1.479039649071858031e+00,-1.483557094073417515e+00,-1.107103388691606849e+00,-5.550159251082825707e-01,-4.380430487380040372e-01,-4.151255782679453832e-01,-1.879249344389901655e-01,-3.453706906024545803e-02,-9.999505068282706077e-02,-2.149136309149190030e-02,6.959424643000639357e-03,-5.712228221749216656e-02,-2.622978593953419896e-02,-1.075286984297540646e-02,-5.590353410546470420e-02,-6.868712342550317707e-02,1.189044796439293172e+00,-4.267148622698289095e-01,-4.115399388657415281e-01,-3.099969514155578865e-01,-6.986694899827011751e-01,-3.082733106041980475e-01,-4.194340439163560808e-01,-9.226288878903879387e-02,-2.255977998878087518e-02,-1.749550899134071774e-02,-2.342477827734497191e-03,-3.518401106770796538e-02,-1.718374634131078840e-02,-8.592333108782962414e-03,2.122670109367325378e-02,6.005485215739330557e-02,2.613538519577756625e-01,9.340545291807176298e-01,4.451188252570382337e-02,-3.442607586505829764e-01,-2.589762296454933832e-01,-2.308152044588344387e-01,-4.191183785840981169e-01,-3.815711307541257424e-01,-9.125934607094657314e-02,-1.160203786799066106e-01,-8.842393494800789011e-02,-3.892171935740783989e-02,6.346565403847539977e-02,-3.932140566757583861e-02,-8.761854450399168825e-03,-1.239853411457318526e-02,-2.055787515309844826e-01,-2.780500126891219739e-02,1.511275438588612907e+00,-1.096705184570597735e-01,-1.969581745332969203e-01,-4.060290829930419954e-02,-1.013316578704506199e-01,-7.070266032241004361e-02,-3.506344540842339930e-01,-1.012724729977970278e-01,3.479197643622466973e-02,1.254818002029970403e-01,-3.807924721889281716e-03,1.306680978138321549e-02,-9.415584405142493618e-02,-7.844427240537514556e-02,-2.498334013325677339e-02,1.736082484663937775e-01,-5.047575926219372705e-02,-1.261916109247646078e+00,-1.331925678025854154e+00,-1.620627931985214376e+00,-1.115770889772810470e+00,-9.085471826089823733e-01,-3.465869138368635749e-01,-3.236230878729844385e-01,-2.061270990812485715e-01,6.662377790020392043e-02,-7.075418639197601951e-03,-7.097135069473743674e-02,-1.750790743494340385e-02,-1.318730932240207709e-01,-2.620961051183411453e-02,2.992832017567853900e-02,1.114030357428193868e-01,8.791696068805320008e-02,1.173855243992807385e+00,-7.505703690877025824e-01,-1.237443240679937828e+00,-1.027066376525456626e+00,-8.286144875356686867e-01,-4.731044543284743109e-01,-4.123253613873780199e-01,-8.687835117753860137e-02,-5.610518791601359218e-02,-1.321973624215335152e-01,4.463545766420272398e-02,3.186503610503713807e-02,1.061279773625057599e-01,-5.351791775806837709e-02,5.641843977810086230e-02,2.334265400984375169e-02,-2.656509136354239138e-03,1.414979058339102203e+00,-2.749219479377774111e-01,-6.104783974153621395e-01,-6.790124851183307886e-01,-3.546132391857205191e-01,-1.905985426662311077e-01,-3.275915638592022949e-01,-5.020552562693356841e-02,-8.275613160782316347e-02,-6.813070256483153009e-02,-7.334043924256125786e-03,2.436434902222281082e-02,7.496745608910118652e-02,-3.909306342661681560e-02,4.379017253099194013e-02,1.820062943010093692e-01,-6.721773672041495007e-02,-3.959747912458074781e-01,-2.452430014356463683e-01,-3.334447908615396083e-01,-2.147156537717347102e-01,-2.638912800194700981e-01,-1.221126653949433094e-01,-2.511741496410236363e-01,-1.984930068596828245e-01,-5.886986372363624959e-02,-4.141783185745494950e-02,5.747495645784109902e-02,1.668113060265476524e-02,4.118281874214053950e-02,-5.697776058002357313e-02,2.633927822105985167e-02,5.952600225608371126e-02,-1.395004653454184201e-02,9.494257606755712731e-01,9.518535750807601697e-03,-1.345291785604902646e-01,-1.360158631391463757e-01,-1.660788018489809947e-01,-1.783108744725746542e-01,-4.286384056696217471e-01,-1.538091592842789068e-01,5.497044634308637101e-02,-7.784224912115624007e-02,-1.379190238355956777e-02,3.947774307139410854e-02,2.219685671936058244e-02,-1.390127835788108716e-02,1.282028529917775966e-02,4.060966572737024771e-01,-1.066112656189479452e-01,1.076312734668787741e+00,2.274647725444797763e-02,-2.052442256160769418e-01,-6.715569968162614367e-02,-2.084116301481456213e-02,-1.886975746194627657e-01,-3.133827014925188448e-01,-1.998656580970460395e-01,-7.185939542241763511e-02,-1.972853127574333582e-03,-3.235811681559083025e-02,-6.159512001778025964e-02,-5.526825026971061983e-02,-3.448348822504727906e-02,-3.000500295189656268e-03,5.606842020896778828e-02,1.435432980789752566e-02,-3.343342551690733799e+00,-1.988351640476545557e+00,-1.919229920730681549e+00,-1.598299152942945334e+00,-1.025267337870773510e+00,-3.076877061566248850e-01,-3.396431578162567577e-01,-1.804082365169365765e-01,2.618425538411769601e-02,-9.551656139830629055e-02,-6.931643280349679415e-02,-3.141443840602583387e-02,4.581943812470542360e-02,-1.026066948994225625e-01,-8.859689380686069926e-02,-3.825300210218139929e-01,7.397771962335345508e-01,-3.010128255392630070e+00,-2.627941272361371539e+00,-1.728685283150921848e+00,-1.637809845858943625e+00,-7.875531446730287266e-01,-2.153291961889536865e-01,-3.196927671123616643e-01,-6.013320094339037747e-02,2.750517334454894922e-02,4.403636304392997969e-02,6.280864977165635799e-02,-5.245801237573906317e-02,-1.057593316588132000e-02,5.139491546126422061e-02,-1.288134304059943558e-01,-1.542912287370695745e-01,-3.388125479691789788e-01,-8.555481069617391077e-01,-1.292814382409672280e+00,-1.230965759898370093e+00,-1.330893120746625247e+00,-7.251487090372308320e-01,-8.501885352146808239e-02,-7.763696479494860969e-02,-1.119715139923765784e-01,3.552511008265935716e-02,8.599082274915804958e-02,-6.516149987099431606e-02,-6.168284872903392196e-02,-1.069349759745339898e-02,7.459459585312218713e-03,3.916990431173938969e-03,-9.266350986194824002e-02,2.378275696744537593e-02,6.433903288481478133e-02,3.798655491806528228e-02,-1.400662437437351082e-01,1.635349759128435984e-02,4.215921897179022992e-02,-1.051594842768514143e-01,-8.841332255238467872e-03,2.561598984304869903e-02,6.581929680431858332e-02,3.461367638497828136e-02,1.924224807211894969e-02,6.869235742765050778e-02,3.328064513544776865e-02,2.420772604752128090e-02,8.531286751077353514e-02,5.240226256334521576e-02,-8.050885039517074321e-03,-4.151906191349812730e-02,9.767379163608562107e-03,-8.714452285737689721e-03,-1.462331856224680961e-02,8.547366503206781096e-02,5.108661765746911644e-03,4.425638201280815420e-02,-9.448953819968838874e-02,-2.573540381986415618e-02,3.996690300763285075e-02,1.829499699333547030e-02,-3.371067902841728275e-02,4.663759974581115769e-02,-9.492380959152454944e-02,-1.505712545476909064e-03,3.543370227451746873e-02,1.303513789573387538e-01,-1.190698706389460397e-02,5.485834147230522762e-02,2.735856086169816473e-02,1.453448856707698911e-01,6.858410867618350282e-02,7.221042219587986422e-02,1.601215007504500770e-02,2.185557179564386054e-02,-5.877971888321362193e-02,-9.245080593903569344e-02,-1.320389224432146069e-02,5.926793998934288231e-03,-3.306645820201450925e-02,-1.607401030202987857e-01,2.889061234264752448e-02
-9.587660325841935727e-01,-1.687128511585932911e+00,-1.014453403141508003e+00,7.676953414245836216e-01,4.387211924182284339e-01,-8.850823892698664874e-01,-6.819680558068698106e-01,-2.594681784561925220e-01,-8.480163642734240836e-01,-7.544990272345823978e-01,-4.504490431329747913e-01,-4.639551045808903429e-01,-3.619205324626519060e-02,-2.506970745869031014e-01,8.216847730048404408e-02,2.404948057532565672e-02,4.511651639840299002e-03,-1.156925146352221656e+00,-1.738194621199034007e+00,-1.151255825961599033e+00,-2.443063905842157435e-01,2.503494261901839102e-01,-4.662665721693668996e-01,-5.167332333512094644e-01,-1.062563804352665564e-01,-1.276246798203969801e+00,-9.082084456802304029e-01,-7.560657984281363708e-01,-3.819326487866377962e-01,-2.037938959020055840e-01,1.463090450736835232e-02,-6.743934401932864808e-02,3.189625013409215504e-02,-5.239956290474408890e-02,-1.118180489658051835e+00,-1.027458936359496366e+00,-1.018940143871497062e-01,1.671666918249524736e-01,-9.449736648766057789e-02,-2.307159437508584376e-01,3.342809654792361362e-02,-4.929145156169387199e-01,-9.222826267435575431e-01,-6.484159262304188820e-01,-2.857409311383801165e-01,-1.838655608318267576e-01,-2.967355671303457676e-01,-1.174983934013972137e-01,-9.221160614020461332e-02,-8.008199603355474483e-02,-8.121675096509333586e-03,-6.822659802026048714e-01,-5.096849925190346520e-01,-7.861141980379189598e-02,-3.110481197404421083e-01,-4.663995817020687162e-02,3.136548223968325111e-01,-8.584249250023813504e-02,-2.284032049797242725e-01,-8.028344684854898938e-01,-6.538559096647199587e-01,-3.255272939326422366e-01,-2.510813540425494428e-01,-3.149722457202197567e-01,-1.573182101509276454e-01,2.514373152632902800e-02,-3.711140535170256993e-02,6.923185000801698741e-02,-4.015122336838338191e-01,-2.640562223345501169e-01,7.442292375232384405e-01,1.970055110636651785e-01,-2.756332468800538546e-03,2.868981210323964803e-01,-1.575592055292881766e-01,-3.378151103200143224e-01,-7.286169516160313497e-01,-3.386605696034954427e-01,-2.221523340170372951e-01,-8.979391732817015859e-02,-2.167786392454611744e-01,-3.593555189000191552e-01,-4.906366434991250164e-02,-1.249337724721231724e-01,-1.145246415905183390e-01,-4.800808510118771966e-01,-5.152014096437514956e-01,1.802217654483859177e-01,3.946389759397036373e-02,1.438832291072161991e-02,-2.309717625039586775e-02,-8.051436566694001318e-01,2.443767978274702379e-01,-1.022504091952732175e+00,-6.419670270250076305e-01,-4.817763630263808827e-01,-1.533326121099921613e-01,-2.562446136547459341e-01,-9.172172003791316530e-02,-9.392864517211296782e-02,9.852504633506231624e-02,6.485550279930206441e-02,-9.887501391616768665e-01,-6.075637278430533472e-01,-1.888944875043854221e-01,9.917454551312439304e-02,-3.718148522359356889e-01,-1.766228951735412667e-01,-5.825934205573357616e-01,1.287071335006391704e-01,-7.664326898489406403e-01,-5.118027097659468838e-01,-3.778633993959743531e-01,-1.017068309314265451e-01,-3.116101441617839529e-01,-1.549701211084123786e-01,2.163824832944335694e-04,7.224835056827884176e-03,2.525582777316877706e-02,-6.479020470203904480e-01,-5.324329787464537889e-01,6.121951953080224246e-02,-2.329925275905835383e-02,1.267084562517486468e-01,-6.626003879547255615e-02,2.060707864518584453e-01,5.030903355518431264e-01,-5.612882170658137770e-01,-3.216485200015061774e-01,-2.290548470668590797e-01,-6.153727457837141618e-02,-2.022123856831565814e-01,-2.620031078904414557e-01,-6.704315607648120290e-02,2.205496150986591478e-02,-7.262509899982781680e-02,-2.744172582796252646e-01,-3.931116511605277086e-01,-3.246864587798483082e-01,-4.323915814639822663e-01,-3.748340079991415164e-01,3.728338721356599383e-01,2.177660758357394810e-01,5.185352304220479658e-01,-1.030864759895027821e-01,-2.308307535918448228e-01,-1.587260871382655814e-01,-1.035147662565078369e-01,-2.070947795765666621e-01,-1.681284168887263730e-01,-7.255073746661658274e-02,-3.358835234416521470e-03,-8.135634140363357317e-03,-6.656730875075657083e-01,-1.124208312469200610e+00,-1.116108127058179855e+00,-9.281087512684758067e-01,-6.673400974877345682e-02,7.346493732930323706e-01,1.059645480440766230e+00,7.690015882097943622e-01,-3.015192351770712431e-01,-4.573390565592067025e-01,-6.885265385108615965e-02,-1.335242831813985009e-01,-1.423003436241238318e-01,-7.432382012822563722e-02,-3.594099945580998823e-02,-4.882370107949930704e-02,-1.106297382287409897e-01,-7.510487130634818653e-01,1.221395582869378715e-01,-4.675364518886215293e-01,-2.265075189081767471e-01,-8.889141016382577642e-02,3.157251280784271752e-01,1.078912567410282408e+00,1.027713100247608785e-01,-5.281911954316106383e-01,-3.445555992494491182e-01,-2.729276620654179641e-01,-3.107665788279458385e-01,-1.414525463170202557e-01,-1.236912583678516364e-01,-5.254417771266411963e-02,-1.371758701641529431e-02,2.210951897945260397e-02,1.279259371363813402e+00,1.220665326475261603e+00,1.529725595397444238e+00,1.536684910727036391e+00,3.974633555193110013e-01,1.770167089959422818e-02,6.366325769326369038e-03,-1.266542362629587748e+00,-1.106365577197045535e+00,-8.132773011377565364e-01,-4.652298119292503364e-01,-4.819529295315216899e-01,-2.136689119868118991e-01,-1.672112353227701298e-01,-4.749025223584799754e-02,4.347127008627956618e-02,2.718570572495273771e-02,4.737415138249465585e-01,5.186447458189245019e-01,1.700975339056335911e-01,6.131636324330881349e-01,1.908649805520825360e-01,-4.756774531028558628e-01,-3.240603561381765196e-01,-9.800732188671037459e-01,-6.370402275227492472e-01,-6.261081660669783888e-01,-2.065654765403338311e-01,-1.728688005940701988e-01,-6.325461818051311691e-02,-1.595541539675274789e-01,4.838930697681772392e-02,-2.800404170140226648e-02,1.058764253730187961e-02,4.410719090498760320e-01,1.198087591837368460e-01,5.296468712818424435e-02,1.669834140294611524e-01,-2.233469295563332013e-01,-2.694339227397025693e-01,-4.178599137172551714e-01,-4.692871132076651408e-01,-2.905616130591999746e-01,-2.488794806616794753e-01,-1.915999932206647882e-01,5.675653397913287511e-03,5.070690497066823038e-02,-1.725008388998745812e-01,7.885849379047159269e-02,8.732846422426271404e-02,-5.325571636105240828e-03,-5.856820781589176794e-02,-1.246631013863270659e-01,-6.121481283425610036e-03,-1.840321948740801794e-01,-1.215860660837029400e-01,-2.506440267285527934e-01,-1.521965322640595752e-01,-9.118121349870267345e-02,-1.940265567795630974e-01,-5.112407739011381319e-02,-3.297641298486617134e-02,1.856231499990455489e-02,7.812340954840293894e-02,-8.839416176572041650e-02,2.376835204614229438e-02,-4.572482581360839959e-02,4.623588956200933714e-02,3.383738889409496076e-02,5.724662051403365398e-02,3.008664658164792935e-03,1.703690712307309729e-02,7.592660729182736101e-02,-1.493635677083713677e-02,1.481218378151074287e-02,8.036466017676778539e-02,-3.260978218296143628e-04,6.401019893351300727e-02,-4.959804292345350307e-02,2.773978274239117733e-02,6.615022717214799619e-02,3.100152480509638792e-02,-3.561338474265030290e-03,2.696939630277460018e-02,-1.275954247425521194e-02,3.727984250922449644e-02,6.748345133620835268e-02,-4.282819867521075324e-02,2.734899788630476211e-02,-6.349848444575546813e-02,-2.220277179103646512e-02,2.481330537107664935e-02,-3.033488502925434441e-02,5.015443975631052320e-02,6.770608989896996499e-02,4.344551939904969101e-02,-4.426377368732443279e-02,-6.384306552198195338e-03,-9.967794807814700855e-03,-4.722928953559542981e-02,5.970048463483725726e-02,3.250108609837749993e-03
-5.499414211419313414e-01,-2.435621315403667386e-01,-8.689053423604459203e-01,-1.025943068294404625e+00,-2.690958875372956305e-01,-5.023566653194401210e-01,-1.536405996757960468e-01,1.844108427942243722e-01,7.607062807430460538e-02,-1.910554473605307127e-02,-2.145753602880862698e-01,-1.840090558910615903e-01,1.055008762853644338e-01,-2.435790539218594258e-02,-6.581093758084885503e-02,-5.484236563179358676e-02,-1.997237039422897556e-02,-6.399257223159043884e-01,-1.006974356391318715e+00,-9.857616809040096184e-01,-1.273489331911055844e+00,-9.167324622327434058e-01,-7.435289901931900758e-01,1.272214719735694222e-01,3.910879454541471012e-01,1.250037991241888802e-01,3.955802380974201005e-01,-2.432976809678102093e-01,-2.163291484692130284e-01,-2.764790945785199905e-01,-3.055896662236822214e-01,-3.644583988706889127e-02,-8.617018240123805115e-03,7.359559625515045556e-02,-1.475186315795433932e-02,-2.896514815646586416e-02,-3.772064124256551687e-01,-1.465806224505085797e+00,-4.280449239905179670e-01,-9.045246737260295711e-02,4.774654669305098964e-01,8.269423865345940650e-01,1.614785716916321001e-01,1.027972846505804116e-01,-1.866608054625529256e-01,-2.601125534709304299e-01,-1.797841769143039281e-01,-2.112082515045792253e-01,-8.295099124466231988e-02,9.601833115829264131e-02,8.631708348667388453e-02,-6.736278166157882996e-02,5.319577777315204203e-01,-1.149364994545638424e-01,-1.134978346077388123e+00,-1.854431256435899456e-01,4.220674626533786333e-01,2.577493308619015558e-02,-7.036036810815078646e-02,-1.838464275765730183e-01,-5.899804922308485855e-01,-1.428450163336645040e-01,-2.091445204346330522e-01,-2.011485112405252684e-01,-1.033538713695754674e-01,-1.624711788541706448e-01,2.505480189483369827e-02,4.270459912023476939e-02,-7.758822031507456307e-02,4.857597351279865361e-01,-1.425922602109837845e-01,-8.193693981049124941e-01,9.126991152140565555e-01,9.008288503474262132e-01,-1.774485646426837981e-01,-1.014766177437902428e+00,-7.427281329209333149e-01,-4.747096120480965298e-01,-2.487165471577096054e-01,-2.247003024657851511e-01,4.980423123742534763e-02,-8.837902529703023369e-02,-1.477838569752483178e-01,-1.740432260405452292e-01,-4.201269576478402351e-02,-6.492140043507908798e-02,4.910391655342198347e-01,2.168473565675878845e-01,-1.015676776886808436e-01,1.144252514556829858e+00,9.687147956969180962e-01,-2.350865366128814665e-02,-8.359191997267585439e-01,-7.652424403733861791e-01,-3.245855311196793602e-01,-2.053813884245347665e-01,-1.175657110725431415e-01,7.699892980202138748e-02,-5.136374257155276735e-02,9.012986464527088844e-04,9.954799141006447083e-02,1.190225205054497304e-02,-3.188416721604259707e-01,-3.050602107417106808e-03,8.944840061066741121e-01,7.084750993487283210e-01,3.002059466271762012e-01,3.831064016845799891e-01,4.715676022331565798e-01,-4.901993369320343241e-01,-7.161850458910603567e-01,-1.971742216595845920e-01,-2.711747462426201682e-01,-1.480440242225395386e-01,1.453479000865940118e-01,8.629968342877215870e-02,-3.039145549224990528e-02,2.723233258948909788e-02,5.786277580192267928e-02,-6.624634595558570593e-02,5.274872662919776189e-01,8.280441925254693469e-01,4.244254468897125099e-01,5.075912849476904576e-02,2.170157478171368115e-01,6.556809961960304856e-01,5.780110432367678852e-01,-5.760473495827250073e-02,-3.537120646304520166e-01,-2.044165425826916793e-01,-8.432254495444874154e-02,5.152193919077066586e-02,-6.704505694269244365e-02,1.619477589801018302e-01,-1.355581917313594675e-01,-2.074228129206998755e-02,4.447387838562771312e-01,1.654672385483601238e-01,6.379956702923897383e-02,2.152891160885878410e-02,-4.498063675071325429e-01,-2.768230763019655649e-01,2.881603569591664749e-01,3.858227882196916259e-01,-3.704401787545119062e-01,-3.928903556935406383e-01,-2.188702358647786061e-01,-3.713197980439501833e-02,9.864477084521457162e-02,-8.561749738966338563e-02,-3.791785834252390033e-03,-7.625425084938028397e-02,5.741240303352575930e-02,-1.767551187299870041e-01,-1.501884603328698664e-01,-2.714220803986732711e-01,-6.702533674601180991e-01,-4.822397384784143370e-01,-1.291813175687674953e+00,-3.458425903824389330e-02,5.901935301772962550e-01,5.811466631199939670e-01,-7.545533969223679194e-02,-2.841665710503721298e-01,-1.163688399882017478e-02,2.744796755927385659e-02,-1.348124293210641034e-01,-1.162922284575870352e-01,1.602266366334817796e-02,-4.990788155103556556e-02,-4.704574712622219268e-01,-6.528374459408048391e-01,-8.410695480324151818e-01,-9.456086245010191238e-01,-7.345910633682223301e-01,-4.830707587633665256e-01,-7.090955896009136505e-02,2.184508539072870792e-01,4.494070548633116724e-01,-1.711350323439891907e-02,-9.965895468698168780e-02,-1.676717494077947790e-01,-1.600797283132728011e-01,-2.483793027065061276e-01,7.087495595860657249e-02,-1.134877195076101214e-01,-2.020802774392005743e-02,-7.614454422297854963e-01,-1.117435475828418179e+00,-8.911827873279574153e-01,-8.942925922899297442e-01,-6.889925697319818632e-01,-1.304785849502128725e+00,-8.379650490871244362e-01,2.322877449695280316e-01,3.002776119432561397e-01,2.756341651375868174e-01,2.337365365580998736e-02,-2.152080957177278930e-01,-2.964020448382955752e-01,-2.008389332662119820e-03,1.599298219411589006e-01,6.570153764821745623e-02,5.900693706244258818e-02,-5.062721803974972179e-01,-5.804889828527590723e-01,-5.181570899571792399e-01,-6.085009908097005482e-01,-4.640640966098950049e-01,-8.380933557765168906e-01,-6.954366377492339213e-01,-1.228044745674394117e-02,3.759824189628224178e-01,7.794979559759628029e-02,-2.317334111796423568e-02,-2.077910834277688079e-01,-7.346552228148935104e-02,-8.087612280708880719e-02,-9.499041104238618860e-02,-1.406199030679587125e-01,-1.709989146795466708e-02,-8.145950788868398795e-02,4.091213962988921593e-01,-1.794896157883248689e-01,-1.449841607866073079e-01,-3.411070002224453335e-01,-2.839779469289277491e-01,-3.195778031271718223e-01,2.367304803385425482e-01,3.187353809351473055e-01,2.969469234510142552e-01,-2.973450148796111803e-01,2.804520308812764873e-02,1.057622194166438212e-02,1.110434482415805363e-01,-6.219967256081689738e-02,6.190011056088424307e-02,-8.336066120458521245e-03,-1.590864270915066936e-02,-1.860220829370331508e-01,-1.354746843178417648e-01,2.603157697605150769e-02,-1.448198350358969634e-02,3.913685649399058913e-03,3.215472858176121607e-02,7.526302844941137882e-02,-9.728093552120818666e-02,-7.826625788006708051e-02,-1.338095379206564461e-01,6.826320009851674642e-02,2.272380738826462396e-02,-6.557822433971431967e-04,4.004350304144949947e-03,2.476246846387412590e-02,-2.443991548348670509e-02,-5.665648238367948508e-02,9.029916597309502191e-02,-3.348833969902598878e-02,-4.950383347257741179e-02,-2.330930767053674899e-02,6.977593612842569043e-03,-1.524331090520136128e-02,-1.490338287861100140e-02,-4.938327351670324106e-02,2.412429079316608105e-02,-2.070146018020229111e-03,8.465093513292250293e-02,3.585239585217835784e-02,-4.697427850702582536e-02,-1.296239451943665966e-01,5.181857305305806460e-02,-7.060989209033100011e-02,5.703582592498375459e-02,-1.440510793866592310e-02,3.337240865664491130e-02,8.856714621807069976e-02,-5.536462707675541238e-03,3.153470166981703349e-02,6.482692025746336628e-02,7.053230682445493782e-02,4.668347456677575391e-02,-4.621604221969387999e-02,-5.100069089468181605e-02,2.566030230605769943e-02,2.695360917344427967e-02,4.632731464509071140e-02,-6.602917899877601415e-02,-7.269516475549408184e-03,5.236195112253609618e-02
-4.982142997756396907e-01,5.844106581421617541e-01,-2.809369647451367968e-01,-1.418992470837463715e+00,-1.671955352823169427e+00,-2.050991521282210517e+00,-1.531212912153580907e+00,-2.370788990071975577e-01,-1.489703846395047659e-01,-1.400235170659019091e-01,-3.762029092885955939e-02,-5.357319557997400339e-02,1.016777644769677712e-03,-4.866593275304886834e-02,6.555633315860318056e-02,-3.197573594701615812e-02,-1.553056063942707780e-02,-3.204417132580278382e-01,-4.935306241474123334e-01,9.869032480054502621e-01,-1.379357511106496181e+00,-2.578057565875900625e+00,-1.871752786487541842e+00,-1.708914109713906893e+00,-6.399733041902229136e-01,-8.132793615952544908e-01,-3.170069581261739655e-01,-2.721768557176430514e-01,-1.723899799629286522e-01,-2.930546488236285968e-02,-1.402908400737508110e-01,-4.409301185075983204e-02,-4.432917030903658212e-02,-1.174160679901686821e-02,-1.498193441975640972e-01,-2.671708339192662152e-01,-1.556779343034687235e+00,-6.619489668458543308e-02,-1.048422354896595188e+00,-8.344037909980215328e-01,-9.435305051378813923e-01,-5.827002129524151419e-01,-8.459950190193233910e-01,-4.232059765765692205e-01,-2.135532775567488828e-01,-2.807722106210703283e-01,-9.664924933187926670e-02,-8.331212153409607579e-02,-4.241476347317256479e-02,2.152642446919495606e-02,-2.723690031544203846e-02,-3.484221847911090908e-01,-6.646399365800556569e-02,-3.668484073383460053e-01,4.988073898905048820e-02,-8.760630743259343323e-01,-6.119533540598209864e-01,-2.783991171241870233e-01,-4.627787414310431391e-01,-7.336148135980924412e-01,-5.859189563818276714e-01,-3.526744708210018397e-01,-2.212750145618042619e-01,-2.595288802818352530e-02,1.315493875925116511e-02,-7.086145039940998369e-02,-9.573828385116448653e-03,2.433351602480764500e-02,-4.246730435875222809e-01,-2.466118959334492183e-02,-1.426218698304280830e+00,-1.527426699205913507e-01,-6.169225333778589615e-01,-6.516911968718424042e-01,-4.377437648036519025e-01,-2.617777443541294824e-01,-9.170146629759289292e-01,-5.094995273310487516e-01,-2.829397939746968738e-01,-1.890168586862021605e-01,-2.158038269919989108e-02,-4.313077229234692916e-02,4.516933083704118695e-02,7.608590122148709001e-02,2.215933027317283296e-02,-4.081304467156015026e-01,-3.025910307884458472e-01,2.174722810663098915e-01,-1.865919573233312923e+00,-2.223850509517494967e+00,-2.034147616909080192e+00,-7.590954891183425701e-01,-4.060949525614310773e-01,-8.619918036854444798e-01,-5.100693313747373114e-01,-2.727437874925264238e-01,-9.811732189491262357e-02,-3.602639584159430391e-02,-7.570719161087999249e-02,-1.086095656695412331e-01,-2.183854529045123338e-02,2.693108655197687731e-02,-2.932323493703605788e-01,-1.888754733604600111e-01,-1.620647586547946162e+00,-9.921291443738666782e-01,-1.644559408190257255e+00,-1.553584461310832276e+00,-7.752262833113618967e-01,-4.117179981429929247e-01,-7.483556738773211592e-01,-5.251887528021166318e-01,-1.945292632528054788e-01,-1.559713817007445970e-02,-1.042545268613222775e-01,2.115404393911302777e-02,-4.766282926929362590e-02,-5.432927717188425557e-03,-9.068442183594846440e-02,-2.672054272738394465e-01,-8.000843929735687587e-02,-1.351645922845994052e+00,4.895958884934437962e-03,-4.002656204193337786e-01,-5.708038111852463681e-01,-5.343866163784041223e-01,-3.214560135946390451e-01,-7.202430084520006215e-01,-3.280949138918054508e-01,-1.205742568880465021e-01,-7.640663610056705468e-02,-3.418410704135473044e-02,5.854543088524733624e-02,-2.721944562193096342e-02,-6.074488681190121087e-02,-7.847907471752234299e-02,-4.717374180617318613e-01,-2.933574974108908717e-02,1.702606360429193888e+00,2.500194528342212785e-01,-8.710155490454153382e-01,-4.924702444096358267e-01,-6.600350663672779339e-01,-5.105364249206412186e-01,-6.913016370479473371e-01,-2.427166049308971951e-01,-1.114909804389830478e-01,-4.741362269708079835e-02,-3.890857642589273108e-02,4.740874511993401624e-02,-5.295593255672689098e-02,7.056860200052884891e-02,2.244876484725854063e-02,-2.570771331777881308e-01,-1.351313916937578741e-01,-9.195013405048610977e-01,1.001804521471040405e-01,-8.977073388351236582e-01,-8.422498461999913255e-01,-4.022416364615221118e-01,-3.656603616557337899e-01,-6.807574294795434300e-01,-3.072825686089930008e-01,-3.300349783433908363e-02,-7.151849758235277743e-02,-2.439112255759652570e-02,-5.849878467035853763e-03,-4.542785710559758133e-02,-1.222270510549872038e-03,-2.470541625158239815e-02,5.983795835292370358e-01,2.908210752057528992e-01,-7.930455110639690330e-01,-6.552553169616661677e-01,-7.528677507697132398e-01,-8.283249971134276635e-01,-1.224359799089719925e+00,-9.320657250460465670e-01,-7.885938689316772665e-01,-2.514555789751391490e-01,-2.251542442314768272e-02,1.635287783716025695e-03,-9.559161548842185288e-04,-3.993233325799477873e-02,-6.395149154944596362e-03,-6.621171244070758743e-02,-1.134340818548613267e-02,4.690124109421597298e-01,4.701518517695754684e-01,3.033005002016930796e+00,1.740800377376907848e+00,2.123578839302839860e+00,2.086908282267281312e+00,8.211653083610960246e-01,-4.477733087550892638e-02,-1.865549301498390170e-02,-5.308211207951867711e-02,-9.598599147449655977e-02,-1.084922396899662828e-01,-5.597639836215029252e-02,3.181994680661734409e-02,-1.475644291540137432e-01,-5.220904082115805644e-02,-1.571148185422787946e-01,1.903200948486544197e-01,-5.366727216869284778e-01,1.854629924573897970e+00,2.655629885540272905e+00,1.678844248025054942e+00,1.847699388673726739e+00,5.164020660311544608e-01,-7.131827780294459629e-01,4.778040290307262183e-01,2.653454152641386479e-03,-9.325434305888419262e-02,-7.315717733241375309e-02,3.196090423838374509e-03,-3.685645751821613886e-02,1.068370869338014506e-02,2.857914064991017369e-02,-5.762074861120587005e-02,2.588370682478510210e-01,1.782938458526951431e-01,5.644252710366708392e-01,8.982308654511125257e-01,1.075463776965650986e+00,1.403704217600298287e+00,7.058758589100313507e-01,7.086142858563265756e-02,-1.669915271897599029e-01,-6.215982382322618460e-02,-5.137460418550914010e-02,-1.061463444490025193e-01,-1.946451016133212697e-01,-1.207217397095289475e-02,-6.028469749538242772e-02,-6.912152834749811341e-03,-2.855429682620241535e-02,-1.864292651880558038e-01,-2.240051623201191611e-01,-2.285554886161992316e-01,-7.796675025296366524e-02,1.981850033587275600e-02,6.878495620436896182e-04,-1.180653514433284285e-01,-4.174142431649313992e-03,-6.291783504350345613e-02,-7.617193483943097976e-02,5.830946975380956604e-02,3.661198292175163460e-02,7.301766147314403543e-02,5.560122727252989061e-02,9.023563824909737463e-02,1.291914206758055794e-01,3.620106114848433559e-02,-7.829519690474862070e-02,-3.263978595314050851e-02,-4.143085254971284187e-02,-3.869826454478580979e-02,-8.830454606764812087e-02,6.704892487638604293e-02,1.009174868911129948e-03,-1.827051409007633687e-02,8.654158596323484332e-02,-5.240672674842082601e-02,3.656353663973965426e-03,-2.352756557066965765e-02,-1.698870474015471907e-02,-6.307571392246973108e-02,-4.757144062679533915e-03,5.284481529988325349e-02,2.692518929373568029e-02,3.148407794782569907e-02,-3.906420679354415809e-02,-2.419771702542322656e-02,4.132546523404741906e-02,8.758307147138202561e-03,5.964072951189424571e-02,5.006349556485895080e-02,5.599449267855471923e-02,-1.274232586209279594e-01,9.419521864292548785e-02,-1.495968720047809002e-02,-8.096730625805199227e-03,-1.388368531944512152e-01,-1.418997050700067201e-02,9.896900969686375782e-02,-2.948310087277135338e-02,2.179681341666834735e-02
-6.057141070273587280e-01,-8.091894007027893299e-01,-1.157768819497107665e-01,3.225707589516687568e-01,-8.047607204440565543e-01,3.718436881973779390e-02,-9.114487465472375094e-01,-8.407382292874678864e-01,-8.571591058788387008e-01,-1.046040844807142101e+00,-7.988532267425567657e-01,-3.250919656150109693e-01,-9.024292627076305542e-03,-3.068921910414988963e-01,-1.842022359211547278e-01,-1.679822655844988299e-01,9.032670813646589969e-02,-5.841187758347003989e-01,-8.671282026389007802e-01,-1.026485253706992840e+00,2.550110126511918041e-01,-8.953097434491962270e-01,-8.134214790631263403e-01,-3.495571656488200007e-01,-1.452783431211627674e+00,-1.024357156201628039e+00,-4.050667002262235417e-01,-6.167253704304986872e-01,1.239544082315418572e-01,3.762698510730464463e-01,1.027040631527663228e+00,3.442435137135630985e-01,2.961179172458517361e-01,-7.113238286863463045e-02,1.069857034890414338e-01,-7.309648054238730708e-02,-2.552911416219229568e-01,5.135169120452517388e-01,1.006259768663177040e-01,-3.032668883187440989e-01,-5.894909892933263285e-01,-1.293593337026989420e+00,-9.727732815819257750e-01,-4.302302947503972019e-01,5.054668942219534555e-01,4.788103333277395762e-02,9.036564538347162667e-01,5.326789988370900231e-01,4.471375063330057520e-01,3.004779362572876367e-01,-2.940796588866611411e-02,-5.055857839708830653e-02,2.007114859538514096e-02,-5.591075675925392119e-01,-5.010907979155873049e-01,1.860818688405847798e-01,-7.016112811307266828e-01,-6.049051011392880817e-01,-8.964900885648525719e-01,-1.871163798708495030e+00,-6.297775062879716890e-01,-5.789312215373572379e-02,-2.176254684071282364e-01,1.517332806076041041e-01,-1.759513241174103515e-01,-4.153930345937409951e-01,3.987725917503033846e-01,-5.636970156197741028e-02,-2.050944704260294071e-01,1.881270535832746393e-01,-2.419188379948123968e-01,-6.663193603786057295e-01,-8.963137380431313028e-02,-4.907227522360120275e-01,-8.564008068239324645e-02,-4.395159552197295746e-03,-5.956813950082384679e-01,-3.995861981378439065e-01,7.280603850599034477e-01,1.378619360332493105e-01,4.401258762904201594e-01,-3.212363242301821686e-01,-3.815885391476281363e-01,2.646728788625415385e-01,6.591077747958554167e-02,-1.416215891530506477e-01,-1.933918534973409487e-01,2.472562785407798891e-01,-6.132878604363795061e-01,-3.084453997699013739e-01,2.418300214876034915e-01,-8.620240914039525304e-01,-3.370397181653694840e-02,3.586418203724415776e-01,1.916813177292920611e-01,5.398128175940036799e-01,4.177935742279307862e-01,-4.689823238634325264e-01,-3.483276946437725008e-01,-1.464122299838108987e-01,3.882895726902057532e-01,3.404815593347085279e-02,-1.703824436455051994e-01,8.630718897957620483e-02,6.508297015903194982e-01,-5.473410442568933387e-01,-2.289767715938294257e-01,6.244425864382001645e-01,-9.746977011654031076e-01,-6.534710518582238503e-01,-3.754673582912352314e-01,4.569571741794212216e-01,5.280903715630205775e-02,2.142202658750503863e-01,-2.272606469884879549e-02,-2.282787072118972194e-01,7.137317407504261135e-01,5.812342772947540759e-01,-2.035215828290960205e-01,-2.256341784952323459e-01,2.215355454638647525e-01,5.577390799903005902e-01,-4.061060334405631189e-01,4.577088924902123490e-01,4.268693463646994757e-01,3.236623030881131680e-01,-3.918554118222140059e-01,1.561818736474997471e-01,-3.292029009554424124e-01,-2.356759535330567312e-01,4.489888860418532190e-01,8.263562675009473724e-01,6.070884283915377599e-01,4.737371949992686959e-01,3.498128725768268055e-01,-3.658802602614002336e-02,1.708010738604457956e-01,1.555308943287026513e-01,3.586313660968137862e-01,9.839589515289773672e-03,2.422011035930848322e-01,-4.939784566071067640e-03,8.859811193273913199e-01,-2.237055080272973839e-01,1.439261438121585135e+00,9.584416768467901582e-02,-1.250915413265900888e-01,3.529537432381822382e-01,2.101347984387379533e-02,6.495535286759955840e-01,5.293223687659266430e-01,2.931680468712147825e-01,1.140460579138930473e-02,-5.809718383981695572e-03,3.213981399071622613e-01,7.453945375906859683e-01,1.001310119268714383e+00,-1.837603959399982390e-01,4.713003034042927419e-01,6.670832929337382478e-01,2.668223019938119611e-01,1.530770306969181149e+00,9.203521207076792443e-02,-2.824571843181350461e-01,6.349661227554718179e-01,1.652735286347120358e-01,5.851393928141577216e-01,6.224027734938862855e-01,4.996905491443396907e-01,3.294369570495075776e-03,2.939696431067326254e-01,2.141869219850705067e-02,4.355919503158821593e-01,8.566915781238289007e-01,-2.969171435761960298e-01,7.727528765187331450e-01,4.425749403438928864e-01,7.107704551094444767e-01,9.321253807235950761e-01,4.827054108250051351e-02,-4.701454244550483663e-01,6.235847661937330422e-01,1.549312248619068300e-01,5.825191830873946985e-01,3.435002169218409618e-01,6.341289432959753558e-01,2.045862972584030701e-02,-4.937518290909602148e-01,-7.472853531346770328e-01,-7.503552550203691773e-02,3.115249158181030570e-02,-9.262094402515324010e-01,-6.221324803646394175e-01,-8.266275123435726790e-01,1.964302021183385039e-01,1.064792853391703237e-01,-6.008835329580083373e-01,-1.425963169303973155e+00,-2.563418998394575987e-01,1.775222388965565223e-01,4.943944991364178643e-01,3.172816798168372476e-01,1.338042053843871981e-01,6.329259736137353431e-02,-5.738046526836337868e-01,-7.022248106746299401e-01,-4.975760873784634275e-01,-4.466057542453390899e-02,-2.385388872455704024e-01,-8.587627784749347626e-01,-9.283707586348228791e-01,-1.241440634993759007e-01,-4.859193333533826653e-01,-3.953756910478972153e-01,-1.111292617198333499e+00,-3.213620647433588218e-01,-2.172207021199702714e-02,2.778792098100066332e-01,4.676155448205074339e-01,3.153592727154509445e-01,-1.818945478550720862e-01,2.018580577619911443e-01,-2.607001393619662322e-01,-2.342816390039504926e-01,-1.470340410902284956e-01,-8.377100272829685057e-02,-7.805162625281381050e-01,-2.980407964654003816e-01,5.579588036147797858e-01,-1.180798860037749060e-01,-5.370371159070311817e-01,-5.757624902471674133e-01,-3.661203257231556568e-02,1.263768820335842147e-01,-7.608185462688853151e-02,-4.880114025235494923e-02,-1.022658224652815556e-01,-1.015717057659156208e-01,-1.135341395160209682e-01,-1.070898339350543488e-01,-6.111132927664988945e-02,-1.128472100601696643e-01,-3.856115061826805718e-02,-9.679285699927590858e-02,-1.467159143821373524e-01,-9.432561329668713579e-02,-1.046789989663881593e-01,-1.248368465701880509e-01,-3.968435384712329893e-03,-1.909083801414588610e-01,-1.207989804822823948e-02,4.815903117279200091e-03,-1.265948138285187818e-01,-6.959715767725953295e-02,1.706900529620285489e-01,3.553821745198850607e-02,2.950079270520357400e-02,4.502916366702035961e-02,1.713867668688008443e-04,2.509502169885392472e-02,-4.128429597324412281e-02,-1.762499513226954972e-01,4.504200593953083115e-02,-6.616177103759736389e-02,-2.001734089752024437e-01,-3.890000963844942455e-03,4.757810539682885698e-02,-6.341363742652135482e-02,-1.364356533066089505e-01,-1.188475522244259071e-02,8.375267082008278074e-02,-2.220343510954767008e-02,9.838140507787215480e-03,-1.181217865506915821e-02,4.034562080176189863e-02,-1.161010524286521829e-02,-2.201940858656847508e-02,-4.399001875668569206e-02,8.125349353143941633e-03,5.821923099775468818e-02,-7.288552011954079445e-03,-8.372993259116189024e-02,-4.177799686917385569e-02,-6.728882340277347364e-03,-1.148276452444045720e-01,1.677277613524936692e-02,4.541086687028422775e-02,9.294429066604989464e-02,2.205499552384627623e-02
