-3.333460956432042210e-01,-4.639838471813312881e-01,-8.266337095935916146e-01,-8.990670309260774262e-01,-4.888282087877620641e-01,-4.711684791300908559e-01,-3.202940129131542357e-01,-3.244983279057876424e-01,-8.344590273439120298e-02,-3.445598537170088127e-01,-3.312992881641151355e-01,-3.849366672336258510e-01,-5.433771909790511279e-01,-2.106459910821059656e-01,-1.543976209980715830e-01,-2.899982597343709386e-03,3.822665518965420034e-02,-2.365370616773781465e-01,-3.765621229766045741e-01,-8.625869383330879714e-01,-1.310203504849646539e+00,-5.595318563185304184e-01,-6.577534546306675889e-01,-1.177338351922210674e-01,3.890820837050892878e-01,2.391655840577207037e-01,3.326360445152747036e-02,-3.425421995409494991e-01,-7.003369950888035378e-01,-6.531386657706840237e-01,-5.870317644110987221e-01,-2.666733676204967596e-01,-2.079918987858672685e-01,-1.177200468671000255e-01,-4.236006065839153512e-01,-6.234040082889759082e-01,-9.227166174236701712e-01,-8.008787102690084758e-01,-2.572378173601151952e-01,-1.802122953262316196e-01,1.702364595862491115e-01,2.174743854810787247e-01,8.375139189746869106e-02,2.485622152861890755e-01,-1.381748019510075920e-01,-3.371387931311238262e-01,-5.315527383699882868e-01,-3.269673907930607526e-01,-2.001291262665899351e-01,-1.030458298303622983e-01,-6.495009231803830626e-04,-3.291190993208275017e-01,-7.009755227827755286e-01,-7.335505029589545201e-01,-4.557173308974127868e-01,2.205780094924537638e-01,-4.053424893844998628e-02,3.902518552942760288e-01,1.088242172873779140e-01,-2.029687470604220334e-01,-2.956764611984400437e-01,-2.169302557070491577e-01,-3.192847833185140094e-01,-4.790965567350916610e-01,-3.431628156087212500e-01,-1.225714567531063504e-01,-1.302593478855678388e-01,1.799168498915034928e-02,-3.731246604601171635e-01,-5.297343512275759503e-01,-9.131827849474332126e-01,-7.168492543509345782e-02,4.404316970599442826e-01,-9.252623729867079372e-02,1.555588740124066172e-01,2.194880065950600145e-01,4.010306414397207253e-01,2.540823859959312828e-02,2.694606706810310781e-01,-1.776513133017907919e-01,-1.975517529049364285e-01,-1.879798252726032348e-01,-1.203730535822753883e-01,-4.426003714644725223e-02,1.957830738409117172e-02,-2.351772410540789726e-01,-6.357319404238402916e-01,-2.867680563472553290e-01,3.430991607899858131e-01,6.210595584527270896e-01,-2.351770069422619291e-01,2.523911478734616742e-01,5.689027172428923196e-01,6.945600539473980595e-01,2.883229031795996322e-01,7.239169393252575802e-01,3.019033436550650484e-01,-1.028060115337235542e-01,-1.202705283914326240e-01,-1.115354481094642941e-01,2.047959044926353500e-02,7.320647932368816446e-02,-3.786119745049436602e-01,-3.989896791640088480e-01,1.132745737423528909e-01,4.802988331535860134e-01,1.499709382017247461e-01,-1.714034761579301680e-01,-3.048154134089749445e-01,3.370320882038329025e-01,2.660870658354898000e-01,-1.019077009318786753e-01,2.628098187472253100e-01,3.542421344723420407e-01,1.217696900142815480e-01,-1.945778063810843506e-01,-2.135740492620957776e-01,-1.374845578544456604e-01,-1.232668356891099132e-01,-3.471487833348723129e-01,-5.686912431687984881e-01,2.743294452974563424e-01,3.017371372094450610e-01,2.238078338809479373e-01,4.017433016605888030e-01,3.535237804245670024e-01,5.216035844211309724e-01,4.897964447276298983e-01,7.130633746569126075e-01,3.359710008014307192e-01,5.187751815526115973e-01,4.907110324500100207e-01,1.608334582803468971e-01,-8.215362076303649522e-03,-1.477661455022724335e-01,-5.486952959724183607e-03,-4.235751770172682118e-01,7.427545482860520298e-02,2.485654553950508994e-01,2.835294431518585179e-01,-1.076276771442853143e-02,2.131086794435575471e-01,2.120964571490138728e-01,5.303843110929322702e-01,7.741988690813798035e-01,7.515527394549943452e-01,3.733010018762331628e-01,5.117764124547357074e-01,3.677474530389374108e-01,4.997880639533998082e-01,3.478954863500311606e-02,-8.155805675047111958e-02,1.159326846643708199e-02,-3.172615476808278157e-01,4.011303343816036149e-01,3.029755790005376759e-01,8.672257231238120201e-02,8.876882711357254874e-02,4.083918572551394344e-01,3.916474462234512816e-02,-3.425437346960134577e-01,-1.382551592298004173e-01,3.296055825033732123e-02,-8.572575808849161594e-02,9.269125539837350103e-02,2.725710927085186475e-01,3.435332284264327463e-01,7.249165071422382367e-02,-1.906383903355927598e-03,6.160266440561688178e-02,-5.162603373636156512e-01,8.553935767547025948e-02,-9.772252037089753512e-03,-3.925315137784807229e-01,-4.335444386647862580e-01,-3.768151828072847653e-01,-7.741133529812657121e-01,-5.829140173418386750e-01,-1.689506374955441204e-01,-1.447282140190774558e-01,-5.886850016093930771e-01,-2.306619749345854287e-01,6.757737285268532179e-02,3.598377218509399289e-01,1.222311857760355613e-01,1.138952231578893636e-04,-3.687629403693903907e-02,-4.711807004463080539e-01,-1.782307767775751228e-01,-6.689419251395793686e-02,-1.044787871869354623e+00,-9.909561672451497882e-01,-5.126354149060422527e-01,-5.170495309199275580e-01,-6.809289221838278339e-01,-2.430290254462841582e-01,1.536967817640944867e-01,-2.547061293905236168e-01,3.576929178318125849e-03,-3.019102681164782115e-02,1.412512225914614727e-01,4.225048485493949901e-02,-1.023657927190080308e-01,-3.733440892645186610e-02,-2.604359304873549719e-01,-3.640742840318105661e-02,1.165046617991836453e-01,-3.745244732404062749e-01,-6.777919481547234337e-01,-4.420702594547999964e-01,-5.232651627921263149e-01,-4.227607170230824329e-01,-3.743506999316469352e-01,3.614449804722651843e-02,-8.504364627342672622e-02,1.452123021101413558e-01,8.492030713173497058e-03,9.465301354673149106e-03,-4.908426988112210565e-02,-1.218006604064449522e-01,-1.333640027286639961e-02,9.378088010274061859e-02,2.156774681419341977e-01,1.026215473637076964e-01,-2.703815885028426069e-01,-5.098200850584732047e-01,-4.272313978082746821e-01,-3.352245594054834577e-01,-3.894457168052055662e-01,-5.569026170849151330e-02,2.292448999251402164e-01,6.388854465610703526e-02,-1.476546730257223550e-01,-1.048349391850545986e-01,-5.786752700544817857e-02,-5.422836581525549565e-02,1.955712707077740878e-02,7.122784953532256685e-04,4.507535258271149620e-02,-9.724447240362529138e-03,-2.699525611596718250e-02,-8.268770873858335979e-02,-9.027452823133150228e-02,-1.313073936439307365e-01,-1.399230287297636988e-01,-1.892304000805538622e-01,-1.388890738172079697e-01,3.469211996909131023e-03,-2.070524868930144480e-02,-1.071829309000632974e-01,6.910277667438562144e-02,2.868505817710398365e-02,-1.126647503563264902e-01,3.116097525860837825e-02,3.176863923736043815e-02,-1.067166086622894500e-01,-3.116144473216625119e-02,-2.629050015701921150e-02,7.303944393616432565e-03,-2.810585559092586283e-02,-6.903645125781256164e-02,-4.228922764863538714e-02,7.878443399577354789e-02,-2.284519139240474492e-02,-4.200433186497562477e-02,-3.179508857590350023e-03,-5.708135762855494344e-02,4.625406501495533257e-02,-1.722390830489890431e-02,6.961000725138839773e-02,-5.500928550286044577e-02,7.383295957086224992e-02,1.474008076003670842e-01,-3.503359446076972222e-02,5.956008615190655497e-02,8.617843741229336274e-02,1.107323150217934399e-01,2.873805595737257551e-02,-2.205799402193282452e-02,6.547286230301055387e-02,-7.887621809849393317e-02,-3.558067384398607563e-02,2.526062525292106439e-02,-3.752619887471822166e-03,8.295551489682712054e-02,3.722136062562884928e-02,1.934313759805718694e-02,-5.459762438207620139e-02,5.871033875748989106e-02
-2.113585957661450465e-01,6.237430125571293699e-02,-2.705400004517387602e-01,-2.588742071120710142e-02,6.164577840570126255e-02,-3.511019702938513176e-01,-7.566903302483806160e-01,-4.623832766781525994e-01,7.447142208513928274e-01,-1.867323025128326056e-02,3.445184382257304723e-01,-3.239649090471489190e-01,-1.418423934441250811e-01,-8.185738197289342544e-02,-1.529981884534507841e-01,7.551714804286162146e-03,-2.832305753400210860e-02,-1.200098914328057848e-01,2.626647367433772584e-01,-3.711963233983266441e-01,4.984130855346696198e-01,6.747408028352136489e-01,-4.961413658801507726e-02,-1.094723687165452652e+00,5.302192000842099739e-01,-2.070910401376474808e-01,-5.008466196491285355e-02,-1.464518938214900701e-01,3.961650632886458689e-01,-4.915788416486073509e-02,-2.215040314928572451e-01,-2.104647778494164179e-01,-1.142503328582895189e-02,-1.372125217116979545e-01,1.085686280817586558e-01,-5.524397554517266329e-01,-2.424198033753389714e-01,-5.643023809978604532e-01,-6.170184578911740436e-01,-6.803511620531746962e-01,-1.689854295066660406e+00,4.270832250008801401e-01,-5.015426529138750089e-01,5.204336368750019925e-01,2.841808239915726286e-01,2.832341276213192760e-01,-1.890644531911581661e-01,-1.490399388924916815e-02,-4.505062376040741730e-03,-9.705655424378958895e-02,3.392176465868726454e-02,-1.789384314556057010e-01,-7.603324210231235947e-01,-5.338970676562984075e-01,-1.597954836641244658e-01,-1.699479708755222418e-01,-6.344652826421902647e-01,-9.406251217228517314e-01,7.181536166720307035e-01,2.681382291757253844e-01,1.148319381833710628e-01,3.163043709995415065e-01,-1.736079423068399852e-01,-2.882433338020907176e-01,-1.288214045466112012e-01,-3.495575248678571556e-02,-1.348984388686106685e-02,-9.647957748766171349e-02,-6.735599528268357838e-01,-7.339496838126227107e-01,-5.098400229341449874e-01,-3.175656833255525169e-01,-2.047145278936169099e-01,-7.216203177941461488e-01,-1.022054634543250629e+00,1.282577989908344707e+00,1.077109179635834524e+00,4.922750023367087335e-01,1.703436515380578054e-01,-7.768795032427819880e-01,-1.370693012244496578e-01,3.089316162653623840e-02,-1.436917944509207568e-01,-6.135577856702660766e-03,-1.623888150014305906e-02,-2.096730386484370601e-01,-1.595039290247724506e-01,-4.574817788354441639e-01,4.079034872857273952e-01,1.701578727066611896e-01,8.384109604288932927e-01,-5.434463326721743898e-02,1.270150864310222394e+00,1.839996192100988234e-02,-1.434997382792363219e+00,-1.949138702932161182e+00,-5.039856509606124302e-01,-3.154287439841216845e-01,-1.755993275124329844e-01,-1.990242130622920172e-02,3.291089218699782409e-02,-1.661243109693996689e-02,-3.130679910760251206e-01,-1.374773618111815865e-01,3.236434072925519767e-01,5.673128675359304651e-01,2.757979746655971898e-01,-2.733144677450718985e-01,-3.589679586304734271e-01,1.764706302731459120e+00,1.840069900487985577e-01,-8.662640410331561014e-02,8.916101732917716682e-02,2.589624366277297751e-01,-2.581069893658443637e-01,-1.361103828517722103e-01,-9.064203175006341207e-02,-1.330914839589335090e-02,2.041000817582163882e-02,-4.013880724534017452e-01,9.525837163733855140e-02,7.638283857242089692e-01,1.209191843142311817e-01,-7.547373806666142215e-01,-1.164064257203844654e+00,-1.137971445310663299e+00,-9.329688748314196589e-02,1.008154391958557827e+00,1.839979796220728714e-01,5.790037952211856132e-01,3.326534926209331888e-02,-1.175339857826846746e-01,-1.165917161887161102e-01,1.375677782203604260e-01,1.005148244363534282e-01,-9.964712956833202129e-02,-4.420659711854022511e-01,-1.025695298200551692e-01,6.277415243507097342e-01,-1.189920216127591801e-01,-7.958182369691861879e-01,-1.016196385017344550e+00,-6.803175499059640474e-01,-1.657440747905396972e+00,-1.037744717363227931e+00,1.343481988934576987e-01,3.072296054085161821e-01,-3.466364553869494963e-02,-2.905281742573133097e-01,-1.220578675453051903e-01,1.283350273157280938e-02,2.681880441223742292e-02,1.026568572308406979e-01,-1.280585800105071559e-01,-5.094488520350116678e-01,-2.915895142876804291e-01,-4.036810164510307164e-01,-5.447537087163992764e-01,-7.813111723144253729e-01,-6.528907927858701443e-01,-1.522903162704911662e+00,-1.444049039716431615e+00,-6.430135250394716229e-01,1.253408665327798432e-01,-3.878680418540583069e-02,-1.406283993002201416e-01,-9.326846769396168746e-02,-8.633390855164790878e-02,-4.146113345030563030e-02,-5.069554845519693570e-02,2.369606950016764357e-01,-4.153342100951973315e-01,-5.354226597260717257e-01,-7.337922334304217697e-01,-6.977813453034475977e-01,-6.917912415783081803e-01,8.000421883278847623e-01,1.295433136699609133e-01,5.731033485529926086e-01,9.890949527632033611e-01,6.064165482022264575e-01,1.208849967209689041e-01,-5.206661147578931295e-03,7.281267518270939307e-03,-2.118756672797128537e-02,1.192011753485117259e-01,1.211338278080416851e-02,9.742339696952026507e-03,-2.046197895726627192e-01,-3.137846564850542141e-01,6.861763106403986900e-02,-5.527323677278087599e-01,-1.887977954646847534e-01,1.329559117301063242e+00,1.869161231887687791e+00,5.714978236484700158e-01,-4.775907212623242137e-01,-4.786305091847441184e-02,-5.394827918343531037e-01,-3.015767780381214958e-01,7.486014096265857301e-03,9.675184280896290123e-02,5.864828071925543007e-02,3.628985866176196590e-02,1.231177098603607051e-01,4.917914150990094768e-01,-6.075291001360084812e-03,1.326009995964199661e-01,-2.629816273437974861e-01,-3.918954442497109558e-01,-4.205592174159799579e-01,3.076657625146534958e-01,6.947068675009044902e-01,2.575216163742024555e-01,-5.224639369637411601e-01,-4.627277078438262747e-01,-2.438682504007361473e-01,2.324881211102085635e-02,1.298345669639508204e-01,-5.543088266307964751e-02,-8.318691000823723314e-02,-1.567591942592078957e-01,5.306760271317677302e-03,5.461084555802898921e-02,-1.823926007326234500e-01,-1.821159201275589223e-01,-1.195645392724418721e-01,-1.419180006293365714e-01,-1.938439909468519240e-01,-2.030840375321141533e-01,-1.494900232085905889e-01,-7.612106572991579612e-02,-5.455720889893018316e-02,1.781428354828454991e-02,-7.734005704768570633e-02,-1.917908508477852991e-02,-2.654344410239359645e-02,-7.435984862797409556e-02,-9.657428514742107117e-02,8.176770378380200308e-03,-9.533734585099469180e-03,2.757904767291744288e-02,-6.783290771706951792e-03,-8.224309553801887121e-03,-8.170089511961060869e-02,5.280011835284055717e-03,-3.710731602787780553e-02,-1.678779066690439664e-02,-1.045091792151940091e-01,7.032447347397946524e-02,7.359266952613632840e-02,5.311397395244379233e-02,-3.925128151748498440e-02,-7.379438186942098403e-03,1.699310939752662550e-02,-1.776793164090549604e-02,2.798486427138920096e-02,1.082144985887816130e-01,1.278302823551291136e-02,6.082500043996325913e-03,4.776513147992873798e-02,-3.747546759147942635e-02,-1.584222147869319419e-01,-3.088728093819469167e-02,-1.035336532507212665e-01,3.713519460033860853e-02,3.406405518596813953e-02,2.765654661524550098e-02,4.655937590576612536e-03,-1.854996490511093277e-02,3.182383722133610721e-03,5.384485313382408184e-02,5.673732546734956000e-02,2.615610130429722735e-02,-1.818909799509374351e-03,3.995689286795058026e-02,-5.371014095322454440e-02,-1.340416194818427886e-02,-7.747139950690598575e-02,3.603826593126498862e-02,-9.703405584748989177e-02,1.333232917849393011e-02,3.693249871133894718e-02,-4.795072855636001857e-02,3.156771425305209683e-02,8.414764016386544476e-02,-2.578325073883093801e-02,8.942479769972910830e-02,1.903392387588767609e-02
-6.795932946965418386e-01,-4.757239900370022201e-01,-2.665014228483978398e-01,1.053056208581471809e-01,-1.027480599449392962e+00,1.665565626680426958e-01,-2.517560457278666605e-02,3.332079886443491401e-01,5.474712795268660281e-01,-5.133749257781521774e-02,2.034777207010282640e-02,2.835695294152025536e-02,3.072097529671695155e-03,-3.605375579999842151e-02,-1.331879161821111768e-01,2.646833370748128203e-02,-2.721387856137878498e-03,-9.629992872988656361e-01,-5.853222033976125394e-01,-2.459409976005212384e-01,6.354353543776076335e-03,-1.972643681328812015e-01,2.237919307416442460e-01,-1.998621882927026708e-02,4.969826624806862880e-01,6.944170679242035460e-01,5.081911245020644952e-01,2.619952030140083044e-01,3.759863803223101875e-01,3.561844507526836789e-01,2.616055542330685824e-01,2.664956139545338054e-02,-1.011257875231762055e-01,1.097973355922714361e-01,-3.405048436202439133e-01,-2.014346291443841752e-01,-3.743654790403543736e-02,1.838227094921177779e-02,2.159538089074372336e-01,6.207997599535132194e-01,3.185447887698129033e-01,1.658894408096156237e-01,1.225815473574605463e-01,4.238619094238519902e-01,2.384979651383352384e-01,8.600061579769428810e-02,2.263061390673878348e-01,2.165391190579369629e-01,-2.251737155607957605e-02,-8.238141231488226024e-02,-5.693028364454256335e-02,1.523048547227246197e-01,-6.442428331769659011e-02,2.955582406992517952e-01,1.300919117495382415e-01,3.143119099552324491e-01,4.567528251035122278e-01,-6.830264325343093912e-02,8.221454857262054938e-01,6.105523359478268741e-01,7.692102984903955720e-01,4.758324894597016907e-01,2.379384147224345991e-01,2.108433415038221959e-01,2.151676945813310871e-01,4.477706810248723024e-02,-7.170195035732269441e-03,8.223290567304149257e-02,2.728404339908541698e-01,5.653988819015699080e-02,4.472387431352516929e-01,9.284560976695707029e-05,1.915887259771828777e-01,1.723624879040884864e-02,-3.742767963955600519e-01,2.169938995314165536e-02,1.744658006353720647e-01,3.246453632423735303e-01,3.846388107647651100e-02,1.445028903675060483e-01,-7.243436159875628333e-02,8.492651020172552190e-02,3.777832153479987465e-03,-7.672887693630128791e-03,-1.886669041881299316e-02,1.782936586056808881e-02,6.139985886670543819e-02,2.556801217786855429e-01,-9.503718655271953253e-02,-4.493464909573462174e-02,5.779419342521067288e-02,-5.081269233965275411e-01,-2.572365693759905980e-01,-7.114711516720182427e-01,-4.591710531276972374e-01,-6.737835896001771463e-01,-5.876588849178129292e-01,-3.599577882914675730e-01,-1.778182954410152672e-01,-2.646446430545859596e-02,-6.023012253883371081e-02,1.343977021038869450e-02,1.723865122755351975e-01,1.392314767265906764e-02,-6.582847340379653911e-01,-2.395162425888435476e-01,-3.593716527490077306e-01,-6.708428099868704031e-01,-6.968095119691302131e-01,-5.125545863525834411e-01,-1.165052267774252526e+00,-7.967336568506047101e-01,-8.515433583603249090e-01,-5.188581457819726461e-01,-1.968872029883871333e-01,-7.686203382347557567e-02,-1.081450165547646891e-01,-7.554461936466524280e-03,6.426649128944299239e-03,1.520787798775541932e-01,-3.786152951323031035e-02,-6.339970028897519150e-01,-5.407503521515090172e-01,-1.010741399200324464e+00,-6.278582605529163807e-01,-8.655457972933676691e-01,-6.499449961705839884e-01,-1.524576623964693400e+00,-1.299816511768281835e+00,-1.092117371008700211e+00,-6.629476851702275075e-01,-3.934568330380219248e-01,-2.352715757935696095e-01,-1.725112547896567872e-02,2.369042774171015945e-03,4.779211271148065682e-02,3.596756663082929517e-01,-1.170880529571774117e-02,-1.910450795804249646e-01,-3.786901389174234245e-01,-5.285564132528979275e-01,-3.511362684809604118e-01,-7.438468221912742928e-01,-7.405534450675193003e-01,-1.319284587187758317e+00,-1.469849437758827149e+00,-1.305141921201611099e+00,-7.729896219478468167e-01,-3.561851789463306162e-01,-8.287097867464529588e-02,-1.216639648349792935e-01,-2.126261596315370123e-02,1.553951594276502604e-02,-2.498940400930921846e-01,4.632265223540392440e-02,2.501751599360902412e-01,-3.212101851489071458e-01,-1.682390331167305242e-01,-1.403280896726596949e-01,-2.309069934148686165e-01,2.370787260678631492e-01,1.276201753469491662e-01,-1.919157635524935401e-01,-3.802690204165822818e-01,-4.045518871216303644e-03,7.203130277988174790e-02,2.196650552495586217e-01,-8.281568662700851402e-02,1.768279148270975043e-02,-7.295065375567845456e-02,-7.643677440857439276e-01,-2.365575693516454026e-01,2.538556715998114763e-02,5.601201110511749848e-02,-1.701582551512444141e-01,-1.824537474839508233e-01,2.164895607631784902e-01,3.554753677735348338e-01,5.090712487358870497e-01,1.751253542625820780e-01,1.095542105280074008e-01,2.100405494426751396e-01,1.464505254524870737e-01,1.593195117609688127e-01,1.462256572093287021e-01,-5.607818844278956300e-02,-7.382938750981884665e-03,-8.449579517345807700e-01,-8.033428450978318258e-01,-4.674327378332319149e-01,2.287614111238589487e-01,-1.092236471511495721e-01,-7.998200847755590481e-02,4.500157355550800098e-01,1.344337007922300486e-01,8.442676138226078153e-02,1.397698056712824155e-01,5.835697932987447822e-02,3.025778437837433055e-01,1.587560246300113997e-01,8.451757857561363607e-02,4.076220773195712160e-02,2.858840413807448716e-02,4.469704892482112557e-02,-4.104723128114868835e-01,-3.087349273553870455e-01,-1.030324256232270363e-01,-7.941290386759526643e-02,-2.697165838588306275e-01,1.000375937927802106e-01,5.960796878120449421e-02,-2.091568531722843849e-01,5.208929378447546554e-01,9.642285573845564561e-02,1.325046296797127432e-01,9.357547546604819133e-02,1.194252740883200437e-01,1.374861607994531942e-01,-6.001756341865538934e-03,3.514006677596458877e-02,-1.540221937355635640e-03,-7.177354608116952306e-02,-9.040821334866715187e-03,6.444766162899348734e-03,1.990239291684735845e-01,1.375816785214540594e-01,1.139459837289658051e-01,-9.023667131276660869e-02,5.972425187860887219e-02,2.188554598724242184e-01,-1.995016919890217344e-01,-3.416102407963358956e-01,-1.049218043020810620e-01,7.009345291969661280e-03,-4.087303547358090566e-02,7.415595074188699974e-03,9.185121668346230657e-04,4.146789134281320816e-02,-4.184185750477543986e-02,3.880894594463485392e-02,1.381001253238585968e-01,1.755823582721132425e-01,2.441804476799621648e-01,-4.674467402341930117e-02,-3.551992190672337846e-01,-3.564302693242876741e-01,-1.865399073667661500e-01,-2.085702899904059437e-01,-2.511906207205067409e-01,-6.791887369104726568e-02,6.828591997091746149e-03,8.436101415212423141e-03,-5.282278039555882154e-02,2.732481632837237620e-02,-9.313635215307533577e-02,2.218004623296796970e-02,-5.594462065244204529e-02,3.914390039492999379e-02,-4.332928047763508206e-03,1.371687418561841898e-01,1.229414489851322345e-01,-2.332689877118878374e-01,-2.484548051609090646e-01,-2.397001561249348933e-01,-2.071573095898013861e-01,-9.381304008900534508e-02,-8.393167959738592754e-02,2.263742436293752353e-02,-6.494720662884975737e-02,-2.585720036564236740e-02,5.268102115767567262e-02,3.760940802347456646e-02,-2.884594794491944156e-02,-9.732591576860974425e-02,-8.307427611572907808e-03,8.046519170510867125e-02,1.462034498075282241e-01,-5.902013442875276433e-02,-9.166579033417901479e-02,-4.769790855891018616e-02,-5.601875041124167523e-03,1.155186059805469491e-02,-4.214447699114188400e-02,5.976669966420359963e-03,4.343304604755079956e-02,-5.100289265766115576e-02,6.319805827342639404e-02,-4.663662741646002613e-02,1.391142275859924560e-02
-2.647423058942158236e-01,5.377009238232099975e-02,2.399729841838276756e-01,8.486047434176307025e-01,3.620899557371786565e-02,6.400164700069439772e-03,-2.726260185534267189e-01,6.668461108395148385e-01,-5.023458920072938483e-01,-4.034184352728953371e-01,-1.410785579919231758e-01,-2.313369911307137650e-01,-5.064697331365365374e-01,-3.490319976556969794e-01,-1.232409270191022754e-01,4.930528396665107005e-02,4.690472712068041033e-02,2.659166109619914287e-01,3.102575838352986115e-01,1.888446726579663115e-01,1.816111336514885655e-01,9.247463689076886040e-02,-4.060988366231389479e-01,4.755082313298849561e-01,9.847074808487806807e-01,-9.448783785783453071e-02,-4.663179067467198569e-01,-3.234299639404044080e-01,-6.419781146474470290e-01,-7.436941409245974022e-01,-5.706035206176456320e-01,-2.337884133272110157e-02,6.011846413137455179e-03,-1.239793310221813938e-01,-3.594843487442828112e-02,1.677483963258707411e-01,-5.116815583679703572e-01,-3.327204929618440832e-01,1.982141621708863877e-01,1.315087209823937731e-01,3.428303580883153012e-01,3.155673199877477297e-01,1.272616318339618857e-01,-6.494340334333992271e-01,-3.915860451477868320e-01,-8.092119867139274669e-01,-5.233893131526579090e-01,-9.050819485744338033e-02,5.200155053963914642e-02,-6.254177803768593003e-02,4.412606714005173902e-02,-6.146351130784288852e-01,-7.839917223540276980e-02,-6.610542697403278822e-01,-5.799104235757992498e-01,-2.687718546845467849e-01,-3.742688142349461233e-01,-7.424248211806901976e-01,1.972671619072310090e-01,4.032925054801156928e-01,-2.187645136644000288e-01,1.875386845243982581e-01,-8.117346409067057733e-01,-4.621855562992127076e-01,-2.562916542465775230e-02,-6.913912832210265466e-03,1.427528351756263830e-02,6.224998081574464187e-02,-6.068760922843902117e-01,-2.685610259745944139e-01,-5.623977780022494377e-01,-1.640085103915714104e-01,-1.589005415364143636e-01,-3.794001211227012726e-01,-5.228932447432657060e-01,2.525911541867658094e-01,5.661852860494285267e-01,-6.759007472549881379e-02,6.808520567741441210e-02,-6.080802637058754234e-01,-1.353273958523417732e-02,-2.524014506815851211e-02,-5.071660667237936314e-03,-4.542411914153014242e-03,2.931958118696797750e-03,-1.015102638089975917e+00,-1.866743218281277927e-01,-3.436424342138931776e-01,-4.724478991504736380e-01,-6.468775150321292022e-01,-6.842047389785300693e-01,-8.393860155524767164e-01,-2.571492005683025384e-01,1.126831584592830060e-01,5.074885779616589154e-01,-8.558743286445392312e-03,-2.619156970476135271e-01,-2.134060697674192986e-01,-2.000817359296949011e-02,-9.277833065835404402e-02,-9.929283901727160942e-04,5.671895552241769389e-02,-1.047378441663459059e+00,-1.117613208516398185e-02,2.881254895861525833e-01,-6.493385247199174870e-01,-8.143780962686066882e-01,-5.788672138294967962e-01,-7.838006551381913045e-01,-8.766707161713672702e-01,-1.001355671211121345e+00,4.903307034248498564e-01,-1.769341790660192149e-02,-6.407516448237425555e-02,-1.126097891981069771e-01,3.856059011666986697e-02,-3.349225753407342882e-02,-5.453679924262423012e-02,-1.311765837815024281e-02,-8.872506227018792657e-01,2.044571916732514927e-01,4.723195857777687245e-01,-2.571909104011933511e-01,-4.652502620051259252e-01,-5.380588008124621568e-01,-7.360766924477486484e-01,-1.726359535909731957e-01,-6.911918533292912281e-01,3.158683757266346204e-01,1.364065602755297479e-01,-1.505545108813524657e-01,-7.341055096991594420e-02,-7.366317987001703982e-02,-8.164521243234781900e-02,9.823048494002163677e-02,2.784880327213279730e-02,-4.456494894939406759e-01,1.052958183215213228e-01,-2.945035005602301137e-01,-1.414798956920055306e-01,-1.784394926343115528e-01,-4.515341916293976743e-01,-9.371011888117698474e-01,3.951012693793086727e-01,2.750533955260511809e-02,4.708684060021952611e-01,9.014617093026008887e-02,-4.102144764578068425e-01,-3.214240752258598621e-01,-8.230014712740348071e-02,5.557164149155732757e-02,-7.509395762860258949e-02,3.589756351824392733e-02,-3.205475037658157555e-01,8.369463166851665026e-02,-6.453568524284275520e-01,-1.190376434656409271e-01,-2.368900189097882525e-01,-4.058271658328360121e-01,2.565347099506550821e-01,9.007774145809409605e-01,5.374303226063333883e-01,-1.511907208257503438e-02,-2.404331121081487999e-01,-4.445630258595875683e-01,-4.699225277772062226e-01,-1.007841380343268145e-01,3.659519249809203151e-02,-6.356658023462634366e-02,-1.860446334029849588e-02,3.176344796412327032e-01,-1.587089878490602346e-01,-7.039066174213781668e-01,-3.871827551374097953e-01,-1.840239689937485656e-01,3.408896912175089500e-01,8.889045575014303813e-01,7.291495326647856601e-01,8.337581951878786368e-01,2.557503369962773609e-01,-2.486327943613245439e-01,-4.333200676262088935e-01,-1.921699375818911315e-01,-1.463959173043267725e-01,-1.050520394663809198e-01,-9.500496581402943785e-02,1.290302748231605401e-01,5.889523358514602291e-01,3.635348444858153560e-01,-4.601106389303880606e-01,-8.020849635937667976e-01,-3.061456127885177070e-01,6.223014661579298057e-01,1.110730419455677742e+00,1.076290562550989982e-01,-5.646757569555048428e-02,4.696784934555678914e-01,-3.770828988712946472e-01,-2.672420768862658336e-01,-4.125465123529469258e-01,-3.803011763458414296e-01,-2.546325652524709104e-01,-1.908636119599686765e-01,-1.275038454221847847e-02,2.211595501988800339e-01,3.501495528966790394e-01,-1.264516789493869420e-01,-4.048333703728811961e-01,-5.691277531635555165e-02,2.987566944264051227e-01,4.650588736268587153e-01,-8.735545963938301517e-02,-6.907896339963137677e-02,1.408056504402289133e-01,-2.564819826602033892e-01,-1.467751677370284780e-01,-3.035390397728625067e-01,-3.866537981647259481e-01,-1.002630058570173344e-01,-9.729824790376534471e-02,-2.886459486158265975e-02,3.910550759074426508e-01,7.675021883361015096e-01,3.662258796123313287e-01,3.628781661336851760e-01,3.709839992200900660e-01,7.325978374521589787e-02,6.217991600902544186e-02,-3.415082722351698297e-01,-2.829698508068503315e-01,-2.205569962537531625e-01,-7.047554755830914841e-02,3.681525102369520575e-02,-7.023102393784479147e-02,-5.725780383396223555e-02,1.776971253950773155e-01,3.442303183141339623e-02,-1.283780102284026170e-01,3.133618431576275232e-02,1.485211895535364958e-02,-7.838005584914253809e-02,7.309489741774315152e-02,-4.007496887535926845e-03,-1.195193639593217089e-01,-2.690498989387983264e-01,-3.198778246706998618e-01,-2.068760429334234596e-01,-1.739232631172735188e-01,-6.501816047697299428e-02,6.893260257995139154e-03,4.314013725355129308e-02,1.984105301813696501e-02,-8.252100198564764344e-02,-1.603858255443287029e-02,-7.047971743317218984e-02,-3.037321866715271979e-03,2.199284515851006316e-02,3.707528078277606137e-02,-3.142634577568773242e-03,3.607829922022631058e-02,5.617633034558274646e-02,-1.528118204701690297e-01,-1.509187521719109470e-01,-1.258090241848076052e-01,-1.569122889864272841e-01,-3.005178252153986249e-02,5.236232286123973512e-02,-8.339949684717521544e-03,-3.129122656634909794e-02,-7.857949403273595257e-02,7.693886944858392696e-02,-7.245805808844740792e-02,-2.386033452971735372e-02,-1.430014272413701257e-02,-9.415908010574567874e-03,3.347725314105901018e-02,-1.287817473184114068e-02,-4.967641696635309405e-03,-1.967318368139176973e-02,-3.202408537345466377e-02,-8.805780298423210306e-02,9.079645446258560390e-03,-5.448352836151425932e-03,-1.109849390499604085e-02,3.059836004589992775e-02,-1.366561159069674958e-02,-3.845578373770411340e-02,-5.161366532721977513e-02,3.099769406867667471e-02
-6.032245263834986604e-01,-8.681095576541248970e-01,1.024782168993256137e+00,1.882984985054900529e+00,7.868801981829809389e-01,-1.132463841587174197e-01,1.264522274057644224e-01,-3.166846615848335489e-01,1.862956277940140959e-01,3.076563124702785257e-01,3.030575263726869445e-02,-1.141760753903596631e-01,-5.469108628579931464e-02,-8.536192719363805415e-02,2.329049248610539496e-02,6.739912012642215733e-02,-6.268510797165359472e-03,-3.251283502344149978e-01,-5.675232545198474199e-01,8.774512617137119053e-01,1.163441217621143720e+00,8.178885887171790658e-01,4.139263349514349377e-01,2.499081639852552827e-01,-4.203307310524615481e-01,5.226788020868256002e-02,-1.332087400326749660e-01,9.880665215293736592e-02,-1.557657407883390743e-01,5.855306299383752217e-02,2.671862708666047914e-02,-2.876566909503991062e-02,-1.290112478911652205e-01,-5.564510148717582982e-02,6.043138378329110383e-02,3.872037125254470386e-02,-1.379330627295509037e+00,-1.191945683983942406e+00,-1.269334838989961245e+00,-6.582544574163277096e-01,-1.259204111172103291e+00,-1.373412836490822908e+00,-9.210379986633058236e-01,-2.768298986637229842e-01,-4.953571521701098657e-02,-1.122211944672123346e-01,-2.560528767975842751e-02,-1.595186443878662472e-02,-6.557346191020746451e-03,3.816952974029436813e-02,-4.040405254470921109e-02,-7.649976211327236264e-01,-4.259077649545453537e-01,-1.498242901456832810e+00,-1.202658353510884570e+00,-1.497437366610198994e+00,-1.092309108002476270e+00,-8.696920450102535449e-01,-1.044883332815565113e+00,-9.101783073302495142e-01,-5.832452286832786603e-01,-2.173321147742181547e-01,-1.867683275675993682e-01,-9.340015848995282532e-02,4.038927064957244933e-02,8.957302087909548016e-02,3.854193361877118057e-02,3.404736363951681166e-02,-6.179652424363617502e-01,-4.109415802871503876e-01,-1.402469920781908685e+00,-1.085189783353311288e+00,-1.096830368570908210e+00,-9.530142959157409388e-01,-5.985320050175420015e-01,-2.542064916155082344e-01,-2.368937793066409336e-01,-2.000621346319053917e-01,-2.183766321673829003e-01,-5.864314568800871319e-02,-1.010561701315435684e-02,-1.670012299434064929e-02,5.091554432098160249e-02,1.220284738452183035e-02,1.172483208071097710e-02,-4.217380313254394386e-02,-2.019457014962055541e-01,1.079449515626726974e+00,1.481863798094336770e+00,7.776019226088689562e-01,1.689859507792134119e+00,3.792652393416845458e-01,6.243589912484667215e-01,4.626641381491141125e-01,-7.397377519805758972e-02,-2.777193881532498410e-02,-6.305282000873026205e-02,-5.407958240567547342e-02,5.227605640833513090e-02,2.262309585784657087e-02,-4.814850123156533962e-02,2.245108331638187224e-02,-1.156673034485476287e-01,5.368594844102102526e-01,1.479928853623966756e+00,1.178963184012472354e+00,1.379493297561367182e+00,1.441278007924750915e+00,2.553892445098190356e-01,3.800292653762219475e-01,8.429964302106602182e-04,-2.945097559608464977e-01,-9.260311541645467603e-02,1.825327752770979431e-02,-3.450200042349603046e-03,-2.568910163143116321e-02,1.825277540881551502e-03,-8.568148588033484836e-02,-1.405418105293201533e-02,9.651792580578855141e-02,6.702412253753140536e-01,-5.534555550382217470e-01,-1.045055947534407226e+00,-8.719291158359633309e-01,-1.181609636445762446e+00,-1.636697049922920089e+00,-1.132790264807019387e+00,-8.894021937453155946e-01,-3.086668912963297373e-01,-2.329141914083253107e-01,-9.682642628136366170e-02,-6.035160318622401904e-02,1.106540156227835137e-01,1.356213101157817680e-01,1.348835910679249336e-02,-5.632475639792135919e-02,3.772899958244721463e-02,5.119692220046696551e-01,-8.148007700684026799e-01,-5.724841957127135839e-01,-1.224930487041249183e+00,-6.830484093732891449e-01,-5.740379868684880593e-01,-1.072675043888493329e+00,-7.841391246499359591e-01,-4.702151038794544768e-01,-1.882964911874699526e-02,-1.045470062760100599e-01,-1.041456164428956194e-01,-4.143725384256487232e-02,4.320210248185687302e-02,3.015042505862104358e-02,-1.822869833433783324e-02,-7.681911388640149108e-01,-7.242465726855381591e-01,-9.202338485558744230e-01,-6.823047757574894900e-01,-6.537868699460978039e-01,-4.981407293415956450e-01,-7.481503605035338955e-01,-2.571019075368422557e-01,-5.311206895746415357e-01,-3.687823388985370654e-01,-2.289936190456073606e-01,-1.459920620379319411e-01,-8.981340331369087535e-03,-4.510321653510970460e-03,2.507770162082316456e-02,-8.323907705742633611e-02,5.216935723252597717e-02,-1.163014584676122398e+00,-5.381027068092981702e-01,-1.827980709291102013e+00,-8.144948217876858410e-01,-7.101949824677944445e-01,-6.411128174596472107e-01,-3.765331520471721927e-01,-1.062421649586074296e-01,-5.092016370768106537e-01,-3.342541502107537754e-01,-3.045342975922568085e-01,-1.446801400606438359e-01,2.384165573821685896e-02,3.384428611915498569e-02,-9.602136343235072313e-02,-2.142647155834622591e-02,4.122731289659456455e-02,-2.437829502995650099e-01,-4.901825420060568900e-02,2.855262199027291947e-01,5.478967285805751430e-01,8.815600115392389080e-01,7.226155691800484338e-01,7.153436030333414353e-01,6.292099126992063418e-01,4.038221300536613545e-01,3.054512441955444801e-01,2.407847434208804649e-01,9.733943261166222438e-02,5.829703290270877962e-03,-7.914157951237192623e-02,8.951996672822462933e-03,1.084928924475448836e-01,3.377190988188195908e-02,-5.404722551834597599e-01,2.488013509527822395e-02,3.771511270397276405e-01,9.924355778444725606e-01,4.370755952132907018e-01,-6.118631859672271113e-03,2.790067622511431811e-01,1.316383474083147265e+00,1.213296791051710954e+00,3.570283845472264628e-01,3.341605821273962440e-01,8.316297269477210263e-02,9.173483915794691454e-03,2.246581383720189576e-02,-6.780224064105082327e-02,-1.854856703478246355e-02,-3.033850652139045718e-03,-6.648314648788732073e-02,-9.975579529698890002e-02,4.530657607207215498e-02,5.430110309864873142e-02,3.485037540960127245e-02,-1.474533658062228969e-01,-3.146590517431233774e-02,-5.673813435219476550e-03,-6.128506889264361684e-02,8.207121696126305418e-03,5.842455685369807306e-02,-1.160989342776353045e-01,-3.442641923861580050e-02,3.182674298915709465e-02,5.831195680604014248e-02,5.051996186305700298e-02,-5.272152315394017935e-02,-5.360362724763199221e-02,4.527553800941043483e-02,2.315737876601810241e-02,-5.377386645176356061e-02,1.027979917747310701e-03,-7.999491046823430096e-02,-3.729138342694814784e-02,-4.612944673058913536e-02,3.870564234816957494e-02,1.324689381312284470e-03,3.659625624872722000e-02,3.316936255695103475e-02,-1.368050947577225708e-02,3.164506236734537098e-02,-3.234788494731266617e-02,1.210777552700259725e-02,-7.763437274048828884e-02,4.579381695810540859e-02,9.733937667678435601e-02,6.657465730733080900e-02,6.104089077490230247e-02,-2.385233622772411216e-02,4.339983159177630140e-02,8.653893575677359951e-02,-1.103090187763887536e-01,4.038315787854045852e-02,-6.269256486012776686e-02,3.440898395675223015e-03,1.390595371549199506e-03,4.124785206345599198e-02,9.147318201539544891e-02,-5.029784387159182829e-02,-5.582898000060271260e-02,-1.456318242053199555e-02,8.463689650864196501e-02,5.904311249747016405e-02,5.084762441722001647e-02,-4.939272273753118891e-02,-9.238110133978237257e-05,2.053797987888368246e-02,-2.127854691908150075e-02,-1.463938204749506977e-02,-8.434031581368901798e-02,6.993366594507387235e-02,-4.666904734906496266e-02,-1.289856081450090064e-01,-6.714506061159045136e-02,-5.839482011902928649e-02,1.051787212694035856e-01,1.114969187969490211e-01,6.616013243043854242e-02
-7.521491404140110415e-01,-3.116340053519452424e-01,-1.298416211272172549e-01,7.107622612887875002e-01,-3.266469621327338646e-01,3.486945035184831343e-01,-2.039827624407939410e-01,2.066822509031096822e-01,4.329240371833925072e-01,5.523644634458826363e-01,-2.820576851665805296e-01,-3.190637302703189238e-02,-1.087389733023636507e-01,-6.988144342755458517e-03,5.229449165892042367e-02,-2.270414170681117269e-02,8.664017513156824224e-02,-7.351696229492891144e-01,-5.230884465222565005e-01,-6.938790600289810317e-01,6.691005464346625464e-01,8.408369826101839140e-01,4.089309214384239111e-01,9.610344391148217813e-01,1.078110996856751935e+00,7.736472273266602473e-01,1.201196297633527532e+00,1.186266953705378935e+00,-1.450150200483182883e-01,-1.704959681456638398e-01,-1.071058140671271889e-03,-2.019312619267327191e-02,5.474443489585519712e-02,-6.687294384554638704e-02,1.095284183333371797e-01,-9.747772490388365019e-02,6.016897134264828084e-01,2.627269707176048685e-01,-2.161793222798857050e-01,-3.470323166451114161e-01,-7.484621400622782916e-01,-1.261406278555867733e+00,-1.443257685531139423e+00,-1.112144536474207079e+00,-7.865609629249129542e-01,-2.208336489885175391e-01,-8.303835951434883345e-02,4.310830315108063471e-02,9.127957969106244296e-02,2.766730690792653519e-02,1.578594343738351155e-02,3.319840573328270428e-01,-2.472353343860791419e-01,3.801685357673330046e-01,-1.759829064138725141e-01,-4.863131601292929318e-01,-3.152216688077504325e-01,-3.875929438888928713e-01,-1.646307102294639835e+00,-1.385659336958339205e+00,-1.290316438101192453e+00,-9.126663280635399778e-01,-4.817955640857864985e-01,-4.125860869858564289e-02,3.242157636365107509e-02,-2.090767304149844172e-02,1.062810085143486155e-02,1.159815028712686824e-01,1.060302300975672629e-01,-2.568727231099533076e-02,4.929638779862395848e-01,-1.770951942308764959e-01,-5.565891793127232257e-01,-5.856530565315414688e-02,-3.061196349614730416e-01,-1.689908722343573810e+00,-1.200531412225616990e+00,-1.177791790166798247e+00,-7.940099079607676469e-01,-1.399974157539283504e-01,8.792469982046755353e-03,3.727928333656483489e-02,-2.127476235249258635e-02,-1.157825857996229307e-01,-1.144471317833948981e-01,2.085965301333371491e-01,1.063770885088130558e-01,1.950547764648651872e-01,9.324118046641044488e-01,1.607722760257819461e+00,1.840629894955466472e+00,1.071243822056431760e+00,-2.373592724350932770e-02,-1.945834701976869863e-01,-1.044993372321648017e+00,-8.013239989273960306e-01,-1.287100780527983546e-01,-8.797787819383882935e-02,-1.393574136362586424e-01,1.253479654832294864e-02,-6.822258858714440322e-02,-9.530072730230702838e-03,1.904677198408424588e-01,3.008502737069097127e-02,-1.501881697179323627e-01,-4.894257138349742409e-01,5.312871225345136006e-01,1.728124844337891042e-01,9.584737258660195325e-01,5.501296411136660097e-02,8.269471305532495320e-01,7.366986431989094308e-01,-9.421711124396747739e-02,-3.549642689872885911e-04,-1.500651459683703150e-02,5.873052204840888829e-02,-6.486713223647283533e-02,5.033650063109183781e-02,-1.989386850741819285e-02,-6.710120413096758440e-01,-4.363602326239829354e-02,4.921962864267447751e-02,-5.873111631869644134e-01,-1.047035415484099730e+00,-1.040482297980704018e+00,-1.225676658328252566e+00,-1.014870968352513225e+00,-7.186027372255450185e-01,-4.560193624062792717e-01,6.829890021111444109e-02,-1.945859021035067568e-02,1.983942761039761069e-02,-1.041126531499757084e-02,-2.872800721848626018e-03,7.106260209525323834e-03,1.492917298859802455e-01,1.951027736733038087e-01,1.186820163776787368e-01,3.766115502341901844e-01,2.813689386907447521e-01,-9.256662199310769501e-02,4.659236634236477853e-02,-1.024085121089221673e+00,-9.905712765734316916e-01,-8.437006940699015578e-01,-6.701353158825729128e-01,-3.644036157363994555e-01,-1.124877710289067384e-01,2.351064028091159192e-02,2.748715229368586116e-02,7.733652410064449645e-02,8.843998773965651428e-02,-7.549266484085589979e-02,7.887639628842711692e-02,-1.769353221078960592e-02,5.342603283650606549e-01,-2.903421244878311852e-02,-4.096875221653249466e-01,-1.973371991120486391e-01,-4.404719643769886561e-01,-1.007277962357129519e+00,-6.317037304068356951e-01,-5.039054807504248501e-01,-3.605268679543778276e-01,-1.722693672785445829e-01,-5.034194978402697224e-02,-4.097751655617279387e-02,-3.036657382720907988e-02,7.144115098169723579e-03,-3.051417845766916589e-02,2.406472093110470778e-01,-2.901060907719837934e-01,6.098140211311425113e-02,2.917437689418572039e-02,-3.088287396710266523e-03,4.886312078631058209e-01,-1.146240843635231710e-01,-9.213708445365970112e-01,-7.877935876395011361e-01,-6.140850060401344956e-01,-2.969341289097408021e-01,-2.235650115047761732e-01,-8.594440035961282975e-02,-6.999574192899866987e-02,5.682827066593695159e-02,1.301961374135738973e-02,-8.273610878002099489e-02,-5.243802208716293878e-01,-1.079025864064153017e+00,-8.240084526836332079e-01,-1.571083335360971223e+00,-1.816281213356244928e+00,-8.327698976496286098e-01,-2.008157819985171066e+00,-7.678345822028083134e-01,-1.097173562203578534e+00,-5.952856196319867843e-01,-3.497751644503127588e-01,-1.854102444378812331e-01,-1.070178635375183818e-01,4.976486730438622885e-02,8.196514838438423434e-02,4.541818591266124500e-02,6.373317077143726694e-02,-1.852122902562388373e-01,-2.179538471062457128e-01,7.151542636931567110e-01,-6.483419410741264599e-01,-1.029809526605510728e+00,-8.331498923175565396e-01,-2.101133467022654244e+00,-1.801800083854758761e+00,-1.128797522680533350e+00,-4.587030495335384789e-02,-3.829841803285948670e-02,-1.410964278398834371e-01,1.558731326653687611e-02,-5.021488759603492252e-02,-9.337831780604043119e-02,7.229400129958429844e-03,-4.207451461234048423e-02,9.642693570798158142e-02,1.499380941805501799e-01,-1.574074566059814051e-01,2.541730351566409002e-02,-1.708316692590085839e-01,-1.214589332835316719e-02,-1.039974087140317083e-01,9.268045603812339684e-04,7.405726294374248564e-02,-1.237701781480098906e-01,-4.638848544354455712e-03,-7.114584747924306007e-02,1.808654861133141348e-02,6.586225483527513580e-02,4.017888567291059976e-02,8.138057083443912820e-02,5.678936248350997633e-03,-1.787494899983419622e-02,-2.954228892129074149e-02,-7.149431597503069780e-02,-1.773307762970515117e-03,-5.025563503448680219e-02,7.004606886305818347e-02,5.025736421954166838e-02,3.231229174204849203e-02,2.929023194076930958e-02,-1.030173603020801201e-02,1.026487842575553450e-01,4.898036887610347778e-03,4.264146895937055010e-02,7.278018590004968480e-02,-5.860327716062781363e-03,4.145839915434731265e-02,6.410307487848433163e-03,-2.886583471218611904e-02,-3.081261982910478772e-02,6.588122557205901286e-02,3.418142939302885874e-02,-9.881447612596275590e-03,2.261727923558394179e-02,-1.325587363166962351e-01,-7.612008486175688218e-03,-3.413819765965839248e-02,6.321895364151319807e-02,1.185192112406762387e-02,-5.143876548419143435e-02,4.136709381011445530e-02,4.371224129793683383e-02,-1.031348147120796782e-01,1.562753141699112919e-02,5.389556100319513321e-02,3.662215723874119588e-02,5.415108328193678905e-02,-6.974064318211989355e-02,8.747012778136251804e-03,2.365137463028327974e-02,-7.649127190061646986e-02,-6.362585027964542950e-02,-9.472061014939308840e-03,-2.376313115549078328e-02,1.660011207903727085e-03,7.990614935344546657e-03,-8.042949195224992354e-02,7.935561832883267219e-02,4.331347181705359067e-02,-1.115046392097187311e-01,-9.846893298748841949e-02,-6.222381659479038485e-02
-2.607390803456898221e-01,-3.710351016178908279e-01,-6.387903481891051005e-02,-7.033221216085216651e-03,-1.455210159721643803e-01,1.553085365328336631e-01,1.036597695889484860e-01,-3.605698850284177470e-01,3.176711334277718679e-01,1.573437950036736879e-02,1.877669757086039004e-01,1.345323270382143372e-03,6.677131813112412162e-02,-2.975730350224858878e-03,-1.122716098999434337e-01,1.329459468091707432e-02,1.328623836470936570e-01,-6.483346427774678844e-01,-7.507078354038656531e-01,-2.863304145491775143e-01,1.858511991428017929e-01,-4.181745071347912068e-01,-6.324791497976912924e-02,2.323184575747214986e-01,2.931876127935103549e-01,1.561728634607095767e-01,-1.922815101557955597e-01,-1.363786501059832124e-01,7.280283961608340071e-02,-1.023799980086735756e-01,-1.247938909199957924e-01,-1.465882725140542353e-01,-3.394407927207562358e-03,2.898118486735979521e-02,-7.402299201465936118e-01,-3.767139327654105418e-01,-4.319032446178097118e-01,1.502031918495927432e-01,-1.896536859217668181e-01,1.443424967243711887e-01,-3.500115834738658227e-02,4.118697944372572417e-01,3.432146457763701752e-01,-1.723844324874928557e-01,-8.798367103655996280e-02,7.721009516390611727e-02,3.288116341394068387e-01,5.588149559486779716e-02,-1.347301201063733252e-02,-1.616091615152145944e-01,1.016164685981326699e-01,-1.278329002949715631e+00,-8.921954073595104173e-01,-7.202541417934438250e-01,-5.665232026533532084e-01,-4.522655244277819508e-01,-1.121941645059558457e-01,-4.408858154097122228e-01,-4.143793721055853418e-01,-2.320615482833595089e-01,-3.133187973169194174e-01,-1.658472703567954315e-02,1.216539145893494461e-01,2.572857051803298933e-01,1.216380883759773102e-01,1.030794253433703206e-01,2.229166308754375048e-01,1.209067230257060838e-01,-3.375995399775997274e-01,-4.416053221865053890e-01,-3.094359198604017536e-01,-5.540291428731021206e-01,-5.272455133448368247e-01,-1.823881446005447549e-01,-4.826738704751945552e-01,-4.651351591902448401e-01,-8.561881407959549550e-01,-9.983897839755353498e-01,-8.475715769841604130e-01,-5.889096080125080235e-01,-5.273797036674554572e-01,-4.071521351533028410e-01,-2.346305756796139563e-01,-8.327691147662823201e-02,6.671757808844951121e-02,3.204404408580740493e-01,-3.714383925796959501e-02,-2.239980423377715135e-01,-6.574116785075847513e-01,-7.941173014983474721e-01,-3.243566910811599424e-01,-7.384772734078557388e-01,-4.418885731460336919e-01,-9.234452738436568220e-01,-8.780717493588138245e-01,-1.020448304290820118e+00,-6.706514500927528433e-01,-4.547397068428977729e-01,-3.922429545785156013e-01,-1.816879671431456955e-01,-1.090186928188299764e-01,3.938721440506467997e-02,5.102509231207957852e-01,1.027103632145826700e-01,8.033432599358606430e-01,-2.719170910305511168e-01,-4.625406838160147638e-01,-6.798655485056122050e-01,-5.705918543945666110e-01,-4.919620845346330262e-01,-8.255454509979357480e-01,-8.559038642141932884e-01,-6.153397045349316974e-01,-6.687282433683198191e-01,-3.868367875501719233e-01,-3.116602727047103616e-01,-2.498468574191869684e-01,-9.329911950040292723e-02,-1.171176522527586084e-01,3.870345106691988613e-01,3.783472562354364688e-01,9.996333148245672984e-01,1.720140737258393504e-01,-2.260117295084065059e-01,-3.423199236131478917e-01,1.658880386109792271e-01,4.289280075046955631e-01,6.147744889297830362e-01,9.395188904634406146e-01,5.728398972174006953e-01,6.763111302998539021e-01,4.968665620128768778e-01,2.090279764909693527e-01,1.546836540197334131e-01,-1.406928971393030942e-02,-2.496933453701663877e-02,3.246285267382244544e-01,2.383615974436029405e-01,5.487668027147908356e-01,-6.045842305307477099e-02,-1.005817542044803135e-02,3.255541573479762973e-02,2.241985027314287726e-01,1.147435004276652591e-02,5.521224332777743271e-01,7.654199720119416739e-01,5.523665914548701039e-01,3.674126823306378964e-01,1.844907145030746654e-01,1.486613065992163085e-01,1.227830297132983806e-01,1.318725400473567955e-01,-1.031233345045846489e-01,6.260239733685556140e-02,-2.313183993307513231e-02,-2.643159597643946965e-02,-2.272669289004692339e-01,-5.260788669098966086e-02,-3.346392604319251007e-02,1.046163051726762550e-01,-3.240782643814560937e-01,2.701145058799774290e-01,1.507185826983114263e-01,1.821277638968094026e-01,1.409686122065074154e-01,1.506538314880876694e-01,1.826816631621423492e-01,1.627437751935305599e-01,4.751166905663089385e-02,1.813494661558719967e-01,-4.123965024131652224e-01,-2.660913895288056219e-01,-4.446503618752489229e-01,-4.183919567814000096e-01,-1.161379986105424283e-01,-7.214461356020264449e-02,-2.197456225827813248e-01,-4.865588161123085564e-01,-6.247602908753521755e-02,-1.074175547986054163e-01,1.499115165096523983e-01,7.064941716310288444e-02,1.161749807569593673e-01,1.799421109908627969e-01,3.527824044144382831e-02,1.484026029835566196e-01,1.350706406101176982e-01,-8.447188588423329980e-01,-5.148124572725508719e-01,-5.822651985186334533e-01,-4.332709222107357094e-01,3.017744688710463086e-01,1.283743380945087664e-01,6.474667001201661609e-02,5.015540583776650907e-02,-3.889000886741028618e-01,4.862543434656997898e-01,4.721473763171593618e-01,2.147580698426817258e-01,4.442819260512653190e-01,2.709044955095917251e-01,1.496262153119063687e-01,1.702718810410625838e-01,-4.215503793842591274e-02,-5.386295994656247199e-01,-5.109964402688662588e-01,-1.726193157460300387e-01,-5.513697209797876336e-02,-2.586431032122162715e-03,-1.816149807072831857e-01,-2.261829791223817776e-01,2.864225197784490140e-01,-1.058320105146287743e-01,7.425622077226313733e-01,7.848827030222279566e-01,5.280299610286367518e-01,4.045506740008542601e-01,2.302514228223754567e-01,2.362647792047540551e-01,1.235832893071645566e-01,-2.928537737033617278e-02,-1.127483481553476358e-01,-2.552600637296793540e-01,1.467822029122706484e-01,1.777612192520554024e-01,7.927212844869965802e-02,1.410212879850799850e-01,-1.040197941785021840e-01,1.559739194309446575e-01,-2.761153013425285963e-01,3.929242555896206301e-01,3.399283510893928439e-01,2.297517699633198074e-01,9.269166195223278726e-02,-3.665142455292058100e-03,4.684517889669025104e-02,1.813004478281583787e-02,1.174821536876276967e-02,9.526476649510921824e-02,1.026282625116124170e-01,-7.425363913043642183e-02,-8.965382420733686297e-02,-1.504845456923603053e-01,-3.945423480483151862e-02,-1.628951113276273788e-01,-1.347742441842659789e-01,-1.053003096694567209e-01,-1.170366588212633091e-01,-2.322308177093554415e-01,-1.590099527981905236e-01,-6.927913835412696786e-02,-3.772159440704916239e-02,-1.282264140456575718e-01,2.975548290234863308e-02,-1.769207584500046351e-02,1.499235742902899071e-02,-3.289276179052515875e-02,-2.052957477344059464e-02,7.203136178191577033e-02,8.034343228425524369e-03,-3.470960237070504217e-02,-7.292553656471117973e-02,-1.078438069353401391e-01,-1.965064973439687446e-01,-1.737514276245777645e-01,-2.367047657107824443e-01,-8.539941809914816662e-02,-6.988893807913494627e-02,-1.726011973031667535e-01,-9.553276036528300652e-02,1.904365163909836969e-02,-4.545617330060506417e-02,-2.476785059046823431e-03,3.313345120271344452e-02,1.170250282297749661e-01,2.143431157002584700e-02,1.649646297727680733e-01,-7.634380859505592032e-02,-4.086032380292434901e-02,-3.687158825079298041e-02,-1.300923876494366749e-01,-3.532344186308001427e-02,1.046835000405276980e-02,-7.694481957829012175e-02,8.270214829859564437e-03,3.031959929701680267e-02,8.060731218517495564e-03,2.525172171960089057e-02,-3.179012137762704526e-02
-4.450568695400219932e-02,-3.368873663522708450e-01,7.889557945408530448e-02,-6.704772653318731290e-01,-1.087347146815972110e+00,-1.405441679941167976e+00,-1.577369219533275357e+00,-1.353612872031381364e+00,-6.920825341718606083e-01,-1.598500204722824447e-01,7.780885685257568629e-02,2.731077600142797213e-01,-7.031418557563966221e-02,-1.472207860841491800e-01,-1.464870627298452688e-01,-1.154988506197772713e-01,-3.170364414240647855e-02,-3.989558145465461614e-01,-3.981038153345335395e-01,1.465581741285258699e-01,-8.172678811246166797e-01,-1.057350456774970526e+00,-1.297822616378915939e+00,-1.042069898109984294e+00,-1.166420820117412882e+00,-3.125401051362287075e-01,-6.630736780707848776e-01,-3.527487888203348354e-02,-2.228436771392359184e-01,-1.611926232386290403e-01,-1.727567818360641327e-01,-3.107767722430174739e-01,-3.114854057847524227e-01,2.131709431421473927e-02,-1.812131422568648009e-01,-2.859530771538473792e-01,1.910904134494614826e-01,-7.067107507455565596e-01,-3.407693580027107982e-01,-5.203977123575947994e-01,-7.658245951659822248e-01,-1.134439134715980568e+00,2.889519951771647999e-01,-5.741921161543907942e-02,-6.806912371986988119e-02,-1.215050913937954780e-01,-1.835001907278865363e-01,-4.230725671996980741e-02,-1.487201907729001626e-01,-1.672796898180023972e-01,1.479462919015921488e-02,-1.495936186745991658e-01,-1.956473499593162912e-01,9.992004636115809843e-03,-4.169089297376647463e-01,-4.310618791496389490e-01,-7.038931943795717627e-01,-6.627973850722854721e-01,-7.429469595690521011e-01,4.166176226984996678e-01,8.797689653131642029e-02,-2.467900135701053266e-01,-1.808915330990580606e-01,-1.297903882469287895e-01,-1.520176949174046645e-02,4.344741544481228041e-02,-6.576995364462834281e-02,1.411300712894638602e-03,9.103044394436847486e-02,-1.216384703347970636e-01,2.298206043798669551e-01,-9.232302389246724306e-02,-8.729783848720271688e-01,-6.353849180192856494e-01,-5.750444953924470637e-01,-1.045702606647664901e+00,3.498793790971695961e-01,-1.822420802830534425e-01,-4.590089303643933236e-03,-2.048549108178532863e-01,-1.653427111981226882e-01,-5.698109707443941782e-03,-4.198867150768986756e-02,-1.216871021000896919e-01,6.883981891963439348e-02,1.793458085134772353e-02,-1.602965912626957978e-01,-3.425721589439820192e-02,9.695180054372160017e-01,7.467242279143009309e-01,4.351238204969328227e-01,8.359002115645985942e-01,1.136017489485857901e+00,1.257252901653426624e+00,6.978686424669695576e-01,4.229665197539607679e-01,2.916452478160204143e-01,-2.449434287385701403e-01,-1.080561112627847764e-01,-1.259357350425380218e-01,1.013740866840689807e-02,-3.111940415499608523e-02,-2.568870098629639775e-01,-3.627949285330706042e-01,-9.659444843600206720e-02,1.064756995503849391e+00,8.618879399337884273e-01,3.648915926924219399e-01,3.121233001893986558e-01,6.614330262334904287e-01,1.080198844093471111e+00,8.969368999355841199e-01,1.089680701536154928e+00,1.342092001783607158e-01,-2.764882800941819152e-01,-2.911326514753431183e-01,-2.227172739597497730e-01,-6.566842589778558274e-03,2.685793463702758344e-02,-2.755589932953739218e-01,-1.053355754921341952e-01,5.994477899751637223e-02,3.681728258342478743e-01,4.510680684161291754e-02,-3.559688457161537256e-01,-5.693420508788931134e-01,-5.534573312806947420e-01,1.878653984166510083e-01,4.664773939072975883e-01,9.976920873054988537e-01,2.686123075365590140e-01,-8.361729331925527031e-02,6.060874461029824509e-03,3.842645555609335017e-02,-1.987224320996508996e-03,1.890816793336363988e-02,1.631977347558131175e-01,-7.380394817481630843e-02,2.124663387659037894e-01,-5.676984230033937234e-02,-1.923592092984722710e-02,-8.379628526229584429e-01,-1.061284675421803936e+00,-1.272037080948975163e+00,-5.117614571311591282e-02,-8.609685485765926349e-02,2.610658535101697542e-01,4.729796467119560255e-01,7.750978370563404996e-03,-4.627725545994189338e-02,-8.506003050249129338e-02,7.978187535605353597e-02,-8.022401111200805346e-02,-4.108126560008819317e-02,-2.630156814815366381e-02,2.297632966559319534e-01,-1.116866404935137891e-01,-1.264529819083614059e-01,-3.094613156922882413e-01,-6.526789180401255663e-01,-1.343753673375419844e+00,1.789271091348288989e-01,-4.603610971210480574e-01,8.637094590523838877e-02,2.736465940538283514e-01,-2.578586244452500328e-02,1.342783096733682624e-01,3.690827734128378224e-02,1.197434741062127495e-01,6.198561613945100662e-02,1.192852033240095061e-01,3.576313934036024628e-02,1.601959322918191653e-01,6.323271915803561904e-02,-8.138071364427100496e-02,-3.764708972343860927e-01,-6.734298376951602938e-01,-1.303341534330043405e+00,1.996450879159140934e-01,-2.443346892748312627e-01,-3.954313344714537881e-01,-2.567740398153858239e-01,2.241781000254920025e-02,-6.083946908657760638e-02,3.562221796702248755e-02,-5.396149732369333318e-02,-5.848097362070977384e-03,-4.326616041784241834e-02,-3.229089787519206500e-01,-7.310981984530788742e-03,-4.581548603522463958e-01,-4.203079720351937665e-01,-6.741543579770027383e-01,-9.479779797092952043e-01,-1.620213475634679989e+00,4.566274225253474928e-01,4.567140316327850669e-01,-2.103827015094932584e-01,5.187289401661140248e-02,-2.770836825308381490e-01,-7.667990438113163332e-02,5.739759647777045726e-02,3.200177570443865638e-02,-9.641909023584761471e-03,1.540810458478671964e-02,-1.839631601602076741e-02,7.565875232759000646e-02,-3.272866941915535954e-01,-5.958002001216547994e-01,-9.444339088781045222e-01,-1.108220204114267915e+00,-1.339560594245870595e+00,4.630547623722532091e-02,2.095355605507198127e-01,7.475849116390431703e-02,-7.640874238700860743e-02,-8.554339191368928730e-02,-5.217924324468919961e-02,-9.656772502142085823e-03,-8.436777009267938318e-03,-3.654157317015047785e-02,2.050548066361272403e-01,4.748322028342834011e-01,1.162500048892057963e-01,-1.609850541012194935e-01,-4.800695797550446065e-01,-5.814955166784675500e-01,-5.642336618354240052e-01,-4.269469506043858664e-01,6.495554299690609046e-02,3.653578083751733985e-01,8.420288270383327611e-02,7.440767304301765250e-03,-6.323506709179446683e-02,-1.193239751341023183e-02,6.804076315018819932e-02,4.655587553729374078e-02,9.686002431776653820e-02,3.950332806131785779e-02,4.880165364921556365e-02,6.014112872257892928e-02,-1.360912168337937711e-01,-5.027143073854709737e-02,-4.870894975148328671e-02,-1.236094074994992797e-01,-7.719317768455084827e-02,5.281409949247860280e-02,1.788194506043316867e-01,3.743563648451183473e-02,-2.531604155353554125e-02,3.189495868182462557e-02,7.507419424533955110e-02,-4.343458348600999497e-02,-6.952005491532846360e-03,4.054287391705225368e-02,1.131712727636070420e-01,-3.919382981155827145e-02,-3.753528450602886674e-02,8.025764074100523449e-02,8.190854448777269703e-02,9.251959323127130486e-02,-8.203095110206562457e-02,-2.417359059627759849e-02,-3.875655330533479825e-02,2.672918234530408457e-02,2.221254025864967049e-02,4.488385065086259416e-03,5.969987944845452088e-02,-2.309902610435201134e-02,-6.953184267828176057e-02,-1.015097487786073699e-01,-2.735903955438201418e-02,-2.462171433282414612e-02,-2.296522904321229158e-02,2.818460140609979625e-02,4.910950066111012362e-03,5.596490319547195447e-02,1.778911908161004071e-02,-7.481318736570757855e-02,-1.408980183413886984e-02,1.090029336194969431e-02,1.174212544614867126e-01,1.612074702940509766e-02,-3.670494649778172774e-02,-2.518260582128228550e-02,1.881111745243232297e-02,-4.672644581046146717e-02,-5.132754425440388957e-02,-6.711325129378725371e-03
2.435628534449343074e-01,-3.095617710149864976e-01,-6.966192101931962810e-01,-1.356127704918763444e+00,-1.372232602495919718e+00,-1.221980386322328194e+00,-6.263144087748565569e-01,-2.410345345277646878e-01,-9.853574405170724415e-02,-6.136818094603670865e-02,-1.277379716493927918e-02,4.150806670070714827e-02,-1.834479396515882946e-02,-5.272334952540137787e-02,-3.686772719745903121e-02,4.050080402810603969e-02,1.379589920563483937e-02,1.963778001583295907e-01,4.740721230295941724e-01,-1.014767697647470213e+00,-1.239032110090921401e+00,-1.240035184170504623e+00,-9.873225218861849672e-01,-5.355644100621126391e-01,-4.215866303948366811e-01,-3.662932396712119121e-01,-1.785714329967715563e-01,-3.120172694258346868e-02,-9.669150038629115151e-02,-2.146398170805996486e-02,6.963161080509080135e-03,-5.711855864224364698e-02,-2.622978579315100867e-02,-1.075286984231926986e-02,4.906600619772018973e-02,8.844385380871712388e-02,1.001930038095344200e+00,-4.712531884356433443e-01,-3.346128153441750852e-01,-2.402410839915991025e-01,-5.557381369629612600e-01,-2.092979998414387921e-01,-3.691634486674491566e-01,-8.276720812765545054e-02,-1.922498350277652632e-02,-1.421722024005305646e-02,-2.314640320629871365e-03,-3.517980919724324196e-02,-1.717966280082137628e-02,-8.592332940722962470e-03,2.122670109379333828e-02,1.972076623613244206e-01,3.417662190325597149e-01,7.546946468876345460e-01,-9.035818675438211586e-03,-2.844081027382779348e-01,-1.981491795993079452e-01,-1.617046927602372730e-01,-3.205143760790816199e-01,-3.254721202053413309e-01,-8.173179232713455311e-02,-1.127054359649085763e-01,-8.514786543702392019e-02,-3.889021257222188832e-02,6.346985020428491664e-02,-3.931772647213952615e-02,-8.761854290811917426e-03,-1.239853411417442784e-02,-1.304208108156830817e-02,1.139670016375709388e-01,1.239498258926351681e+00,-9.295324425640877353e-02,-1.889740216545213458e-01,-3.936409316741337067e-02,-1.001001519930565242e-01,-6.661950025683568977e-02,-2.929507082365406245e-01,-9.137840123909854451e-02,3.811716958373401187e-02,1.287583005993740426e-01,-3.776420124436975431e-03,1.307055146888504507e-02,-9.415583429534525595e-02,-7.844427238119174028e-02,-2.498334013325677339e-02,2.639629576668686695e-01,9.726233257057845250e-02,-1.197713639935020336e+00,-1.020588907170267401e+00,-1.251959409371672605e+00,-8.784924094840439457e-01,-7.739211761070318163e-01,-2.144999255337226574e-01,-2.659392894150097719e-01,-1.894661811200423207e-01,6.993959345623868007e-02,-3.798928767937439360e-03,-7.093989119393906417e-02,-1.750416569210252321e-02,-1.318730929963262688e-01,-2.620961044576441620e-02,2.992832018388354165e-02,1.948381809973876999e-01,1.929463621179276778e-01,9.994512766825622840e-01,-5.951093068112445206e-01,-9.561195469539840452e-01,-8.089128931964936209e-01,-6.980936416813252610e-01,-3.521756115076524751e-01,-3.546559768029049486e-01,-7.702587122285997623e-02,-5.280054135664411646e-02,-1.288933776926030061e-01,4.466651259545144359e-02,3.186877845681038851e-02,1.061283918161295969e-01,-5.351791773499422339e-02,5.641843977935344367e-02,1.801837353480059134e-01,1.462738994586512409e-01,1.259093646474693351e+00,-2.267652175170978002e-01,-4.456873262649661549e-01,-5.167107884786604766e-01,-2.263465183203469122e-01,-1.704500343900603454e-01,-2.708548187160895737e-01,-4.072758657061143622e-02,-7.944826916230680880e-02,-6.482321361147624916e-02,-7.302987704357794679e-03,2.436809130007254812e-02,7.496751752260830126e-02,-3.909300290527976951e-02,4.379017253113850344e-02,2.405642013209183527e-01,8.214934275472014769e-02,-3.091683877698193084e-01,-1.829184142067072361e-01,-2.585121118770889459e-01,-1.437326982718096502e-01,-1.882077910238137142e-01,-1.126963543119410271e-01,-2.017025170502671494e-01,-1.890205580433247656e-01,-5.551465367026971881e-02,-3.811062210554663071e-02,5.750621337464673771e-02,1.668120487962772985e-02,4.118281960589162405e-02,-5.697776049447549063e-02,2.633927822210934203e-02,1.955091947443329814e-01,1.346569787903178217e-01,8.691297552424026573e-01,-1.285468911360601423e-02,-1.334878541862071499e-01,-1.346842645176723197e-01,-1.647076154304952245e-01,-1.761374389456280554e-01,-3.795844205033944152e-01,-1.443237265465389385e-01,5.828405719724585182e-02,-7.449771838588731265e-02,-1.376064679562973535e-02,3.947781648156579309e-02,2.219686671450710538e-02,-1.390127828788737495e-02,1.282028529923856866e-02,4.776563126567789919e-01,9.739452411754558059e-02,8.960022094589144004e-01,2.389967939078131882e-03,-1.983268936995990217e-01,-6.607221161042513280e-02,-1.778921746443155871e-02,-1.865539309174124305e-01,-2.642928614579162505e-01,-1.904927126847708874e-01,-6.851230583222021886e-02,1.369720239721323573e-03,-3.232686103031603975e-02,-6.159503719608699218e-02,-5.526823921152967944e-02,-3.448348816011593404e-02,-3.000500294001849470e-03,2.321306259005826156e-01,1.476106013594307986e-01,-2.973860068240044452e+00,-1.828604313018416638e+00,-1.716211024338822888e+00,-1.454685838191642766e+00,-9.805618565090468142e-01,-2.851959444474133076e-01,-2.882069987441699954e-01,-1.723254814078908348e-01,2.949395225212442934e-02,-9.551628737170063388e-02,-6.931621536314951093e-02,-3.141435502523735879e-02,4.581944923202706937e-02,-1.026066937680799179e-01,-8.859689380041931017e-02,-3.171201582284188247e-01,6.538621910674526916e-01,-2.387934212690544289e+00,-2.402200655984807032e+00,-1.674158785530319937e+00,-1.594631164926073374e+00,-7.684915537553497211e-01,-2.099659800326807713e-01,-2.988022037183347135e-01,-5.481946637126992178e-02,3.079093715611195409e-02,4.403650581721675616e-02,6.280877744804314045e-02,-5.245789145587862606e-02,-1.057587112890645206e-02,5.139491583503606048e-02,-1.288134304050047585e-01,-1.879090340146163107e-01,-3.568675703875867633e-01,-7.350231229380915776e-01,-1.082404781789825465e+00,-1.020486266689959232e+00,-1.120456172742672285e+00,-6.548270924566449436e-01,-7.340942938545484686e-02,-7.025388091483626696e-02,-1.118249627347320668e-01,3.552665655183395027e-02,8.599159253372475054e-02,-6.516143932778332981e-02,-6.168278828363936428e-02,-1.069349759700269006e-02,7.459461117722328109e-03,3.916990431294008722e-03,-5.426611491867416176e-02,1.129346820556917895e-02,6.818024371262280947e-02,3.798952239740261555e-02,-1.400632762124056629e-01,1.635646507172435274e-02,4.292307633290170371e-02,-9.896279893836930353e-02,-8.838229982614182259e-03,2.561806499567320997e-02,6.581932956536436230e-02,3.461367647771411427e-02,1.924224807589135916e-02,6.869235742798043831e-02,3.328064513954123033e-02,2.420772604752128090e-02,8.531286751077353514e-02,5.242532963735648671e-02,-8.050885039501857326e-03,-4.151906191347815023e-02,9.767379163608574250e-03,-8.714452284238186075e-03,-1.462331856223990367e-02,8.547366503279132943e-02,5.108667848299030742e-03,4.425638201368716634e-02,-9.448953819850706981e-02,-2.573540381897098869e-02,3.996690301225728353e-02,1.829499699742898403e-02,-3.371067902432382107e-02,4.663759974957473742e-02,-9.492380959152454944e-02,-1.505712545476909064e-03,3.543370227451747567e-02,1.303513789573387538e-01,-1.190698706389349722e-02,5.485834147230522762e-02,2.735856086169816473e-02,1.453448856707699466e-01,6.858410867618507101e-02,7.221042219619815128e-02,1.601215007647557864e-02,2.185557179625893104e-02,-5.877971888321349703e-02,-9.245080593903569344e-02,-1.320389224432146069e-02,5.926793998934288231e-03,-3.306645820201450925e-02,-1.607401030202987857e-01,2.889061234264752448e-02
-9.577300453513619694e-01,-1.501683484142243286e+00,-9.347356168236429230e-01,5.665855017472872790e-01,3.481299429371115806e-01,-7.703478523836999603e-01,-7.239731190544610451e-01,-3.469128812812979912e-01,-7.512886092940147531e-01,-6.342331908403612273e-01,-3.466025146576739990e-01,-3.629356579934134297e-01,-2.834093601155524000e-02,-2.395315493238895643e-01,9.019589121001836407e-02,2.422086558922567287e-02,4.511651639860888435e-03,-1.117121579335275339e+00,-1.589834579262463077e+00,-1.026991264420423988e+00,-2.182732958738536622e-01,9.745439119498047753e-02,-4.708030720105765843e-01,-5.792016731142839436e-01,-2.159861497126836505e-01,-1.184099737527265050e+00,-7.985481823422546643e-01,-6.919043002815362664e-01,-3.207470188511019615e-01,-1.963933340926838356e-01,2.117493009154427716e-02,-5.958100456204488277e-02,3.189663591793903685e-02,-5.239956290304981223e-02,-9.055080028294351102e-01,-8.546444981548775299e-01,-2.057945854629626425e-01,6.266562515221120455e-02,-9.078440698393272501e-02,-1.454015000599579166e-01,3.788464259645510021e-03,-4.620890679270334145e-01,-8.756732012158086054e-01,-5.767118838885745280e-01,-2.559253400990284533e-01,-1.600894169568843339e-01,-2.710304271498453210e-01,-9.103276450862136937e-02,-8.435329479902219096e-02,-8.008163424736840230e-02,-8.121675096326243931e-03,-5.369351374188963133e-01,-4.407309821218919899e-01,-1.016903412738019569e-01,-2.409728390032745970e-01,-1.147021184424041329e-01,2.992084374998985608e-01,-8.277864075064524096e-02,-2.381345037180359892e-01,-7.587956156659447782e-01,-5.865803286505909542e-01,-2.976862392258592394e-01,-2.276812868236422760e-01,-2.904175310833851942e-01,-1.279386194259719833e-01,3.077497081900255199e-02,-3.711104382283087616e-02,6.923185000801698741e-02,-3.582398070502323395e-01,-2.600265372985828272e-01,5.675387603658577085e-01,6.972416731565764247e-02,-8.800372996920538538e-02,2.433761075719675926e-01,-1.704991422430447157e-01,-3.349385612290036729e-01,-6.869371800046989440e-01,-3.050170659731547551e-01,-1.994432401139925870e-01,-8.720380590523903186e-02,-1.927163497668198666e-01,-3.333720697305571079e-01,-4.120720473968768338e-02,-1.237218044177714471e-01,-1.145246415905183390e-01,-4.322810295055712904e-01,-4.718482373843553845e-01,1.565251716904483281e-01,-9.305991541585531632e-04,-1.121820663228856318e-01,-5.771988621172348399e-02,-6.749014290249448766e-01,1.667332724408530087e-01,-8.828497864896037717e-01,-5.268321663997211912e-01,-3.862221055314803975e-01,-1.508665555020629045e-01,-2.323795127942694938e-01,-6.574014362687539970e-02,-8.607220879130909885e-02,9.852540709688686893e-02,6.485550279930206441e-02,-8.047308882187144130e-01,-5.481974142814314277e-01,-1.477695197865270260e-01,-5.910279069785344223e-03,-4.657588557732071366e-01,-2.238439704241871331e-01,-4.995579162998278755e-01,2.442447122278248658e-02,-7.305478020204846379e-01,-4.650230769879173942e-01,-3.366081210168616611e-01,-9.975440125132675750e-02,-2.908813753177895145e-01,-1.289875365028211318e-01,8.074616461740761683e-03,1.385829082886090233e-02,2.525582777316877706e-02,-5.146864530742129018e-01,-4.290167542964695713e-01,-3.997087872844885814e-02,-1.150327017064587398e-01,-8.764769821533287264e-02,-1.054601923837690247e-01,1.025910040698396336e-01,3.580022852955069834e-01,-5.313884166482863991e-01,-2.972099663491873933e-01,-2.053642674855165329e-01,-4.302477221640704785e-02,-1.814835626997945706e-01,-2.360270016614481603e-01,-5.918342782235090638e-02,2.205534645502799443e-02,-7.262509899982781680e-02,-2.556803085197953962e-01,-3.495957877331240526e-01,-3.550500457552618894e-01,-4.422299936302842016e-01,-4.628068690243556937e-01,2.554908366304319833e-01,1.610492981718102401e-01,3.835136028481525017e-01,-2.155634228775131778e-01,-2.229871530958731363e-01,-1.553904928770441507e-01,-1.029017814797832803e-01,-1.857748392892044631e-01,-1.420061981097071047e-01,-6.469099507323178289e-02,-3.358450276034945572e-03,-8.135634117450269223e-03,-5.470219995720194683e-01,-9.923769200882924801e-01,-1.001872946286515020e+00,-8.669182396826267123e-01,-2.070104053166353930e-01,5.953031748605420725e-01,7.876305916671901830e-01,5.770893974142884408e-01,-3.208940054882986059e-01,-4.401545526215560056e-01,-6.527041399078525874e-02,-1.303033628593019133e-01,-1.132472706788315159e-01,-4.809627724344127386e-02,-2.808127120016574302e-02,-4.882331637749174474e-02,-1.106297382287409897e-01,-5.943423528741036410e-01,-1.326757535999606961e-02,-3.428980114194996043e-01,-2.742579611122348271e-01,-8.936154803208588848e-02,2.091884590107317976e-01,8.933829819507532743e-01,2.300042980098825768e-02,-4.875311731303754725e-01,-3.288162278622984158e-01,-2.668906082785982292e-01,-2.253331974001277771e-01,-1.105833943254345836e-01,-9.754813476236409708e-02,-5.238296694859324171e-02,-1.371541785215624372e-02,2.210951897945260397e-02,1.119692739528460379e+00,1.035607025394782443e+00,1.293762209471165159e+00,1.200634019422555543e+00,3.588121005195319402e-01,5.425874585744133033e-02,-1.908330976440761675e-02,-1.093275523319003018e+00,-9.548319641740428132e-01,-6.973360039725275961e-01,-3.778905491052050869e-01,-3.952619735096303821e-01,-1.836881658472056811e-01,-1.447389694870102883e-01,-4.713630336701028767e-02,4.361943314747842443e-02,2.718570572495273771e-02,4.269866301528735808e-01,4.322400849857997440e-01,1.674254333671256756e-01,4.599063158498139514e-01,8.870970641367688370e-02,-3.653193135616518705e-01,-2.870718866693104943e-01,-8.305517844349896706e-01,-5.917712111654556129e-01,-5.391497349644840398e-01,-1.862520804628559623e-01,-1.562043050635782693e-01,-4.481947992990320540e-02,-1.391390837840579819e-01,4.841088468895250740e-02,-2.800352031852853738e-02,1.058764253884404184e-02,2.716212488684058290e-01,4.183189136703319155e-02,1.739672266576513041e-02,1.066496078613533710e-01,-1.763275014866026169e-01,-1.927181749463028615e-01,-3.305435322154113287e-01,-3.636509170551774917e-01,-2.281031761186200491e-01,-2.225170455456166596e-01,-1.803883850222755825e-01,5.862157691071929501e-03,7.085431588839301298e-02,-1.525171396715987171e-01,7.885849658240881577e-02,8.732846444187208901e-02,-5.325571636102429708e-03,-7.148840952215325395e-02,-1.321532258886376487e-01,-1.002386473778492729e-02,-1.610976705404386644e-01,-9.952149853083730457e-02,-2.210903402488358649e-01,-1.226737202413799022e-01,-5.616364698355557489e-02,-1.586092171906013648e-01,-3.877371103925030676e-02,-3.227842385287694321e-02,1.856714999590299703e-02,7.812342203991265444e-02,-8.839414989832886094e-02,2.376835204620467851e-02,-4.572482581360839959e-02,4.623588956200933714e-02,3.384097450456782785e-02,5.724662070852316181e-02,3.008664658164792935e-03,1.703690712976658334e-02,7.592660729852090951e-02,-1.490618460605407265e-02,1.481226548369521563e-02,8.036466031960505518e-02,-3.260978218153992255e-04,6.401019893476909972e-02,-4.959804292219392036e-02,2.773978274378520459e-02,6.615022717345157843e-02,3.100152480513064870e-02,-3.561338474230880957e-03,2.696939630277460018e-02,-1.275954247425521194e-02,3.727985838562342807e-02,6.748345133620835268e-02,-4.282819848072124541e-02,2.734899788630476211e-02,-6.349848444575546813e-02,-2.220277179103646512e-02,2.484347753585964061e-02,-3.033488502925434441e-02,5.015443975631052320e-02,6.770667790661853702e-02,4.344551939905645643e-02,-4.426377368731766737e-02,-6.384306552191059553e-03,-9.967794807814700855e-03,-4.722928953559542981e-02,5.970048463483725726e-02,3.250108609837749993e-03
-5.217591150742804107e-01,-2.760410743889110674e-01,-8.217270184021997492e-01,-9.316910450373766528e-01,-2.743695991812633572e-01,-4.868440614051428583e-01,-1.538747103742130751e-01,1.707404761566854723e-01,9.442487444311770117e-02,-2.599326942861706832e-02,-1.841496062151729562e-01,-1.640480763019031007e-01,7.903523502747338003e-02,-3.399291105576305455e-02,-6.881816748417803054e-02,-5.469411192851719727e-02,-1.997231435124611348e-02,-6.094581207662068678e-01,-9.311096723107894491e-01,-9.370417720675500162e-01,-1.185273464808931365e+00,-8.973133972223862331e-01,-6.900005330165986939e-01,1.400600057717741875e-01,3.713509554380589606e-01,1.184769633143575307e-01,3.376599205190187192e-01,-2.317211635828479999e-01,-2.033302362254998386e-01,-2.566014820428585974e-01,-2.709716920269985008e-01,-3.906767552088144524e-02,-8.615956446880675829e-03,7.359583698051755385e-02,-1.871550131077483539e-02,-4.266832550253492340e-02,-3.785087730180662358e-01,-1.322782268419807838e+00,-4.241616688227220489e-01,-6.520164634895765643e-02,4.331433733807308339e-01,7.332917105692967619e-01,1.437669960289812698e-01,7.914619035274214620e-02,-1.809431522699874173e-01,-2.349685933693244078e-01,-1.698066005818915647e-01,-1.836988219539588962e-01,-7.790146014430467114e-02,6.817684950218301509e-02,8.631708372818805430e-02,-6.253040567465392718e-02,4.773261436915320344e-01,-1.421384661557359430e-01,-1.085605727248363017e+00,-1.743219979500412742e-01,4.099184114350287178e-01,4.727385523205266532e-02,-1.149592069014461621e-01,-1.906650115903409937e-01,-5.500609164670809959e-01,-1.491753861146036808e-01,-1.939506363689954549e-01,-1.913295954395889398e-01,-7.584423373280138603e-02,-1.573314986119688230e-01,2.513407539467835822e-02,4.270459969808804157e-02,-7.117793726574569990e-02,4.669706483696309252e-01,-1.411202299035208274e-01,-7.580375864089489157e-01,8.047553719480999845e-01,8.294024704332321196e-01,-1.578661045762683457e-01,-9.471240371973626004e-01,-6.670174021522394803e-01,-4.283321162024182893e-01,-2.302717768692645883e-01,-2.093801970265609103e-01,3.072190122331418249e-02,-7.805306404938842924e-02,-1.426127462233811316e-01,-1.513734335937792219e-01,-4.201269569858742670e-02,-8.367506334370804211e-02,4.733547636482963172e-01,2.005919022750305980e-01,-1.211885482432106531e-01,1.003272575956526191e+00,8.709548179837282023e-01,-3.622617913722702560e-02,-7.744661372531997934e-01,-7.095087468458851632e-01,-3.057218708680982666e-01,-1.811456920849009167e-01,-1.008204797463446711e-01,4.324348397442486641e-02,-6.057926642389517558e-02,-1.458884308759083974e-03,7.187720665436928003e-02,-1.594866770781654813e-02,-2.943375284239898582e-01,4.246373864653722047e-02,8.416292844217784230e-01,6.539600389381288181e-01,2.718319741779022802e-01,3.320432418086644577e-01,4.441769355721092993e-01,-4.770342717025326529e-01,-6.653744191266709462e-01,-1.925605880016313665e-01,-2.447487360856788197e-01,-1.300887406537486746e-01,1.138155010018142427e-01,7.708426517621873308e-02,-3.301811084256858070e-02,2.984371768921284182e-02,5.786279037355566979e-02,-7.681900579458637857e-02,4.793205380396423632e-01,7.618729017492495981e-01,3.796081530649714764e-01,2.622359891552927813e-02,1.936541206251532476e-01,5.963313364101691105e-01,5.188827044087234164e-01,-6.424159920615450658e-02,-3.105228097910817109e-01,-1.775399096873344351e-01,-5.957651678061227918e-02,2.728281263387163577e-02,-6.685458254207851669e-02,1.594934885890234577e-01,-1.353076971413914864e-01,-2.074226307972619476e-02,4.009126615269384408e-01,1.458383709440797815e-01,4.736754801962413802e-02,-3.525306372564074395e-03,-4.183213505926436926e-01,-2.487504914913801213e-01,2.654433437733457191e-01,3.671434706571631290e-01,-3.523454581054070722e-01,-3.731152742237921482e-01,-2.055114827308122116e-01,-3.623078858526526669e-02,7.387964451974991797e-02,-8.560493169934928204e-02,-6.245892073612551235e-03,-7.600372821977265103e-02,5.741240303753527424e-02,-1.794460334179759364e-01,-1.347039841978834585e-01,-2.527070627939574932e-01,-5.855746694672315789e-01,-4.808475208863136063e-01,-1.173694988409866413e+00,-4.309304715157531718e-02,5.627541751624932642e-01,5.034800854017643656e-01,-9.580812302592235652e-02,-2.617523227646028072e-01,-2.136352699919917900e-02,2.738620055866112721e-02,-1.155910824475486209e-01,-1.113367786687288474e-01,1.626698271885438155e-02,-4.990788061230878175e-02,-4.541765878895970276e-01,-5.998503306133844415e-01,-7.551698826618788996e-01,-8.683954626973882096e-01,-6.763655431455682931e-01,-4.562415585769590276e-01,-6.388867074554868686e-02,2.630297519299184539e-01,4.368951494086171783e-01,-2.722564667100334582e-02,-8.716772651954139695e-02,-1.414804256711693076e-01,-1.405706479124096131e-01,-2.220631421674560124e-01,4.346818305601788529e-02,-1.134146682857257449e-01,-2.020802763027532492e-02,-7.443293892745401763e-01,-1.030554771713718454e+00,-8.212784934512555868e-01,-8.285012875408644950e-01,-6.686777958340898165e-01,-1.158068609282222550e+00,-8.189455851263841568e-01,2.468706046889556360e-01,3.205577424342165860e-01,2.650676286484030530e-01,6.537082534538860706e-03,-1.710896042046461951e-01,-2.699030614737652489e-01,-7.912135143561253208e-04,1.325144930240804431e-01,5.806500055124467347e-02,5.900702602459537843e-02,-5.013516053324016397e-01,-5.497562011409612426e-01,-4.865755604197374851e-01,-5.544702876597046304e-01,-4.363191364077657064e-01,-7.530410903398313538e-01,-6.227729884713014696e-01,-3.252386054734416471e-02,3.382951085574249506e-01,4.990740876449192842e-02,-2.520041231694069780e-02,-2.064982000604647927e-01,-5.370872493339252235e-02,-4.745650441541634373e-02,-9.464339176206468252e-02,-1.405490869050229075e-01,-1.709964498887808076e-02,-8.246412995021125403e-02,3.737149821200470567e-01,-1.436986531630006225e-01,-1.223357423276889566e-01,-3.080840543971530843e-01,-2.503638950524785245e-01,-2.872035181601234055e-01,2.025291259584617864e-01,3.149044309003376507e-01,2.879837518627544890e-01,-2.766764098799606164e-01,2.967858370272159763e-02,1.058151890298440929e-02,1.110491592719717036e-01,-6.219727922671450943e-02,6.190011174078527412e-02,-8.336066098777177025e-03,-1.848526910093653075e-03,-1.663287126727455156e-01,-1.014474598650110665e-01,2.677178128405903815e-02,-1.365821477020596510e-02,4.519327647922039004e-03,3.282321759608371192e-02,6.211179185262388769e-02,-7.709983486626198479e-02,-5.774883875078707512e-02,-1.092014682185126345e-01,6.843944131483475912e-02,2.289829082048805073e-02,-6.557507606682091679e-04,4.175729680764942234e-03,2.476246846387412590e-02,-2.443991548348670509e-02,-5.665556139092931681e-02,9.029916613210618725e-02,-3.348833962916713397e-02,-4.950382313087835912e-02,-2.330929732881961355e-02,6.977593726996232995e-03,-1.524323733983470527e-02,-1.490441029052911974e-02,-4.938327123814478803e-02,2.412488096198237703e-02,-2.069535571748636667e-03,8.482232008917178767e-02,3.602436555647991340e-02,-4.680289913053847090e-02,-1.294525864759331901e-01,5.181857305305806460e-02,-7.060989209033100011e-02,5.703582635000434276e-02,-1.440510793864096563e-02,3.337240872878782100e-02,8.856714621816243194e-02,-5.536462419643281736e-03,3.153470167048136319e-02,6.482692036538162395e-02,7.053230686804511096e-02,4.668486633626887233e-02,-4.621545447114727700e-02,-5.100010421250274900e-02,2.566088897168011113e-02,2.695419583906666014e-02,4.632731464509071140e-02,-6.602917899877601415e-02,-7.269516188176807642e-03,5.236195112253609618e-02
-5.359812132200083568e-01,6.485212448584154465e-01,-4.206968893937396703e-01,-1.432141851090906970e+00,-1.475080161824702474e+00,-1.763350022497004455e+00,-1.441435690612465015e+00,-2.080864721979336085e-01,-1.229161685101343437e-01,-1.185628844570161544e-01,-1.646794489975689571e-02,-2.904079108715739918e-02,2.281085558058641022e-02,-2.710917270327400583e-02,6.995685898910483647e-02,-2.757521072217269595e-02,-1.553056058034520993e-02,-4.569695300953406369e-01,-4.828644656232253807e-01,7.975422731572160417e-01,-1.398919647236501085e+00,-2.234917643988597380e+00,-1.705978624233651431e+00,-1.542368824422464257e+00,-6.251345752564376745e-01,-7.715900186930164661e-01,-2.897611428620608387e-01,-2.608703072156257075e-01,-1.619792607654237659e-01,-3.650968527241537959e-04,-1.120242072136466704e-01,-3.969247767497146445e-02,-3.992863668294525936e-02,-1.174160679112265689e-02,-1.240830868121072794e-01,-3.177715553997356723e-01,-1.314191142107335120e+00,1.797193606169315144e-02,-7.893301971866245603e-01,-6.662059191616892528e-01,-7.585985598829799725e-01,-5.368916590067301930e-01,-7.556054347097350687e-01,-3.625463987969879676e-01,-1.756462060116384116e-01,-2.280760624666404446e-01,-4.702158831557245317e-02,-6.233779015278013286e-02,-3.801421879032663986e-02,2.592696915056087736e-02,-2.723689950374011057e-02,-4.726734242592564583e-01,-1.276892549947427624e-01,-3.296735212595483522e-01,-2.853560669171604017e-02,-6.911513035030993901e-01,-5.245609117463908566e-01,-2.450430027417547785e-01,-4.181369070821426281e-01,-6.906947758231875012e-01,-5.253819789015441444e-01,-2.926795985867159944e-01,-1.691275939703931475e-01,2.946015573224248629e-03,1.755547814279743990e-02,-6.646090571659205026e-02,-5.173294843959053840e-03,2.433351602480765194e-02,-5.080416231085264078e-01,-1.352949176535489795e-01,-1.192054118622597247e+00,-1.617823411391928756e-01,-5.226277443270848089e-01,-5.246487663203089902e-01,-3.984604859595700099e-01,-2.233787195911563217e-01,-8.480262686105787262e-01,-4.386497423355357750e-01,-2.230186123566508527e-01,-1.391323805977404959e-01,-2.147642512233582587e-02,-3.869488001412670075e-02,4.956987551988425306e-02,7.608590957933086818e-02,2.215933027322405588e-02,-5.053986581734901673e-01,-3.190873718039693996e-01,4.128449737812897591e-01,-1.617450375889360581e+00,-1.893364241624184929e+00,-1.763176463623229662e+00,-6.374636691238053654e-01,-3.506511846415155675e-01,-7.722577997707084085e-01,-4.309029634288881194e-01,-2.119447480867264755e-01,-7.702054110986501778e-02,-3.591829962446253105e-02,-7.127087380457738930e-02,-1.042090209858475419e-01,-2.183853660862506221e-02,2.693108655197687731e-02,-3.458406500362430913e-01,-2.686337587254167270e-01,-1.412358882181656172e+00,-9.140769700230697570e-01,-1.449509968240321856e+00,-1.397436574596165881e+00,-6.528390565148020075e-01,-3.732912010220779675e-01,-6.654142618531867504e-01,-4.456291279560675722e-01,-1.545585495445128410e-01,-7.755517394730885097e-03,-9.974632175734449158e-02,2.558995871638944028e-02,-4.326229572674462898e-02,-5.432927717147256232e-03,-9.068442150375849442e-02,-3.774603667659839901e-01,-1.281279599835427330e-01,-1.253752855928419896e+00,-7.051740674708555090e-02,-3.484222125761800015e-01,-4.930118080753966292e-01,-4.927826871513032447e-01,-2.890801247718515765e-01,-6.418435416310644959e-01,-2.514828424814760655e-01,-1.094281452118391063e-01,-7.333976058077706917e-02,-3.407636297198179259e-02,6.298168689123671837e-02,-2.718408437770892389e-02,-6.074487906780694918e-02,-7.847907471752234299e-02,-4.339675614596471553e-01,-9.132200424230080271e-02,1.395242780635443713e+00,1.305322738497377011e-01,-6.614371257807583060e-01,-4.348217611558366502e-01,-5.549099424124618318e-01,-4.521219151250573942e-01,-6.146276304629745280e-01,-1.935121826853307136e-01,-9.971702688183187169e-02,-4.217265388460649661e-02,-3.827100375183915826e-02,5.244620126923981579e-02,-5.292054968838173085e-02,7.056860974919355878e-02,2.244876484725854063e-02,-2.398125876217759023e-01,-1.909207710827177940e-01,-9.129403483558521382e-01,2.101095688713569901e-02,-6.977096983999014901e-01,-6.873555645962339256e-01,-3.410196566218547387e-01,-3.040406335642674152e-01,-6.247874395561114902e-01,-2.840616444509829197e-01,-2.129818583644788391e-02,-6.677850657593709105e-02,-1.938657774775531112e-02,-8.119985234218974864e-04,-4.539250331195125027e-02,-1.222262766440197551e-03,-2.470541625156453744e-02,4.889993570156227487e-01,2.334443026178003866e-01,-7.034205732853999748e-01,-5.645832935263636054e-01,-5.811197442309121719e-01,-6.383964452385991750e-01,-9.744562139043230209e-01,-7.681303398829849582e-01,-7.174734290674019688e-01,-2.281449366590771466e-01,-1.080043657082102940e-02,6.286514970134831834e-03,4.048566468839174919e-03,-3.929491041669144064e-02,-5.830524641624383955e-03,-6.621170469661659397e-02,-1.134340818548613267e-02,3.802241908780037982e-01,2.404488449775925851e-01,2.639608310548793746e+00,1.595975883662942962e+00,1.818109807722929849e+00,1.782370591290326267e+00,6.732073106671664364e-01,-1.717704958797785508e-01,-1.761708634017665198e-01,-4.479951043974612218e-02,-6.407799844145700696e-02,-8.274746305585531370e-02,-3.040765975026294907e-02,5.350084496342557422e-02,-1.469993819633376719e-01,-5.164440867294177451e-02,-1.571148185422787946e-01,2.666421473568100775e-01,-6.177591729342297722e-01,1.496733120468125788e+00,2.339957569826590422e+00,1.590477493230157302e+00,1.738381511075364427e+00,4.389280598507455111e-01,-6.675518669010646056e-01,3.560956456586306662e-01,-2.465260625255163984e-02,-8.021108654606803889e-02,-6.270225400066843646e-02,1.059041841141166937e-02,-1.596955500169739209e-02,1.075223507915987892e-02,2.857914830932908878e-02,-5.762074861119347718e-02,3.168597556234947765e-01,2.339009342819115822e-01,5.407684975138563610e-01,7.300980727485379962e-01,8.470972904839938478e-01,1.055046168802255435e+00,5.885116810516811681e-01,7.633365704793983186e-02,-1.200737254145626959e-01,-4.643025591289019066e-02,-2.754157361578236582e-02,-8.517358092148216708e-02,-1.738996454472856446e-01,-1.207166629679924663e-02,-6.028469738628926267e-02,-6.912152822539125753e-03,-2.855429681399375072e-02,-1.295185732712948457e-01,-1.430178531859430391e-01,-1.624600806926137231e-01,-6.008274616508500060e-02,3.770690742426365677e-02,1.836489188042821422e-02,-1.003169704280711810e-01,1.351297947216053078e-02,-4.527759677428690177e-02,-5.852612525659364739e-02,5.831083505335267481e-02,3.661199615507860355e-02,7.302395172859740824e-02,5.560165111130471044e-02,9.023563834597966848e-02,1.291914206758055794e-01,3.620106114848433559e-02,-7.829519690445282953e-02,-3.263978595284031115e-02,-4.143053243867141772e-02,-3.869779896756774668e-02,-8.830408048373813990e-02,6.704893581228120458e-02,1.051648987293036684e-03,-1.822811725501289476e-02,8.654160046226808123e-02,-5.240670580763331227e-02,3.656368147583442113e-03,-2.352755243508406272e-02,-1.698870473889201385e-02,-6.307571392246973108e-02,-4.757144062679533915e-03,5.284481529988325349e-02,2.692518929373568029e-02,3.148407794783108365e-02,-3.906420679354385278e-02,-2.419771702542279634e-02,4.132546523414831058e-02,8.758307147588410141e-03,5.964072951234759140e-02,5.006350624845074676e-02,5.599449414059926022e-02,-1.274232571589060115e-01,9.419522751669325011e-02,-1.495968599052419773e-02,-8.096730624882374910e-03,-1.388368531935280648e-01,-1.418997050700067201e-02,9.896900969686375782e-02,-2.948310087277135338e-02,2.179681341666834735e-02
-5.280211266731118513e-01,-6.321039425927946764e-01,1.091583053122081523e-02,1.560331260290436783e-01,-6.945425275729469883e-01,-1.090544760938999720e-02,-8.004152287787018594e-01,-6.727697676346050537e-01,-7.390349847473521860e-01,-8.119593809673860685e-01,-6.242324441315041383e-01,-2.211484804972885798e-01,4.753478866843834083e-02,-9.537203958266782244e-02,-1.251415521236214912e-01,-1.205352349094536563e-01,9.130805868668269432e-02,-4.591408345560525905e-01,-6.900435895000291975e-01,-8.133687838204500808e-01,1.502867612100491912e-01,-7.274011457389462088e-01,-6.581248463946630656e-01,-3.712065623505326761e-01,-1.229621162202306772e+00,-9.369691338000160075e-01,-4.644046756152089284e-01,-5.804653167257144419e-01,1.285997480088033051e-01,3.752696430712493258e-01,8.381298525522787868e-01,2.469553696910561646e-01,2.256952827426490504e-01,-3.774403562205729673e-02,-2.401071513001091021e-02,-1.408163581090473293e-01,-2.208694897861199213e-01,2.627922017532486332e-01,2.019547194598809645e-02,-1.855148937325268033e-01,-4.723113947880782648e-01,-1.118548208195204730e+00,-8.034930602908078034e-01,-3.807250994521188536e-01,2.883812177321221082e-01,1.529655200293238981e-01,8.395716225118741161e-01,4.082914233702483187e-01,3.929210304508852225e-01,2.993534348886378593e-01,-8.347432888221435754e-03,-1.820062422513412104e-01,-5.966227407634978885e-02,-3.667664010893624815e-01,-4.116941113280968567e-01,1.127378935596164700e-01,-4.904765053072026593e-01,-4.165004795898660239e-01,-6.727076399157917441e-01,-1.494708298095119847e+00,-4.661971747335121874e-01,3.854863659068373527e-02,-1.436943802381095980e-01,2.583080459704340526e-01,-1.520950340613592411e-01,-2.935577399938807952e-01,3.818493952907188738e-01,-5.627791860494841397e-02,-2.893641607901829560e-01,-2.068956870586300539e-02,-1.241263261609402008e-01,-5.942544481527035627e-01,-1.085904474623035770e-01,-3.278630176444553013e-01,-1.768046106497022374e-01,-6.126450533973777646e-02,-6.144585596718333820e-01,-2.785402885695390518e-01,6.074194959742333921e-01,5.250112099681371325e-02,3.347946667894152739e-01,-2.297180971139375916e-01,-3.305647021899607574e-01,2.115033088325596056e-01,6.597658019371897831e-02,-2.144085053296203858e-01,-2.971594428489112150e-01,1.688746744313758819e-01,-5.977035070132821204e-01,-3.342221756809531374e-01,1.704403992445830407e-01,-7.766431252369355720e-01,-8.415592885454181715e-02,2.037278529960631912e-01,8.297762742870590236e-02,4.287893718192297143e-01,3.168799108675007248e-01,-3.190845516531670145e-01,-1.753314334791282736e-01,-9.460427420134914778e-02,3.481458341741954232e-01,3.416361035494498710e-02,-2.114244970557273839e-01,-3.075529483035668865e-02,4.196192561024327250e-01,-5.455995098338616289e-01,-2.200187689408783231e-01,4.067896439333358316e-01,-8.250945902315843794e-01,-5.312259956475288147e-01,-3.280088093002940797e-01,3.690619214257331859e-01,2.706967176353802015e-03,2.567444949668049037e-01,7.819279873435591374e-03,-1.897993717673646663e-01,5.603992564936544074e-01,4.720871325730909285e-01,-1.909443819607413995e-01,-2.962938543223070376e-01,5.978477252311849635e-03,3.669050770290580576e-01,-3.684031698008073397e-01,2.696070165984460476e-01,3.045339455241362070e-01,1.745916547598852508e-01,-3.315224477804671888e-01,1.423476629314622266e-01,-2.066204946997500236e-01,-1.846990951151659399e-01,4.497585507893618884e-01,5.726352596040669152e-01,3.718676852688274082e-01,3.639728279140444500e-01,3.155167816769838263e-01,-3.658802588117990306e-02,3.759452614886048955e-02,-6.214381204524720842e-02,2.559342388052371353e-01,-5.605888709241595158e-02,3.260563627957687588e-02,3.651948098233235435e-02,6.372386489886072702e-01,-1.357568754554723811e-01,1.011007318003546152e+00,3.233082525569263427e-02,-2.270191295648313901e-01,2.744904938238690306e-01,-1.861574955298853085e-02,4.184273420494537543e-01,4.394636342087441250e-01,2.491752607625730143e-01,1.127307273512039021e-02,-7.308640084028948658e-02,7.691515266581279431e-02,5.544807139974253785e-01,7.156177019630086678e-01,-2.631468655394004763e-01,4.304375926338250835e-01,4.761885450196202685e-01,1.778953222086192276e-01,1.116477138589476281e+00,-5.118397836454827154e-02,-3.260417502621771879e-01,5.048167934724725470e-01,4.902732840760864325e-02,4.081389291376377737e-01,5.447684328923179109e-01,4.544893729786008141e-01,3.410443629284663422e-03,1.577295089842497555e-01,-1.397670334843258699e-01,3.124158023242114557e-01,5.457229070607143573e-01,-3.200419655529803120e-01,6.923979744149969529e-01,3.887520329116478934e-01,5.585338701567816866e-01,6.593073482266581520e-01,-7.108921610411966796e-02,-4.366347757158162146e-01,4.877304111047911506e-01,9.828114788013521397e-02,4.409656625114812822e-01,2.973907734409344528e-01,5.211936744721452630e-01,2.046004185752310980e-02,-4.542341633206543605e-01,-5.926769312394847278e-01,-4.988244530280255135e-02,-7.646941396966712434e-02,-7.946227525930446012e-01,-4.201926392859027248e-01,-5.418210646120552587e-01,1.423238178612194760e-01,-1.623619537335979982e-02,-4.796325653878136253e-01,-1.134810424822837893e+00,-1.988051581344528196e-01,8.232265092647481075e-02,4.095710581272787865e-01,2.925627112050620537e-01,1.629633860086000807e-01,6.329306795620857906e-02,-4.836503788791142178e-01,-5.494150892934652752e-01,-3.411372067512997153e-01,-1.123439777879784024e-01,-2.659357294644852376e-01,-6.359677326846141510e-01,-6.358839483220242172e-01,-1.127840308868460206e-01,-4.102237349780152864e-01,-2.550590896515688155e-01,-8.296237625707301166e-01,-3.570429210278757148e-01,-6.639650416676681766e-02,2.187728726371004906e-01,3.701729932131032075e-01,3.019158738359637995e-01,-1.504821362474791369e-01,1.085499436119408689e-01,-2.096182529209478229e-01,-1.914387548118668680e-01,-5.023555292203404216e-02,-3.661335789447875411e-02,-4.728058926111671223e-01,-2.541552387494753207e-01,3.809364201162264152e-01,-1.164921534568889860e-01,-4.094681926321639409e-01,-4.052442864321642024e-01,-3.823640600931111494e-02,1.095018754784639198e-01,-4.651783221172395982e-02,-2.876849217011191728e-02,-9.244834684452438167e-02,-8.147853526325707363e-02,-7.431058512977557762e-02,-4.749345612021514673e-02,1.669225501931736674e-02,-5.284417016550640306e-02,-3.015485608037749704e-02,-8.479452319758838674e-02,-1.344752746410469157e-01,-7.722297625357833761e-02,-8.759617025503750598e-02,-8.849917181216972184e-02,1.983361643806244926e-02,-1.832740682877778415e-01,-3.155365066343113201e-02,5.106410465603956894e-03,-7.773966495676104538e-02,-6.959715767725953295e-02,1.706900529620285489e-01,3.554092901839677604e-02,2.950087654151719793e-02,4.502983919423530351e-02,1.713880852390289086e-04,2.506909736034788200e-02,-4.128427298765535020e-02,-1.703654507497942006e-01,5.096173834779842149e-02,-6.024139190088294987e-02,-1.942535735869737323e-01,-3.858099693574200493e-03,4.787945220943264774e-02,-6.311231086749963248e-02,-1.361343423885358062e-01,-1.158347465268967473e-02,8.375267082008278074e-02,-2.220343510954767008e-02,9.838140675923676831e-03,-1.181209804394276093e-02,4.034570141710892149e-02,-1.161010472021862909e-02,-2.201887212008699773e-02,-4.398948340914024535e-02,8.125372154989806209e-03,5.821925334701875954e-02,-7.287853225194607272e-03,-8.372977143771513642e-02,-4.177796614279798149e-02,-6.728866701485491236e-03,-1.148276296065914859e-01,1.677277613524936692e-02,4.541086687028422775e-02,9.294429179395592711e-02,2.205499552384627623e-02
