-4.560523910940785242e-01,-5.181189155889193154e-01,-8.204839533343484259e-01,-9.284384384443438165e-01,-5.955081151138608142e-01,-5.529774376612970332e-01,-2.853211430959329276e-01,-3.357624033234881678e-01,-1.257771083014985469e-01,-2.294993078497632732e-01,-4.602986242293163888e-01,-3.374762762316022568e-01,-5.093608745219868617e-01,-2.222405689526174288e-01,-7.058769245484587673e-02,-6.291901494158431973e-02,-3.869410867769158824e-02,-3.716765436856508953e-01,-4.952392871172865974e-01,-8.298697180083665081e-01,-1.254457848006132803e+00,-6.086084719947926214e-01,-6.932090011743207159e-01,-1.563212468169083158e-01,2.742891637486165046e-01,1.466309219053768265e-01,5.017610654882704441e-02,-2.917565566819875778e-01,-7.730437439621433704e-01,-6.844819600470251064e-01,-5.634206959246963464e-01,-1.926622199491557497e-01,-2.752961830512683505e-01,-5.518035741471414429e-02,-4.715101619380486775e-01,-7.358276687258529236e-01,-9.495568227273539774e-01,-8.439164058993959827e-01,-2.892317334972664411e-01,-8.139222398176608475e-02,2.316732621454212215e-01,2.274229475230565845e-01,6.036021791550897492e-02,2.596285178318286091e-01,-1.519060345188841532e-01,-2.310895196655896600e-01,-6.035765082936720427e-01,-4.022551815270268838e-01,-1.321259223496815405e-01,-1.858614623818663769e-01,1.177992398555447046e-01,-4.067338663139425381e-01,-7.570333679267987614e-01,-7.787963409041505081e-01,-4.302849527901951299e-01,2.479712418483241421e-01,-7.996531018156111115e-02,2.582531459430005283e-01,4.878011704510288454e-02,-1.911370093483038823e-01,-2.654064442341469987e-01,-9.646265595545978899e-02,-3.366204266422050395e-01,-4.674913850628740764e-01,-3.349046658984657920e-01,-1.854679222720163334e-01,-1.185849980412488763e-01,1.406983612404082845e-03,-4.167193680917022913e-01,-6.639240054660334733e-01,-8.911836392246204053e-01,-7.117385039134204935e-03,3.813616266468228266e-01,-7.777343398150705911e-02,6.770979878288256593e-02,6.886147901414095551e-02,3.488235670130568344e-01,8.453535068473694292e-02,2.302180242626546414e-01,-3.300114626201213208e-01,-8.956180708585309569e-02,-8.199287134393699883e-02,-5.987490558613786651e-02,-4.972443165104132451e-02,-1.043419454161751553e-01,-2.289841301826509024e-01,-5.333174331353689457e-01,-1.630293170399470526e-01,3.953632404177149784e-01,5.903468571286071276e-01,-1.304884984077417653e-01,1.343965640469980405e-01,5.975129265948365687e-01,5.881029533633556072e-01,2.464687054829234336e-01,6.382831777894968361e-01,3.674590525533901197e-01,5.494486760825838950e-02,-2.559360249739267013e-01,-1.405336310897056795e-01,-2.951247761553892068e-02,-2.946595066505165034e-02,-4.537559526216466965e-01,-3.717582961676106357e-01,1.144451356494685518e-01,3.839716309395121430e-01,5.220928921229856662e-02,-2.054351616703578576e-01,-3.171053014759856459e-01,3.739096592664282181e-01,2.999085461924933527e-01,-8.390812824588567143e-02,2.684108478037733891e-01,2.647566795402523376e-01,1.163484369797948975e-01,-1.549446025077623468e-01,-1.004613523544433118e-01,-6.903510773896398556e-02,-2.204518107758001930e-02,-4.220833473876403064e-01,-4.742894485316349051e-01,3.443612596603072840e-01,1.624320929720068085e-01,1.620780577184346705e-01,3.906721529438699769e-01,2.507591109638154236e-01,3.603989920025884586e-01,4.461411791367215218e-01,6.058303783713209212e-01,2.739119970799535619e-01,5.201160266757856032e-01,4.333447648273551223e-01,2.268870657041690830e-01,-5.057899645014187623e-02,-8.584133826859685623e-02,-4.903880863135254981e-02,-4.715949731224630126e-01,1.511034700684994736e-02,2.501824336776707902e-01,2.771823200800205278e-01,-1.884913801236940897e-02,1.540084765788908017e-01,2.803426408937090275e-01,4.838898773789963026e-01,7.619991130699432791e-01,5.705553626623236507e-01,3.530218946977482508e-01,4.201851923091259877e-01,3.978173513603416867e-01,5.372746188154197133e-01,-6.702713141180446921e-02,-1.003841014140644805e-01,2.397217692849375539e-02,-2.904942481887057282e-01,3.429645575019047432e-01,2.757324951934954083e-01,-2.554555269429649444e-02,8.071577489608255940e-02,3.587029525487543946e-01,-2.579284069556421650e-03,-3.651807709055970852e-01,-1.801571816481955524e-01,6.169417039679064158e-02,-6.247420138402254297e-02,6.370810561724879473e-02,2.272439190963972122e-01,2.472695848350790759e-01,2.403269262518151900e-02,-2.922251539147602273e-02,-8.678648274586470146e-02,-4.629177347230349349e-01,1.027557670667479522e-01,-2.814305076092460042e-02,-4.411572655946520150e-01,-4.198244976682694585e-01,-5.561254525725961573e-01,-8.134821601849590023e-01,-5.474062512024590044e-01,-1.735948513240533064e-01,-2.290452354600162610e-01,-5.866973904226697734e-01,-2.226420230833119629e-01,-3.888937990131798028e-02,3.384515360940246742e-01,5.512025325186717221e-03,-9.999816016666612795e-02,3.841242924891663611e-03,-5.329798330534987194e-01,-1.653962638372486194e-01,-1.877297251097305997e-01,-1.138151118871494338e+00,-1.088149057845591239e+00,-5.643040266324228504e-01,-5.771332926076209180e-01,-5.156071560421684463e-01,-2.646926795421149503e-01,5.968982804231725420e-02,-2.042313919313652748e-01,1.251034288459893229e-01,1.253957913460042664e-02,1.768597070634163049e-01,2.845410846272774380e-02,5.755642146323245237e-03,-4.683955641728408670e-02,-3.293635234877132500e-01,-6.372043668765130231e-02,6.515996971883267208e-02,-4.640670299876623606e-01,-6.364513169968577522e-01,-4.812474277098746644e-01,-5.490206978951784889e-01,-3.559948255553284091e-01,-4.133354480768755557e-01,5.869958665361016403e-02,-8.160518031945658557e-02,7.608924456342840148e-02,-8.860027612556889420e-02,-1.203232960675332114e-01,3.575872653300053022e-02,-1.797848519029255840e-02,-3.648149556274098149e-02,6.762804241125057458e-02,3.006233361793220760e-01,3.282697686124827312e-03,-2.979448995477573803e-01,-5.650711418666171104e-01,-3.716482626919291876e-01,-2.921758575597380725e-01,-4.838728162150158219e-01,-1.722843810942051301e-01,8.436756628410402303e-02,8.790343834605625351e-02,-1.269545953718845543e-01,-1.040322003930760214e-01,-2.731715388257110327e-02,-9.104441245574210195e-02,2.520527117053830701e-02,-1.056892965075101193e-01,6.214557177952317185e-02,-1.265812534886729714e-02,2.392041317671763853e-02,-1.820485598187803478e-01,-1.462775362737653018e-01,-1.728850155428622026e-01,-2.311291902022453437e-01,-1.013793551485013544e-01,-5.808939962515451833e-02,1.045464050653014260e-01,-9.648682995204658705e-03,-9.747994522577174692e-02,-3.850826105658938792e-02,-4.881413746987060126e-03,2.455645758102066242e-02,3.545687036486701738e-03,-1.179709906943105999e-02,-2.577097090057453924e-02,-3.453782835952125957e-02,2.743493032696707815e-02,-1.957878911049937016e-03,5.265810733626691970e-02,-1.070266053074772072e-01,-3.367386069458089878e-04,-8.705326427685455837e-02,-1.567767393049377192e-02,4.091976580583365358e-02,-4.172592315900437027e-02,-2.904222711040021707e-02,-6.489858149998566084e-02,3.961753683417947730e-02,5.278139155449602243e-02,1.317618771881305662e-01,8.060270104289073145e-02,-1.167422812131301557e-01,-4.938841898405726266e-02,-7.339951462167400298e-02,-8.319383088779833124e-02,2.886194187228019459e-02,3.754879879223398109e-02,-6.139538577769446115e-02,-5.116382036994185367e-02,-4.672430994313266084e-02,-6.117027784782791411e-02,-8.877510693157650290e-02,-7.913136159228686961e-02,-8.272559179891886272e-02,-6.904375680690456873e-02,7.927011205517305731e-03,3.499584975225140948e-02,-9.323598481568413920e-02
-2.803243990403303521e-01,-2.355279853405498891e-01,-4.069975588834763847e-01,-5.372920495203824948e-02,-4.750112478994267251e-01,-6.808772104393858715e-01,-5.384869658479322085e-01,9.211320979424690580e-02,6.865019023100418227e-01,-6.596879421165212642e-01,-3.681895432675031388e-01,-1.015321116680854147e-01,-2.399170619946931204e-01,-2.029100007017897445e-01,-9.234650924915629999e-02,-7.804360972717684641e-02,-6.647172480140640938e-02,-8.639020170071584626e-02,-2.135351250739778162e-01,-6.097698743879490513e-01,-3.485136579319699640e-02,-3.237949610469893075e-02,-1.380460578719855946e-01,-8.104888935803494787e-01,9.159714669914674756e-01,1.927707593651339368e-01,-5.222811336830420620e-02,-1.822878408469377209e-01,-3.226067993860317618e-01,-1.850356819538027386e-01,-1.785921974384673538e-01,-3.940678720717594868e-02,4.175943487562271822e-02,1.212975521487649200e-01,5.445277030974644134e-02,-7.867343084917882701e-01,-2.488660089346201587e-01,-8.715511062106979789e-01,-4.175386534031097496e-01,-6.432208377880306305e-01,-1.565030115457359816e+00,9.257096550829677639e-01,-4.014866633335781310e-01,6.058702103144613105e-01,-1.553589543026294151e-01,-2.927273650760294221e-01,-3.145001348756525927e-01,-2.128232505124613150e-01,-8.182526617733031082e-02,-1.643683580257015164e-01,-1.599332494381977901e-02,-7.683230760175739915e-01,-6.632342608863053268e-01,-2.718965195614422292e-01,-5.597022100715508541e-01,-3.958682530580944769e-01,-3.662230295217446252e-01,-9.287631091520854865e-01,1.266409179820001230e+00,-2.195868453865021663e-01,3.026923848049496435e-01,-2.107018676865783646e-01,-3.106777352940613968e-01,-1.736146883540907737e-01,-7.470633378359191334e-02,3.188708965034985771e-02,3.533963284099037733e-02,-1.620722821134015432e-02,-7.502102481510936061e-01,-6.165267984047396732e-01,-1.197523744973497534e-01,-7.100821996581175855e-01,-5.914989805089654329e-01,-4.106516755668349061e-01,-1.141451290048871359e+00,2.046987452022449805e+00,5.657325087542081077e-01,-1.937411726268311596e-01,-3.995035744550774481e-01,-2.579425137246660338e-01,-1.280615707420361404e-01,-1.673098680485995970e-02,-5.862315461737650085e-02,2.838589218955470117e-02,-1.808883158235961505e-03,-2.475611487764942664e-01,-2.567616642328843235e-01,-1.132595048045581670e-01,7.348208009408910280e-02,3.048280149711202758e-01,6.423814862673604686e-01,-2.312017273852943477e-01,1.505403138623919057e+00,-1.242443578794770964e+00,-1.829508571132605121e+00,-2.984265694770004695e-01,-2.191811229521404003e-01,-6.935342356627248461e-02,-3.122218941826256783e-02,-2.248804240974245153e-02,-9.354647847878186720e-03,-3.437941774449922161e-02,-4.972858999770235489e-02,2.884159765400751141e-02,4.533764442842332376e-01,4.612218872265140268e-01,4.069590004938186678e-02,-2.403738873735124515e-01,-6.154164574224320061e-01,1.635642717722243233e+00,-6.274045939901395919e-01,-6.558899426145257117e-01,-4.718386475885369968e-01,-2.602650681220389783e-01,-1.300652412154513771e-01,4.436630947389559598e-02,-1.492329054926795628e-01,5.783216962610277651e-02,-3.953453111049533286e-02,-2.318263733518438618e-01,3.240295828078976759e-01,8.462782237480460656e-01,-6.377568621187116316e-01,-6.697565396321717435e-01,-1.005818033218367935e+00,-1.187911794666091314e+00,4.467579360574909786e-01,1.128034694977048336e+00,3.030247095691535053e-01,-2.928344330318533029e-01,-1.762860125843446479e-01,-4.190877583304988135e-02,-3.590786395293071864e-02,1.143513328821941892e-02,-6.035694860036468906e-02,6.634170824877544392e-02,-3.645225001558569100e-01,6.527059112610120173e-02,4.411686107251870936e-01,-7.620042026602624752e-01,-7.573891487356707586e-01,-5.103065133507189710e-01,-9.115427396891271350e-01,-1.427312494865581982e+00,6.600698275932146419e-01,3.647235090768455867e-01,-2.849632570230254958e-01,-1.757216141426455602e-01,-2.236081232867839219e-01,-2.876704526761183350e-02,-6.409444370469621899e-02,-1.606978036028146317e-02,5.971281163619335253e-02,-4.489924831585778708e-01,-8.238806895407276842e-01,8.335504980050774393e-02,-6.029526110388218063e-01,-5.574647398286178834e-01,-5.087605635126255521e-01,-7.894726876483137978e-01,-1.430116045119253165e+00,4.772138103254158215e-01,1.926127147113800564e-01,-3.246590818347117602e-01,-2.032984724965251622e-01,-1.490663667962343619e-01,1.292701298117313567e-02,8.686499031257958331e-03,2.595356466447650348e-02,1.615081984036189147e-02,-3.158191419567847602e-02,-7.775155971894112117e-01,-3.704115823510019667e-01,-9.485431865210394164e-01,-5.155267606221098919e-01,-7.275332784620752724e-01,8.061234066511572260e-01,-3.561103556353032440e-01,6.065767742429452047e-01,3.717130048073375992e-01,-1.495864878836971334e-01,-7.880384411643950870e-02,-8.653719966017650589e-02,-1.705061092480234242e-01,-5.453930385990454766e-02,5.350783181192447779e-02,-6.178393322581321456e-02,5.023803740737440432e-02,-4.483874167825370183e-01,-6.161106534658966627e-01,-7.590378676014853943e-01,-2.242549608866246935e-02,-9.461276154846677555e-02,1.350120794143101932e+00,8.411612703767301635e-01,4.593757002868427697e-01,-3.870615515358457048e-01,-3.029237058884204914e-01,-1.787179295790389810e-01,-1.442178873050077303e-01,-1.523386114348428480e-02,-7.733161236747872203e-02,-5.497705609339331723e-02,5.710382227780264053e-02,6.024314007954287981e-02,3.094021418635245491e-01,-6.854969241819182102e-01,-9.732679435755699909e-03,-2.000506732767353135e-01,-2.713997188325488197e-01,-1.528807474002735756e-01,2.522122174072972678e-01,9.142264629975623835e-01,-3.756651134959032023e-01,-2.819088693278054558e-01,1.443382254087141256e-02,5.121339684047735048e-03,1.753254698424882782e-02,1.160309334201450604e-01,-1.200838159176098770e-02,1.107431696926902270e-01,-1.595791680880036534e-01,-9.762634788451846068e-02,-1.697512481255953054e-01,-2.250095712687549265e-01,-2.013045620614377917e-01,-3.196320446032986928e-01,-1.290821572983114618e-01,-6.474532827948943636e-02,2.281223810886660874e-02,-7.021904997150892058e-02,-1.027677604500592951e-01,3.403082759896867981e-02,-2.537736334996124055e-02,-3.710870066088878955e-02,-5.333010196703644179e-02,-8.392493810340653781e-02,-8.000745598810747594e-02,-1.755776674414556426e-01,-2.057949606795304170e-02,5.440168514294041469e-02,5.695945184837656466e-02,-1.002230457445086598e-01,-1.452905918167803345e-01,-4.169935422280229842e-02,3.176789750840934567e-02,-7.664955867341539941e-02,-8.174963660587777556e-03,3.544749314588360734e-02,-7.163715780766360952e-02,-1.639825817712612516e-02,6.763497932623196984e-02,-9.522814461748168452e-03,-5.768962851242874675e-03,5.681682319256455005e-02,-2.663789041238290994e-02,-5.290579659902795717e-02,2.372917992687869487e-02,-1.075710352383163204e-01,6.810107138463127041e-02,-5.079732166122222746e-03,-1.964112769103906406e-02,1.691726494032895489e-02,-7.212111156119997701e-02,1.525550660033707720e-02,-2.687464780451204183e-02,-5.402756133212137379e-03,-2.247230119847108340e-02,-6.708870863691729358e-02,8.325257715893695509e-02,6.089908456538939419e-02,9.053218480719985028e-02,-2.341191097972987814e-02,-8.495405297277738854e-02,-2.964396905207203337e-02,-1.411752860134029772e-02,-1.688563542857640654e-02,2.146743495852481559e-02,4.010187785796122395e-02,3.927449728224087500e-02,-4.586611640147878269e-03,-7.518687538373820811e-02,-1.480719055393439100e-02,8.052260293712897032e-02,-2.997142940999246788e-02,2.375262507329110873e-01,-4.790226494099326243e-02,4.114209827982419354e-02,-5.970056483751576271e-02
-7.063311297844068193e-01,-4.315835238685067909e-01,-3.139030195739392903e-01,3.911880874961581184e-02,-9.964650320522839833e-01,7.687515876569701867e-02,-8.487985469263811811e-03,1.992593812466322278e-01,4.157096421814425180e-01,1.865634527283316357e-02,2.946614065114739472e-02,8.340056186455667431e-02,5.145998456876215571e-02,-6.165267022541320863e-02,-9.821214829794962242e-02,-3.845670442336704409e-02,5.204484668738353775e-02,-9.727563149418896327e-01,-8.747697228434389016e-01,-3.121504340417800005e-01,-1.575224961239994892e-01,-1.856434847195361781e-01,1.574959927461637432e-01,1.799493752410734337e-01,4.123213076407622468e-01,8.164150209348354226e-01,3.133405827046268355e-01,2.562305750633089296e-01,3.723245601244414837e-01,2.060883005260002732e-01,2.330724620866051755e-01,-5.847402673933149546e-03,-7.113194586765980189e-03,-1.129447046069226648e-02,-6.591096397849527389e-01,-2.599367151807306375e-01,-1.124799970537295746e-01,2.474073941811600341e-01,1.395107995270190859e-01,4.218878427735037739e-01,2.300072399478579055e-01,2.063305810811758845e-01,2.114647118890378985e-01,3.397661115933398590e-01,1.871926953562464413e-01,2.848237458692924953e-02,3.759461194549571506e-01,2.492398149892262604e-01,-3.540765563521625775e-02,-5.195713676109195434e-02,1.248058934242697038e-01,7.213665977791201833e-02,-6.502233337688251291e-02,1.575902596026508840e-01,5.605422441778327991e-02,2.568005876870157467e-01,3.540244780367097222e-01,-1.437273614628726270e-01,8.820322305419959763e-01,4.386756810314087485e-01,6.473814258762957685e-01,3.757687117598043081e-01,2.401938168777222049e-01,3.053998933869307986e-01,1.404860027090151231e-01,8.357553418857591176e-02,-1.191924996805837078e-01,1.067551469631172478e-01,1.324801059352069821e-01,-1.418239886740732814e-01,3.676512213673178153e-01,5.946056383480963908e-02,1.584209382050246750e-01,3.470228257392381915e-02,-4.168898320524315748e-01,-7.116725411080164487e-02,2.234577747059389996e-01,3.446245167220918226e-01,-3.178294872846283703e-02,9.396522601531100138e-02,5.363848958863492999e-02,3.850690731976780939e-02,7.250369417001922140e-03,-8.351811721320831494e-02,-5.659487164140811905e-02,-2.004700173801635399e-01,-4.195708596846535465e-02,3.810027219668064014e-01,-1.261661912341505987e-01,4.379670338494415921e-02,3.063391112186787668e-02,-5.117834536576486570e-01,-2.622728850964461955e-01,-6.568586348792702090e-01,-4.790375470738700847e-01,-5.537839085245576110e-01,-5.156324366949913696e-01,-2.757716598846845502e-01,-3.521052837166675775e-02,-1.412864231941800552e-01,3.427765465199062583e-02,5.182231314727682447e-02,-2.075307796505278246e-02,7.627762236613740143e-02,-6.249467907198636984e-01,-3.336787255410533226e-01,-4.962164980194377351e-01,-6.904116568242024687e-01,-6.694379733355738660e-01,-6.652775023200468985e-01,-1.148268726334891188e+00,-8.131226126667131515e-01,-8.956413136271055286e-01,-5.209488020934556207e-01,-2.744868416768471153e-01,-1.681027248884822412e-01,-9.168446398414037413e-02,4.837794773463958281e-02,8.766793132730564542e-03,2.698080426410394070e-02,-2.928961031168537694e-03,-7.749929538431018505e-01,-5.963988585909969498e-01,-1.048683050783366433e+00,-7.118127681377464100e-01,-8.894678592689533314e-01,-6.023227391492990135e-01,-1.407928137268852131e+00,-1.232806417087806583e+00,-1.099366790827146945e+00,-5.689755596339546306e-01,-4.035543349427493376e-01,-2.016228057157544440e-01,-1.176663266873512331e-01,3.745958330757280692e-03,-2.622041339357106520e-03,1.142332805211043883e-01,-5.152280173053605528e-02,-2.323083750456993724e-01,-5.313014431389428971e-01,-5.378141361964392519e-01,-3.397807870476843850e-01,-7.428945811955771639e-01,-7.415599543374474800e-01,-1.305845224294214235e+00,-1.507027560480848960e+00,-1.277184325146098365e+00,-7.605293305251358271e-01,-3.948696763292032230e-01,-8.976728556536911485e-02,-1.007695617263511534e-01,3.805438626688329579e-02,3.048994164284832969e-02,-2.769220072554174350e-01,-9.199761929456785892e-02,2.885493883469663623e-01,-3.455144711233538724e-01,-2.652671822672991730e-01,-2.731351063536321400e-01,-3.272029786121182782e-01,4.447706114234725033e-02,3.079253111790601280e-02,-1.839129472321890668e-01,-2.522969036408207466e-01,-4.924115307558489703e-03,-1.340697222372154614e-02,2.189043799854538119e-01,2.481064399766486767e-02,-2.219412365308055801e-02,1.105430541313795756e-01,-7.450330627524217597e-01,-2.660640946014216635e-01,-2.148754940529032376e-02,-1.191992144620922789e-01,-1.409252823227389873e-01,-8.036980389393584556e-02,9.139075114259728738e-02,3.423792881346289230e-01,4.563769713526317773e-01,3.264706184563818114e-01,1.610438211919608120e-01,1.489203926675098932e-01,2.155975809415012767e-01,6.990935180938435967e-02,-3.068024974388121329e-02,2.682105495248724922e-02,3.614139730474862783e-02,-9.558480751283018328e-01,-6.671818239447152576e-01,-4.455010065268536490e-01,1.988121725886856095e-01,-2.405784484355615871e-01,-1.565195873537586491e-01,4.539772511667544141e-01,2.561253092368345197e-01,3.715214520167508527e-01,2.165046516723755088e-01,2.935800703348726698e-02,2.980511328412417948e-01,1.415189515824772371e-01,1.334281014476765559e-01,2.478194282922471098e-02,-7.169400907489421881e-02,4.555950752554114441e-02,-4.631918530792324407e-01,-6.278231126071365242e-01,-1.025296475793033707e-01,-3.579363099561337636e-02,-2.258142930046491970e-01,1.924143628664134187e-01,1.393508997011620454e-01,-1.759636286558868279e-01,3.779483980237039464e-01,8.536482102421114049e-02,7.093474477609609807e-02,1.583774076154366439e-01,2.663053290706967613e-01,1.686419114864921853e-01,-2.530129055609856709e-02,-9.241613792320432785e-02,-3.977264020436644537e-02,-6.023252465901716979e-02,-1.204555797976132603e-01,3.675243335998307909e-02,9.928887094501805122e-02,2.940259772039559016e-01,1.147311077954758785e-01,-1.064012950043420891e-01,-7.494615060466665139e-03,1.563222456053282861e-01,-5.011436243211191133e-02,-2.289840256830779908e-01,-1.237138913856499845e-03,6.800464756047774895e-02,-1.072795525370855152e-01,-7.951246938034932377e-02,-1.943601260507214074e-02,5.244501488808202966e-02,-7.239878972845122107e-02,-6.068990648614803335e-02,1.409736842672465462e-01,6.121397927901400110e-02,1.219868842244970081e-01,-1.479061613427633814e-01,-2.733905056528946331e-01,-2.562775725308784058e-01,-1.497212396596623307e-01,-6.837663102746212307e-02,-1.028562683775294806e-01,-6.223411111539780410e-02,-1.407282500911160861e-01,-1.919016964349734566e-02,-1.617650998813368809e-02,7.753550483845886299e-02,4.093389146305440734e-02,4.155902906330206231e-02,5.870650193327849736e-02,7.037928778159741050e-02,8.363954463607506384e-02,-9.905370890048670329e-02,-3.512097486674669450e-02,-2.092495638868950847e-01,-2.972449302006917038e-01,-2.967757455244787734e-01,-2.635498489873021599e-01,-1.622426443086476266e-01,-8.847412307779241314e-02,-9.103085897013758754e-02,-6.364361552392228116e-02,-1.922229888981499824e-02,-8.351760776024631794e-02,1.652145423002001137e-02,1.626991636831058921e-02,-5.409906236556844689e-02,8.954844822336332708e-03,2.992849280181133012e-02,5.240263547679058914e-02,6.177674828679606545e-02,-3.729886412963588638e-02,5.349756545155473497e-02,-1.280398804456319428e-01,9.588769173470518270e-02,-4.986685460337590692e-02,8.740295165701780777e-02,2.940784702408474807e-03,-4.400819533532958350e-02,-4.404613906395149492e-02,-1.153049226936642482e-02,-8.200097616150768542e-02
-3.506653628363094466e-01,-2.410769771220387658e-01,1.340006995468512874e-01,8.321727043198645646e-01,9.556893772423828703e-02,4.069981030305260677e-02,-4.373653560575046506e-01,7.840100580963748067e-01,-5.857811469852413078e-01,-5.661561152131051600e-01,-3.831083521390188928e-01,-4.450821141850927476e-01,-9.170289951444489107e-01,-5.838840899019407393e-01,-2.224866238612486780e-01,-2.122651265128613074e-01,-1.421511765900739799e-01,3.054963429846068168e-01,1.067811035479967890e-01,3.059715415400452443e-01,2.261972749836203833e-01,8.790429978018411694e-02,-5.592614449720274550e-01,4.033532183680941241e-01,1.193378907852709947e+00,-2.231243757024110874e-01,-6.348950493406981810e-01,-5.045429495608007020e-01,-9.447293915690913035e-01,-1.029903382738307283e+00,-7.930200731477508036e-01,-1.083473871880338141e-01,-2.495211439587654567e-01,-1.368304032051870754e-02,-3.882213422962376564e-02,-1.290855648027505742e-01,-4.239185161087212772e-01,-4.281673732134039789e-01,2.779114440981408918e-01,-6.469912723694340971e-03,5.485017941849647943e-02,3.747625487338993588e-01,7.738599771394269466e-02,-8.071623516212198535e-01,-5.716959465778315153e-01,-1.197175068460910596e+00,-8.141113266381210245e-01,-2.081853320859332890e-01,-1.707536031304305313e-01,-1.157713393535274027e-01,1.223074288369219026e-01,-5.392650697849815655e-01,-3.366547451072610109e-01,-6.804889472343804702e-01,-7.556579916228655103e-01,-3.791462375763059445e-01,-5.416424370189243387e-01,-1.023447096162524828e+00,4.019488434963151002e-01,2.654356038161292952e-01,-1.255623691110253903e-01,9.200799850387256229e-02,-1.044674843473969217e+00,-6.348980290331847076e-01,-5.137043757080268086e-02,-5.862437448733190393e-02,-6.295014670738234563e-02,4.261902788426673305e-02,-4.414217356237570833e-01,-3.707514006805683326e-01,-5.037952235597045192e-01,-2.339305554643650031e-01,-2.818978980473641482e-01,-6.140383414373672410e-01,-8.525435154398751658e-01,5.749870834388779439e-01,7.653358093946431850e-01,-1.599608561939009632e-01,1.322842279606629146e-01,-8.340708850143310205e-01,-1.128367109677699959e-01,-4.601213223959345344e-02,-5.735949789495971979e-02,8.535724480242429246e-02,9.816850165501249392e-02,-1.023910188841833158e+00,-3.203739670212928381e-01,-2.200585522495173141e-01,-5.774628855346618517e-01,-6.176016609563970139e-01,-8.132850488370828579e-01,-1.039077886421340580e+00,-3.153294048231558566e-01,6.413761349503234455e-02,5.245458046024460419e-01,-6.063947894017686358e-03,-4.543070487108041289e-01,-1.456318009410170478e-01,-8.419532099800453029e-02,-1.896042859640080167e-02,-4.199418955470334697e-03,8.389561008705034850e-02,-9.959966291640608427e-01,-2.590661906834396677e-01,5.052099524052501289e-01,-5.575220534407431261e-01,-7.042175052803176794e-01,-7.091152358941904543e-01,-9.480079279769091372e-01,-9.179112412568540824e-01,-1.126896866774350414e+00,3.627011835730165057e-01,2.760273060798064219e-03,-2.435403980472633512e-01,-1.897134761527181634e-01,-5.145173981256789819e-02,-4.506587702390384143e-02,-6.075181414869312325e-03,1.911494573588011503e-02,-7.999641765104296143e-01,8.146989978528421106e-02,4.835438577451706132e-01,-3.743471453590056508e-01,-4.666505153549271867e-01,-6.147895329601191783e-01,-1.101770121695912819e+00,-3.367872117731326442e-01,-6.248810581417022503e-01,5.120724727813898980e-01,2.390177285187458922e-01,-3.128394937140705490e-01,4.331008315212050985e-02,-1.039036341885356679e-01,-3.499114237096596219e-02,6.640642402696418645e-02,1.397362505250991822e-02,-4.884008621477346490e-01,-1.375321784507283207e-01,-2.784450944568767072e-01,-3.346986843429608505e-01,-3.734795455541630727e-01,-7.161738176268616085e-01,-1.224296577590252344e+00,4.384666774569975778e-01,3.771206293250888020e-02,6.518812844277991347e-01,6.932925989270595502e-02,-5.381874928027536864e-01,-3.368591317401006258e-01,1.748318712343891780e-03,3.173273217694294601e-02,-4.230323136400745282e-02,3.248422308094241467e-03,-3.122870231462633317e-01,-2.146328839271875455e-01,-5.935463273485898084e-01,-1.494440311452273074e-01,-3.161506773769683365e-01,-6.094213030532219522e-01,1.552726024055497978e-01,9.176519133998757294e-01,6.218141455852506105e-01,8.387836383580739297e-02,-1.866413431751785812e-01,-4.178771368071177994e-01,-2.968323075705954217e-01,-1.164291764726249762e-01,3.379427649341095602e-03,-2.024607152078818084e-02,8.323553824298889070e-02,5.330234859037036310e-01,-3.019306858774704616e-01,-7.748403067240317021e-01,-5.240075802552284223e-01,-2.500365139598733077e-01,1.603113832138561290e-01,9.383902241641975950e-01,9.604304509121951439e-01,1.156255687920113795e+00,2.841007607233165255e-01,-3.797252303415868391e-01,-4.390695980585950786e-01,-4.845245650606537224e-01,-2.760090995390078739e-01,6.158409749381817122e-03,-1.067559706215122362e-01,-6.264042172568159983e-02,5.839216086077820833e-01,1.064145197361688611e-01,-2.828749994573712123e-01,-9.624181482727942605e-01,-3.719024060045701408e-01,6.461215120558406744e-01,1.265011761855932004e+00,7.635604594146579160e-02,-1.602274798632295494e-01,3.231326227895708891e-01,-4.859874768834888670e-01,-2.932820032953696865e-01,-5.848359138828377324e-01,-4.816800153507719284e-01,-2.202967190811458420e-01,-2.678152248396021284e-01,3.716445417281557390e-02,-8.706270681285745161e-03,1.523875171417468921e-01,-1.346200555606161808e-01,-3.020215243122613691e-01,-1.223333756288133567e-01,3.261999629555150659e-01,6.344829882014210165e-01,-2.077497681829337806e-01,-1.356848290913537924e-01,1.721476543162839268e-02,-2.390884376315906279e-01,-1.773862339460696991e-01,-3.527180616500500410e-01,-3.743882716901020258e-01,-2.089387605804180481e-01,-7.574075944780059300e-02,-1.548898961120728605e-02,3.103774400590931237e-01,7.998103505415183889e-01,4.495351650740749272e-01,5.364401211627293220e-01,3.606185829057884651e-01,2.263340061697675931e-02,3.541366619159967699e-02,-4.227723929244069367e-01,-3.805311649060474366e-01,-1.315781792509901904e-01,-1.343684908407327405e-01,-6.917251475379097847e-02,-1.881517067083419981e-02,-4.744829996344057665e-02,2.507419882411708600e-02,1.296742222110780496e-01,2.291825251612023689e-02,7.100384646041306425e-02,9.541481637986161390e-03,-2.438022640148614431e-02,-1.287309714772962022e-01,3.548523030304389682e-03,-1.404460196803863914e-02,-2.712810021011188288e-01,-2.558888120384269493e-01,-1.763290840164137008e-01,-1.664451456248085270e-01,-7.034019905814829776e-02,-3.838637291966392334e-02,2.745767301386765197e-02,1.954710588857419551e-02,1.543325035487033356e-02,3.066641172501607254e-02,2.241098758390607220e-03,3.959525849564896061e-02,-1.596812320609052949e-03,1.437864010643626414e-02,-2.889222785194787545e-03,-8.570801919902279464e-02,-2.442936762039479848e-02,-1.121993499739951800e-01,-1.131539416320483521e-01,-9.480422633937451993e-02,-1.131545435570794206e-01,-7.150766515817004801e-03,-8.520304871468586949e-02,5.409323284981536369e-03,-9.517054651920818509e-02,-5.462304868611221609e-02,-6.662396062401830521e-02,4.696189418249042957e-02,1.445062393847589277e-01,2.423220044918425811e-02,-4.929288919816392223e-02,4.324385005646309843e-02,4.069939203548722517e-02,1.713951436028708919e-01,-2.281765446748169109e-03,-1.233125879659714152e-01,-5.224240516161800935e-02,-7.967890330100901863e-02,-4.685716597270472850e-02,2.072880320029764356e-02,-8.824381947246814906e-02,1.157264659776838234e-01,5.966436674580853639e-02,-1.211447953269041006e-02,5.715332916792247725e-02
-6.070685160147918369e-01,-8.419342411561829831e-01,8.364799675197513995e-01,1.840664361538544735e+00,8.213645872287644867e-01,-1.248145510056649782e-01,1.297542963074604649e-01,-3.078985450654110889e-01,1.866122095579428042e-01,3.197726540145454099e-01,-5.214061586245117424e-02,-7.605007070103794731e-02,-6.863524471967866192e-02,6.384384595420020125e-02,4.430940030413522968e-02,1.038393112193161105e-01,-3.057686642760423096e-02,-3.128197527434639635e-01,-5.814966571588793265e-01,8.650979428403536842e-01,1.051635279780073429e+00,8.415120979009994562e-01,3.948519122541903070e-01,2.959562025378163486e-01,-4.181739650714191847e-01,-6.616282165248613123e-02,-8.499958007540638072e-02,-1.001120813432472278e-01,-9.552268798167057318e-02,6.218582071208702405e-02,-1.627273383061697276e-01,-1.804848477530186790e-02,8.631839428050527840e-03,1.460507987257481793e-02,-2.311003568869028288e-02,-1.149632376314956433e-01,-1.411526085974603495e+00,-1.196930286361607365e+00,-1.183128780502172850e+00,-7.002594036096928543e-01,-1.161522185886559200e+00,-1.279444379251552188e+00,-8.818843464842469615e-01,-2.939386481885759572e-01,-6.822216668231592673e-02,-4.403142828462534158e-02,-2.744654147683620038e-02,5.206755188269802243e-02,-2.274256447738000862e-03,-8.841124665024703566e-02,-3.442006089088683884e-02,-7.909490364567599574e-01,-4.584007876334043607e-01,-1.392160589208249588e+00,-1.152814578758359687e+00,-1.525240741046657522e+00,-1.177950872737664634e+00,-9.113020919618981530e-01,-9.063340939817152719e-01,-8.809133984562017572e-01,-5.191105310229846559e-01,-1.601417521111609954e-01,-2.825067069120296148e-02,-2.062644127299214508e-02,-2.632263001327503349e-02,8.763515633703253260e-02,3.692655692560135178e-02,3.854671914859744003e-02,-5.784399525015272436e-01,-4.135519322052181312e-01,-1.411405669635602544e+00,-1.196262897730893560e+00,-1.242441215425100554e+00,-1.009417764417348540e+00,-7.160297645417794676e-01,-2.161479525707467597e-01,-2.076383764779709262e-01,-3.334074471565381947e-01,-2.261225968209975845e-01,-1.577410661582962642e-02,-7.429191958199100887e-02,-1.168141468197212707e-01,-8.574793345917426646e-02,1.431557961752099595e-01,-2.961237720256821443e-02,-4.625134102215185811e-02,-3.245268709344988900e-01,1.077365977341462111e+00,1.466820338422380132e+00,7.424777160254668606e-01,1.724083813954197630e+00,3.110675587855671886e-01,6.478634821571671587e-01,4.206652205388739518e-01,-5.079075460172647466e-02,-1.031474178917163864e-01,-2.139558486105863286e-02,-1.166810195563365571e-01,9.198800499070024228e-02,-5.076842078966128935e-02,-2.405271956961288829e-02,-3.518487652885668449e-02,-1.970308046313228589e-01,3.407914298835832967e-01,1.434457403816076448e+00,1.095707012316686102e+00,1.367721570433749756e+00,1.390280139350069444e+00,2.526280941272334157e-01,2.858843302336825376e-01,-3.432301231935446645e-02,-1.353266791935422431e-01,-8.702961199083038280e-02,-3.349466199601926902e-02,-3.039941396711171376e-02,-5.429764037976304164e-02,-4.108109522990335827e-02,8.768580373231772696e-02,-4.031167612651170157e-02,6.298512125081781599e-02,6.345762012592166545e-01,-6.186008499976503039e-01,-9.835564795833213747e-01,-9.304729448664947888e-01,-1.316756540792982655e+00,-1.595713258355184960e+00,-1.130102788405753067e+00,-8.449131661467855769e-01,-4.051868678958432946e-01,-2.201296143171877218e-01,-1.452421343357887529e-01,-5.340087552662926146e-02,7.878686325320669254e-04,-6.098290778494914327e-02,-1.191009961925995619e-02,-2.763851006384153777e-02,2.333520065557476153e-02,4.028188256515282673e-01,-7.650060343083709968e-01,-6.570942726074779916e-01,-1.273947646088800179e+00,-7.849641265651522426e-01,-6.464823996990235466e-01,-1.047155760951623549e+00,-7.843738218721133526e-01,-3.797295737212975086e-01,-3.838584174489596823e-02,-2.179234091536243374e-03,-5.016037683167898914e-02,-5.787439443101732514e-03,2.736044724315917290e-02,-9.355697697897598364e-02,-4.247768179383116377e-02,-7.905680227936913163e-01,-6.718824204931217459e-01,-8.865060680042482488e-01,-7.866111391629740934e-01,-7.399846427458461884e-01,-4.728337863000367514e-01,-7.298434319195598041e-01,-2.505174044412782353e-01,-5.269128183819420386e-01,-4.529021689291045094e-01,-2.812101602021799263e-01,-1.126007825039557070e-01,5.208347309213298693e-02,-1.163338492329934679e-02,7.489656122082748169e-02,-6.943585306109984097e-03,-5.375480031573407619e-02,-1.162018326570651849e+00,-6.692519997121195718e-01,-1.784108540771737417e+00,-8.882315165550688230e-01,-7.777486612581934189e-01,-6.404396959290962199e-01,-4.847546769556370094e-01,-1.634649691273358796e-01,-6.030570629470460853e-01,-1.921201038042105458e-01,-1.306668920924595745e-01,-1.111717790009622286e-01,-9.673213360238920588e-02,-4.070401782071674662e-02,6.460896608905199179e-02,-6.255716128990672364e-02,-6.822330104392804878e-03,-2.375966833441190973e-01,-1.258992445608163313e-01,2.904665799352290079e-01,4.671887685413614322e-01,7.661823801970812919e-01,5.599728723575874145e-01,7.316388921182043203e-01,6.386095022728939252e-01,4.182008378674809124e-01,2.550050866410494832e-01,1.818049378682163597e-01,9.214496642391449555e-02,6.320825578113120624e-02,1.633367633667009294e-02,5.338218404597908778e-02,3.456604365983342864e-02,-2.670834509485342859e-02,-5.166050132537114425e-01,-1.014003534493927716e-01,4.026893936854783473e-01,9.256900847219098338e-01,3.472478249581966159e-01,-2.363318350404239321e-02,2.754948926898798112e-01,1.208772921629029273e+00,1.128926829234695228e+00,3.489290512508355091e-01,1.897187637970375040e-01,-6.887787529360298033e-02,-2.086509442990152827e-02,1.560602895225430276e-01,9.109289392738207855e-03,-1.276129537758675936e-02,-1.998055003598950274e-02,-9.310986974341757538e-02,-1.267587118344605523e-01,5.761400184180563711e-02,1.207811434635869541e-01,8.118077338046916780e-02,7.834969964171807286e-03,-1.396784538597017067e-01,-9.334239022798100638e-02,-3.146947105134013239e-02,-2.660197774232564774e-02,-1.238573756895384667e-02,-1.388332210707193294e-02,5.091913501264758168e-02,-3.041875073565146470e-02,1.031425151076608981e-01,9.963667802357524528e-02,4.006642493983451903e-02,-5.643767024102216978e-02,4.509510144468924231e-03,-1.145677316449101590e-01,-1.126424015412937074e-02,-1.521703423633227747e-02,7.085134286347519357e-03,-2.695133704793280238e-02,-5.553156463805672752e-03,-7.537410892973367416e-02,-5.846873616260318124e-02,-1.082264027462647490e-03,3.554051407966365289e-02,6.202988441215916138e-02,9.114415909389946002e-02,-4.421329299076195291e-02,3.814847848085265586e-02,-4.579746290928939090e-02,-4.989000088840417346e-02,-1.922783203769074314e-02,1.506544368282351776e-02,-8.866254574077686579e-02,-2.836311150146911611e-03,-7.899129495475402940e-02,-1.372916670007298112e-01,6.419634615231036012e-02,-4.688268366320692826e-02,-8.719801946723657049e-02,-2.094437417196281723e-02,5.086620308352362424e-02,-1.232895413489877058e-02,-2.982856368632114293e-03,-1.709077395892687895e-02,1.075668170594926316e-02,-1.718773494991330392e-02,-4.239516937123430362e-02,-1.454275760777666571e-02,1.147606609345493481e-02,4.019795327839221361e-02,-4.393458984887434887e-02,-1.433662610602248477e-01,6.665293064607715097e-03,1.199036788468722248e-01,1.889310135920171116e-03,-3.321239880861880100e-02,-1.310241653928961858e-01,2.657283168444040181e-02,-4.602733907053488394e-02,3.108748502957199220e-02,2.808349875440473500e-02,-4.634075944879799402e-02,-3.452048262544713669e-02
-1.025361033621593032e+00,-4.859197615380332902e-01,-3.256813552232900363e-03,1.022929219843412563e+00,-3.005761167340333384e-01,5.442333207877216861e-01,-2.038034817333655990e-01,1.981950043532971217e-01,2.915814307015629492e-01,5.688288802840304470e-01,-1.739159444550185396e-01,-1.083729364988152838e-02,1.148477679341313035e-01,1.701639877488829444e-02,-7.498014934358662731e-02,4.785865163074023987e-02,5.770805650786775542e-02,-7.781930679236367387e-01,-3.839652959467446114e-01,-8.677446980735058490e-01,8.149135915076155534e-01,1.099501802076251478e+00,6.694628176646789663e-01,1.270035831629338086e+00,1.052284400131404229e+00,9.003743057007165262e-01,1.237954071704633119e+00,1.470848763340621312e+00,-2.163246276420594805e-01,-6.792006995292196314e-02,-1.133052723561662339e-02,-1.770241113950072991e-03,-8.907012850569522022e-02,3.954179116667354971e-02,3.228990165018003067e-01,-7.351960400266505102e-02,6.293294937175943904e-01,-1.017541395641722163e-01,-5.143214766463589660e-01,-4.847827215838666493e-01,-8.692873649768381172e-01,-1.340736341190166714e+00,-1.420359641732080735e+00,-1.111291818331802794e+00,-8.385518214640050871e-01,-2.515470399696987380e-01,1.403145644464536823e-01,8.435125169839359505e-02,8.145077523199181768e-02,-1.523512759221693456e-02,2.714790841669630778e-02,3.522723954513386491e-01,-2.855408983119017696e-01,4.240843467239707731e-01,-4.016265996985384223e-01,-5.843167280786950579e-01,-4.484611516174515922e-01,-6.150714822176032159e-01,-1.738554098117974789e+00,-1.430623823594321165e+00,-1.387841902608509370e+00,-9.002148990537924833e-01,-4.978451946931540806e-01,-1.046740965873737689e-01,-3.217401464386013266e-02,1.003419007945443100e-02,-2.569520098344304712e-02,-7.253400154103378794e-02,1.406615532508591615e-01,-5.145825794197871061e-02,3.416266980559156119e-01,-2.673617179859115733e-01,-4.921329017918578130e-01,-4.053236227136683412e-02,-5.467412730350488248e-01,-1.831796016922116355e+00,-1.228886574127519893e+00,-1.315917711019328085e+00,-8.926973967615935424e-01,-1.886671524431889624e-01,-2.335494951752502268e-02,5.724366579125270832e-02,3.718649188793209104e-02,9.756514138140857245e-03,-6.732566759925356914e-02,2.870297445828001726e-01,8.470395296330633650e-02,1.520657833074366139e-01,1.544451404534718186e+00,2.236207693396198515e+00,2.291344972395614299e+00,1.369770584792023183e+00,-3.256699045301712087e-02,-1.936564054003795665e-01,-1.183169871479933466e+00,-8.765438953289645951e-01,-1.752272314520869068e-01,-1.052845478652061212e-01,-2.807021740892725117e-02,3.207816846474358108e-02,-1.635962318421859893e-02,5.322338259632122121e-02,2.364764970342154160e-01,1.427205099599392624e-01,-1.304713584506951018e-01,7.900327756240267674e-02,9.289773588155668671e-01,3.500230803306738081e-01,1.285443058630879820e+00,5.509139691910684700e-02,1.084031478124099168e+00,1.154488898896268712e+00,-2.098385575353954868e-01,-2.965975002702363195e-02,2.213171293099324213e-02,7.168029114120119845e-03,-6.549940754139302324e-02,4.911086228047072122e-02,-3.092125071873526657e-02,-6.683920617840274359e-01,4.624939784589804370e-02,1.269855916235289039e-01,-4.806894370083053536e-01,-8.327800849809269268e-01,-9.033932473431771637e-01,-1.489529985565995140e+00,-1.047247655797929999e+00,-7.862707043328273082e-01,-5.496884689197114593e-01,-1.306138570891411943e-01,-3.530730617520626280e-02,-5.773602980513704158e-02,-1.888418061878365667e-02,-3.088035806679953824e-02,-6.390584600927476377e-02,2.133559055118334352e-02,2.805976774268647556e-01,1.996759649026852435e-01,4.530526327078285287e-01,2.909082764773218699e-02,-1.258881660525134893e-01,-2.318021488859272339e-01,-1.290951332367099358e+00,-1.070110667581683384e+00,-8.076486330484551335e-01,-7.846344303453416380e-01,-4.282610688746930627e-01,-4.809170289054828795e-02,-4.110914727789071604e-02,-1.077450715694333733e-01,1.639897443696734791e-02,-4.181181100947772844e-02,3.330124759011151431e-02,1.103545414871260760e-01,-8.509687836684872581e-03,5.074689529440894464e-01,-1.285340564161061711e-02,-3.273631693165875989e-01,-2.830050202972043127e-01,-6.855139046042902917e-01,-1.124000933391053669e+00,-6.620186525777389530e-01,-7.109523536854931436e-01,-3.736952289479445466e-01,-9.633958814553253425e-02,-8.260877000250328728e-02,8.343032221540319648e-02,7.384317488453341627e-02,-3.150979504925305319e-02,8.086264242517163378e-04,1.928846820015883701e-01,-1.503834376102962112e-01,3.172556044117693513e-02,6.113596001103541872e-02,-2.668845463905994420e-02,3.030907453133121487e-01,-4.570230582928740404e-01,-1.037332633798782489e+00,-7.791979422297180546e-01,-7.173274992411370343e-01,-3.074083639472275364e-01,-2.367974227530085796e-01,6.922650290500363159e-03,1.523023778288791485e-02,-5.847245781963704425e-02,5.312272386029710108e-02,3.847258635044439445e-03,-4.452990165154732671e-01,-1.054696391142764922e+00,-7.840675512838247707e-01,-1.874217034777168944e+00,-2.169976586903910487e+00,-1.380789420178678562e+00,-2.428559824812206891e+00,-8.275468163145837108e-01,-1.026038712478482218e+00,-5.922703547996596152e-01,-4.076212522827863394e-01,-1.414684952953871866e-01,-1.891556620545622666e-02,-2.716538838242810866e-02,1.617194662828630057e-03,-2.186640837551840147e-02,-5.313573320099723024e-03,-2.448272329497600264e-01,-2.773127634064936897e-01,7.808726710038499386e-01,-7.616007457227843558e-01,-1.349355678510783640e+00,-1.197932809630328999e+00,-2.622507597591065664e+00,-2.244302630816452204e+00,-1.258233517580668703e+00,-1.093522337432367708e-01,-7.400664104957095646e-02,-3.829779349030357910e-02,-2.901767081788362082e-02,4.563853029843444736e-02,-4.874372271688200836e-02,1.348444486807962028e-02,4.209777553809623818e-02,-2.450029044708691151e-01,1.923029075768002347e-02,-1.995630345874487288e-01,-9.765893343450859909e-02,-2.335455248599340172e-01,-1.606279786550018907e-01,-7.147782519053701156e-02,8.244712611526214263e-02,-3.671957458327166583e-03,5.504523703607479453e-03,8.508073335145423244e-02,5.078258503744844006e-03,-7.220191391312207052e-02,2.602673388927120336e-03,5.674271545144021073e-02,3.016911630578032050e-02,5.092238967018189282e-03,9.163945444872000079e-03,-2.035263949948517767e-02,-2.055606280195259802e-02,4.880868657844410208e-02,-3.341635930476605232e-02,-4.423904691274631318e-02,-5.557480251362405775e-03,-2.053129598255835908e-02,-6.276294342808039217e-02,-1.933156828734993934e-02,3.559167605466054696e-03,-4.402297940300449464e-02,-3.270551815648899130e-02,-5.464299627534145026e-02,2.314940978274913561e-02,-6.726208459400408353e-03,-5.954309361280332030e-02,-8.402409976418594856e-03,1.020348261278734014e-01,2.570306137636004656e-02,8.001275152862856455e-02,-3.360582375520270587e-02,-6.839968457502690335e-02,-3.279825443228803067e-02,2.449501398549830053e-02,3.347356188199317184e-02,-3.703018592127319680e-02,-3.712611194507516726e-02,-1.612995277314607573e-03,-6.265573262824743195e-02,1.516622525508653715e-02,-5.471424810875375605e-02,-9.896639069560328461e-04,1.607771289548065585e-01,-7.566559716615124664e-02,-4.065356197403188765e-02,-2.226906343852256068e-02,4.769764129449775153e-02,7.257797611229287182e-02,-3.296659464930742911e-02,-4.712667914734572361e-02,-8.791396478099466893e-02,7.452315492464558003e-03,4.080969651298491790e-02,-1.281068186789961760e-01,1.630261639201560642e-02,2.315270355279822750e-02,-1.348643937456932285e-02,-3.436366323328220868e-02,3.329021749948554709e-02,-4.350882707155182688e-02
-3.241067290020458458e-01,-2.715395739462707070e-01,-2.063751809674068682e-01,-2.423611708396435915e-01,-2.979729707099122993e-01,2.005505947914318354e-01,8.785861146084851525e-02,-3.773076402659113482e-01,1.513168247846328474e-01,1.085133618808643285e-01,1.972121361008060958e-01,6.441274768493782110e-02,9.692771865979808721e-02,-1.156982502790970292e-02,1.565873368646187105e-02,-1.240935742242058569e-02,4.125860672271889490e-02,-6.408253374810709557e-01,-7.992339915192000488e-01,-3.316531840929695663e-01,7.524941734238849156e-02,-2.428474254614924333e-01,2.480745073271833079e-01,2.691803588035243666e-01,2.058719029402907019e-01,1.276160756484801817e-01,-3.941728007553665925e-01,-6.940670130015795525e-02,1.729047753829556222e-01,-6.447093894281540061e-02,-1.397610429063900483e-01,-6.581244806938579828e-02,-2.364768174634723774e-02,-7.373278157658441634e-02,-6.851463526035775908e-01,-3.815187391848699483e-01,-4.085941839728660097e-01,2.876076967767546289e-01,-6.088721712403100117e-02,1.394187112716828991e-01,-2.275955317656723834e-02,4.564033010294523685e-01,3.032060174922962537e-01,-1.080964468811328322e-01,-1.509434152718691635e-01,2.247798235248326115e-01,1.922188663224838889e-01,5.810947446912190228e-02,1.774441480121070891e-02,-9.108621613317664789e-02,3.906058374849649163e-03,-1.329758625097986480e+00,-8.457933667432611102e-01,-5.991621413077682368e-01,-5.151106223652153204e-01,-2.986386509179193016e-01,-1.608761419718411079e-01,-4.650641074812850717e-01,-2.666242536166802957e-01,-1.535703922343012173e-01,-8.636594845158017397e-02,9.472746556460079348e-02,6.898904933676341944e-02,1.011612889475206473e-01,9.117147053562797698e-02,8.437780322012781997e-02,9.961862563443663054e-02,4.146766561087002201e-02,-3.342295958375770537e-01,-3.474977493451035238e-01,-4.414555659252403230e-01,-5.996633805643905024e-01,-4.195422242673118585e-01,-1.505274195059956854e-01,-3.457556236504123470e-01,-5.101088343635949984e-01,-7.864458792814910115e-01,-1.013598439438018195e+00,-8.909240656051654605e-01,-5.753755685471902970e-01,-4.865408942881340737e-01,-3.990565558038616234e-01,-1.311395838173566308e-01,-1.141967573074834513e-01,-8.145865774463688369e-02,3.035550200553478462e-01,-7.619541802077310633e-02,-2.343545152208125204e-01,-6.748134967641359339e-01,-7.224129015452576130e-01,-3.358232093976742938e-01,-6.000496167316877738e-01,-3.475215448770309634e-01,-9.041583749837452944e-01,-8.349307930501239650e-01,-9.582067139097014685e-01,-7.213520964071105102e-01,-5.350602176935146392e-01,-3.546656372411261526e-01,-2.293490958303561200e-01,-1.781601101412742527e-01,-3.562685263127059881e-02,4.554922844892821954e-01,2.225593526338680017e-01,7.430665030332321841e-01,-1.400897554014822466e-01,-4.720537129648915697e-01,-5.689483207260871422e-01,-7.231069096455791101e-01,-6.492898705188783204e-01,-1.027741389779689873e+00,-9.288614865322373237e-01,-5.805521975680093538e-01,-5.356666325928287620e-01,-3.627505391014715919e-01,-1.710250104299237406e-01,-2.626796790610841370e-01,-6.965840635850095719e-02,-9.375849103686090258e-02,3.123251617826678372e-01,3.955921623481438720e-01,1.025736477583000239e+00,2.309009908920488796e-01,-1.380636917500593919e-01,-3.621090752012756098e-01,1.499864128019605114e-01,6.075974688190309836e-01,6.291235067829604732e-01,7.819197388177234753e-01,5.148380006786783536e-01,7.573921188783818703e-01,5.777430826582382606e-01,1.916125271104043848e-01,1.310823168622963055e-03,1.986347933223623907e-01,-3.125124263494283988e-02,3.396871586050734249e-01,3.209520197516456119e-01,5.108640729314770645e-01,1.735268725800911439e-03,4.313671625282718830e-02,9.146982773620379592e-02,2.940191927653494353e-01,5.977387710320346964e-02,5.632596355564236656e-01,6.978815815181107496e-01,5.254551408819199132e-01,4.581400739049180659e-01,2.267507692106955630e-01,2.335626709138107215e-01,-2.553536943400975742e-02,-2.560125277591133661e-02,4.343702985486844192e-02,2.217182568266358456e-01,1.938133125200591431e-02,1.522193856944254464e-01,-1.606377093053664162e-01,-1.254171855152047266e-01,-5.671402281349657154e-02,-1.226842487266300019e-01,-3.334488282104079993e-01,2.601454578927914207e-01,1.532688799586695294e-01,4.399909031539966930e-02,8.928515776321539754e-02,2.520951456149538306e-01,1.874625150644172733e-01,1.819747456068395719e-01,2.853538979232431855e-02,-6.198005658640878823e-02,-3.705707168858205502e-01,-3.437943925948435120e-01,-4.704542470309414637e-01,-5.460793009920829055e-01,-4.493725588161582296e-01,-1.315621751968628073e-01,-1.411523090619690168e-01,-5.265954059916325702e-01,-2.114076341735319220e-01,-2.989263767006614114e-01,2.258933261582464769e-01,6.042413458419809702e-02,1.747607705878986561e-01,2.039165540824667278e-01,9.707424200988436225e-02,2.314557518364885325e-01,5.995194804951039375e-02,-9.010211317543564968e-01,-3.260123063632985319e-01,-5.454715611823772736e-01,-4.410233881720310167e-01,2.848297342132096732e-01,5.658056758397601860e-02,-1.879388061520127079e-02,1.105258751732101641e-01,-1.131277325086457036e-01,4.824064251049555163e-01,4.418167702782422324e-01,3.681199351535398012e-01,4.879541253772197162e-01,3.104219194146284888e-01,3.588011841052251433e-02,6.369096694026150918e-02,8.408943259705572992e-02,-6.041829366483153496e-01,-5.533621225930999143e-01,-9.321625779741074536e-02,6.107816261410905362e-02,1.792163839818438076e-01,-7.410850234656866931e-02,-4.316032978796113806e-02,4.222442800971652477e-01,-1.025680821739114942e-02,8.011662393674732208e-01,7.258860168269005708e-01,4.999723876354899565e-01,4.344890067810370793e-01,2.729061474546023436e-01,2.413081428286129038e-01,9.821471775412872474e-02,2.646897307520171619e-02,-1.204484010585068765e-01,-2.311469501642072488e-01,1.796450346705254775e-01,2.638049944674765168e-01,5.341418848125789598e-02,8.461531634229713106e-02,7.806956525163151472e-02,1.057172161512262426e-01,-3.076143377428669501e-01,3.064638902240839902e-01,5.756860493176173543e-01,1.794292615446339278e-01,-1.279486066521061220e-02,3.875193615898007288e-02,-1.506262633981153912e-02,-2.231443986095389687e-02,6.242429980814503260e-02,3.394724974370558895e-02,-1.212578627983151684e-02,-1.094309992521204228e-01,-4.700725468118604339e-02,-9.507526583883971205e-03,-4.563317759893953385e-02,-2.475608273004236137e-01,-1.647904154344740357e-01,-1.045096816821337316e-01,-9.459796104488966961e-02,-1.153433062508750634e-01,-6.647714651932559726e-02,-2.593829244899632097e-02,-1.924301301385559770e-01,-1.145980464413292460e-01,-6.071034557473881099e-02,-1.057550631777644107e-01,3.981463769700661209e-02,-1.037534159012135082e-01,1.496983130039120265e-02,2.629540067746966026e-02,-2.891995582226128490e-03,-7.204798399540224274e-02,8.074192008822025923e-02,-1.580242572209125396e-01,-2.561162879384345503e-01,-2.132569377688025014e-01,-2.740051250018315510e-01,-2.444275533404047240e-01,-5.051036823932508746e-02,-7.151954734173657929e-03,-7.347483702496502948e-03,3.501384861564876827e-02,-2.615534751481582432e-02,-4.278449587975897972e-02,1.917065339451025016e-02,1.856827946155729589e-02,-2.903934834793439959e-02,-3.192814322128872950e-02,-2.062537900214346867e-02,9.685227862004146260e-02,1.908876295077811813e-02,-3.085935276966390861e-02,3.233752624568388134e-02,3.290772838316250587e-03,-1.018157592437776704e-02,8.356279054550572183e-02,2.273535552824142159e-02,-4.514793888986944059e-02,-1.971837205812929095e-02,4.806252447705917225e-02
-2.363100591266162065e-01,-3.271359290578328416e-01,-3.328025707406798150e-02,-6.305029205918554203e-01,-1.136098962563022008e+00,-1.535535520514504926e+00,-1.584358444599427429e+00,-1.476756935779181434e+00,-7.131904154203764223e-01,-1.823983272236693876e-01,1.381160981208499894e-01,9.721747551686299449e-02,-2.081627779834701319e-01,-1.346853479783641783e-01,-1.380641712728242210e-01,-1.674478684266291761e-01,4.653765865380393718e-02,-4.428185981020656414e-01,-5.560312749881392014e-01,-6.437372006164675253e-02,-7.871238259606819776e-01,-9.903355660489945311e-01,-1.310320359781733446e+00,-1.010737564443839442e+00,-1.283320458702425393e+00,-1.709493444254348016e-01,-7.922503966065191916e-01,-7.466217617320386468e-02,-1.237839046154196043e-01,-3.134571782887012326e-01,-1.485983343133795154e-01,-3.125143907710370983e-01,-2.044540129142809748e-01,-5.774186115557827792e-02,-1.633447224040421586e-01,-2.978335579394365551e-01,1.816165155685851573e-01,-8.430737181339981179e-01,-5.570700373280044193e-01,-5.913795265559954606e-01,-9.074183650510382337e-01,-1.254261035692658899e+00,4.442364681841168284e-01,-1.325301357257746282e-01,-1.146966858253552629e-01,-8.632739318268849160e-03,-2.836854407108171938e-01,-2.049599667216022159e-01,-9.524216684798432475e-02,-2.598244829846210746e-02,-1.032502395084093083e-01,-2.172875576510816253e-01,-3.431562692459866337e-01,5.425924087600426243e-02,-4.544630411440175877e-01,-3.724557237251167052e-01,-7.263233901085494049e-01,-8.520588894037977035e-01,-8.916925926031005201e-01,6.009503209482034425e-01,2.039243475786168547e-01,-1.165679837074043712e-01,-2.077453611557832924e-01,-2.555848841038240171e-01,1.660334362418809662e-02,-1.055595361259898807e-01,-1.187661511565798189e-01,-1.281396526767032418e-01,5.754230184781983226e-02,-1.025959430466319572e-01,1.578345050791273851e-01,-2.669859551540612608e-01,-8.967370659789771770e-01,-6.310077489172760679e-01,-6.562501949197268036e-01,-1.149599231138084710e+00,2.650473530494190100e-01,-1.367105238277759593e-01,8.350492576730761396e-02,-2.896669509660068642e-01,-2.112369297817118241e-01,-3.599415406842623039e-02,-1.015385837266425118e-01,-3.845944769594040330e-02,-5.287634990774154470e-02,-6.243275678529287137e-02,-4.179212418155860490e-03,3.094998152584305107e-02,1.221204152278246413e+00,9.527537756825604776e-01,7.250186619374882069e-01,1.037079516693950820e+00,1.153939575990399868e+00,1.314758547142131473e+00,7.510850165793278022e-01,4.994468940886146457e-01,2.747649756751772143e-01,-2.651248229459100547e-01,-1.179019517170130094e-01,-8.399603009133892184e-02,-1.165001198510258740e-01,5.749373362752698696e-02,-3.026677302459974683e-01,-2.922180486307132674e-01,-1.853362417715321425e-02,1.226665202525857978e+00,1.005820922369832449e+00,6.309461676790283358e-01,5.484349295329772334e-01,7.135418794582254476e-01,1.104772778798333244e+00,8.827049325909192001e-01,1.213051567097660044e+00,1.426157354677999312e-01,-2.984687303551330495e-01,-2.361587516914805673e-01,-2.264563528896179900e-01,-8.014610048869540149e-02,-7.342466296803767944e-02,-2.565856705704508967e-01,-1.087990317398205842e-01,1.674841284174373446e-01,2.417254209116023733e-01,1.051464260827845026e-01,-4.467675431725491864e-01,-4.531347929888608350e-01,-6.032379988065738052e-01,2.356462632119905865e-01,5.421830206581581546e-01,1.033303850279912339e+00,3.221683281710517321e-01,-5.253087696844006838e-02,7.600017418959803539e-02,-3.040950672677980929e-02,8.346256825481408737e-02,-2.958896378381361408e-02,1.358400905777861212e-01,-1.998304564191841215e-02,2.772968004585915081e-01,-1.249616955037739230e-01,-3.080572814688780636e-01,-9.527610870796571207e-01,-1.081553950517042395e+00,-1.426416704796870993e+00,-1.199373382249992459e-01,-1.592358800671994645e-01,1.587268383750860268e-01,4.415492125261948897e-01,-9.049024385455263497e-02,-2.149793466378784393e-02,-1.344081191524917618e-01,-5.165034339748702900e-03,9.698467281685649310e-02,-9.936891824727832334e-02,-2.883835907012364044e-02,2.550756196913524509e-01,-1.313174030001119097e-01,-2.515811302889087164e-01,-4.720840215770536474e-01,-7.286936941197366124e-01,-1.375322754261912417e+00,1.983494126097882226e-01,-4.789497718900652679e-01,2.258685806982776642e-02,1.973491635714543779e-01,-4.199570529593731061e-02,-2.427449409889450432e-02,-4.186449209450749526e-02,-8.797722751687176920e-03,3.839388224405992228e-02,7.213520416338517482e-02,3.802045302047075970e-02,6.892467753184179646e-02,-1.200533086411187805e-01,-1.064362801276025859e-02,-4.658010803563228386e-01,-7.171985255635245915e-01,-1.276812166758361844e+00,2.465958801800040567e-01,-2.837782070885566110e-01,-3.066588082100804580e-01,-1.665518941646867146e-01,1.008640996081497550e-02,5.629733142611130850e-03,-9.200754283219254870e-02,-1.536604651896994293e-02,1.796857225443065573e-02,-1.394501708333985568e-01,-2.849917463240676518e-01,-5.802014404154614419e-02,-4.672491253529678645e-01,-5.288619718110424417e-01,-8.120455984491556922e-01,-1.119728776771108825e+00,-1.574137326415397498e+00,6.284175569566734509e-01,4.955017937816344475e-01,-3.344458999581792491e-01,1.400941531182240719e-02,-1.192042738973778104e-01,-3.343390466036092606e-02,3.356178661047010819e-02,2.336535699832832311e-02,3.544332683403920124e-03,-9.651764847818299076e-02,-2.778706413801030131e-02,1.723906324193471423e-02,-2.962937586922841371e-01,-5.718813750890758829e-01,-1.086087169576586797e+00,-1.266256093426186613e+00,-1.390288785967758844e+00,5.150013832676420683e-02,2.316497011380259374e-01,4.247957386685332487e-02,-9.462954582491137079e-02,-1.418611479445213708e-01,8.188709651712518245e-02,8.429024770677273626e-02,9.801170237510710426e-02,-1.075684556759582203e-02,1.990051546697167995e-01,3.301886335616738277e-01,2.170384460725197362e-01,-2.308367165270772126e-01,-3.977718995015782077e-01,-5.526078011644697252e-01,-5.630172276929161779e-01,-5.529539433601436960e-01,9.151723964520323829e-02,3.688248266919101903e-01,6.501879076547989467e-02,-4.548959636774500132e-02,-7.361893831123843789e-03,1.001835701479341506e-02,8.167474716849912331e-02,4.461416972431632433e-02,-1.378344953372410107e-02,1.713555906396333761e-01,9.307020097603833919e-03,1.122949841832565909e-01,-5.251223633419849907e-02,-1.603046968426006039e-02,-9.017892997513241027e-02,-2.818197833266170710e-02,-1.633555385765076418e-01,4.711190998418600395e-02,1.022074012812017041e-01,-3.604897537398983609e-02,-1.882886646885099588e-02,5.344151758013759856e-02,-2.559412003610189376e-02,1.211791801951243308e-01,-2.229702007222806454e-02,1.100549268169043055e-01,-7.069453432612295141e-02,-1.570100005990462955e-02,2.613973028806686888e-02,-6.501444223649424647e-02,1.911428505194556760e-02,-7.625521952885053190e-02,1.234735745204028068e-01,-1.124987527921316732e-01,-7.317180470543954013e-03,-4.085320410113239820e-02,3.977013568652559145e-02,3.437246755877147730e-02,-4.007722248599623893e-02,-3.190123976789314975e-02,-6.257802524110418763e-02,-1.035342177981283217e-02,6.807159710534649300e-02,-7.472906033977551321e-02,7.837516474879416273e-02,-6.061763155571171097e-02,-1.047694712607687567e-01,-2.797589536192450314e-03,-8.048984569133246780e-02,-7.970976416393231456e-02,6.283242278348941633e-04,2.093321970305043328e-02,-2.128647343306093453e-02,2.916456957232404883e-03,9.700495420201452057e-02,-4.253651021958018696e-02,3.650066215356286004e-02,1.478375676867977884e-01,-2.889853058252557852e-02,4.648164228589888453e-02
2.882409694825180391e-01,-3.315459311198629133e-01,-5.477981378055247763e-01,-1.545899446131366428e+00,-1.432287846463422776e+00,-1.105177565393514527e+00,-6.522892761160191677e-01,-4.231875182154218318e-01,-2.041032850050681913e-01,-2.069140509156897068e-02,-9.829754132568946368e-02,-2.676758826460322923e-03,2.415655844668277222e-02,3.451062151335118622e-02,1.152732446926375554e-01,3.989699900972357161e-02,1.484062362051321790e-02,3.608940569345687743e-01,3.770341271952195039e-01,-1.019318671417831945e+00,-1.313591326936358605e+00,-1.404134735138824919e+00,-9.973759038035994173e-01,-6.259868675382944669e-01,-5.097277250356505585e-01,-4.133135443799751951e-01,-5.852380112594311734e-02,-1.330060874977279615e-02,-5.461465931679899272e-02,9.713536471942418871e-02,-8.320885873279555700e-02,4.821720438227968669e-02,-2.005852200730003435e-02,-4.092654516518796914e-02,9.330510293154113677e-02,3.552215266925444481e-02,1.109765611470683311e+00,-5.668858373132835693e-01,-3.926588179745131857e-01,-3.242643441243919233e-01,-4.661066198938028649e-01,-3.623303845807990808e-01,-3.759350620408218879e-01,-1.588117979557550630e-01,-9.527484689862239509e-02,1.843299209829648427e-02,-1.820502403710320266e-02,6.658702200089353096e-02,-1.810211911553238212e-02,-4.370470487054405051e-02,-4.480958437552926693e-02,1.242465890566797626e-01,3.142615288412325403e-01,8.975533132980242357e-01,7.524133043669127552e-02,-2.653325001846102982e-01,-2.894634726108730183e-01,-1.690438376956071298e-01,-2.908225432861355486e-01,-3.897899481227934948e-01,-1.273324032160965402e-01,1.894377082588110219e-03,1.148651498431286187e-02,-3.299981158833346917e-02,-4.199477543597511520e-02,-7.603274594979871071e-02,-4.087084710443339430e-02,4.804493421186629282e-02,-1.005875382420478859e-01,8.463663910309783545e-02,1.441228680802912665e+00,-9.914466455896057961e-02,-1.102595407379027143e-01,-1.503772127529645342e-01,4.902178646693391983e-02,-1.342882071957570700e-01,-4.711911012261216780e-01,-1.806020100597677813e-01,2.482449989835432136e-02,-7.836663434171097301e-03,7.815688093818966287e-02,9.332346248746371808e-02,7.424097184644785907e-02,2.396110158838517593e-02,7.051067729999486999e-02,1.520665016251623869e-01,-1.547831241759343827e-02,-1.274579324586930129e+00,-1.360475661286561611e+00,-1.589302904836003005e+00,-1.183890062451007141e+00,-8.896070695305203779e-01,-3.856712687709104581e-01,-3.183333443896654846e-01,4.665084753150697087e-03,-9.270963149994067634e-03,4.424250432572723879e-02,4.830188772278197484e-02,-8.017616796308602023e-02,-3.151157346097841622e-02,8.361759665475756997e-02,-6.385970178701827135e-03,2.097896226250347551e-01,1.594943749841657432e-01,1.163196652230499728e+00,-9.935273856358365352e-01,-1.265632073101573107e+00,-1.093931182154403770e+00,-8.496241810524349791e-01,-4.083206765863051091e-01,-3.348994862313295906e-01,-1.136108752888163875e-01,-8.249570873549150196e-02,-1.918946470446419861e-02,-1.638029769865528146e-02,1.538440459032975466e-02,-9.425456515399127655e-02,3.494841986218082813e-02,3.024331158259027999e-02,1.000627767921245387e-01,4.641645321301121618e-02,1.352077331049264197e+00,-3.361599871177935461e-01,-6.521009292258204137e-01,-8.667699728325263253e-01,-3.279804981584841239e-01,-1.876987401756312346e-01,-3.071814133820612303e-01,-3.588023093788437340e-02,2.015985445402861120e-02,3.212762613741455830e-02,2.361266108006386880e-02,4.359009477397005755e-02,2.270735341272317812e-02,-4.857200138137070244e-02,-7.542272249901363357e-02,2.878483392218230130e-01,-3.783088132139388396e-03,-4.186232945065481714e-01,-2.387049048044494748e-01,-2.346960127225683201e-01,-2.799370020929931591e-01,-2.933344739220601349e-01,-8.025422730840417462e-02,-2.997100038341963812e-01,-2.010850742539296576e-01,1.161372587576082853e-02,-1.755866843857054049e-02,-6.280699369437539592e-02,6.246182845770740372e-02,7.163815735539126595e-02,8.655012609995370310e-02,3.759564833475052825e-02,2.459291849736423285e-01,6.515699051637560690e-02,1.088244810630856874e+00,5.854069983259693744e-02,-9.040001828117488758e-02,-3.677966910956794594e-02,-2.227483116332541202e-01,-8.709399736164252781e-02,-3.783201367645501745e-01,-1.502496694817308243e-01,-1.782693301329475732e-01,-1.212494381457591697e-01,-4.029251704057916494e-02,-3.598466591160145306e-02,-3.520012313528123049e-02,3.321781363220001337e-02,1.301286323651220343e-02,4.408298923037968220e-01,-4.399227051548073447e-02,1.073319818907058076e+00,-6.436350592098316614e-02,-2.029194245102153848e-01,-1.626208253720614061e-01,-3.640300101781952097e-02,-1.550003356736803506e-01,-2.925358055369458032e-01,-2.225063271409497279e-01,-1.015188913486699852e-02,-1.193081959327936016e-03,-2.303049737699329122e-02,5.465195331233062975e-02,3.490483285450547007e-02,7.739927337185439904e-02,5.310416287875379011e-03,1.593432609690390855e-01,6.889530052891408574e-02,-3.137118689290621987e+00,-1.822688984436865445e+00,-1.686439066533521824e+00,-1.406736909684320969e+00,-9.260042205721638053e-01,-2.765720168740025131e-01,-2.928085301519261496e-01,-7.040821642280149784e-02,-4.520045382162402731e-02,4.617496750496860591e-02,6.726773090733290106e-02,-7.929825599815980286e-02,4.997684824727385150e-02,-2.038933685896602253e-03,-3.441415218176074181e-02,-8.915757467670873404e-02,5.792579023618814604e-01,-2.179176495717200179e+00,-2.563913163905473525e+00,-1.749660191642056439e+00,-1.608946626238102029e+00,-7.481219943156708352e-01,-8.825112106675400692e-02,-2.254780501120360048e-01,-1.421997226787837521e-01,-3.263413001859182677e-02,-4.297599274247575901e-02,-5.020990360518970061e-03,2.031415946629734973e-02,7.302829269320674534e-03,-9.215845092038418840e-02,-3.105315837258315961e-02,-1.521404122897274114e-01,-4.057293916697179426e-01,-7.911751375635817096e-01,-1.020868269829066755e+00,-9.962539362631596118e-01,-9.168788788986691474e-01,-6.321603651369013255e-01,-1.533742485748513518e-01,-6.655827963844469786e-02,1.432299922832739811e-02,-3.327715575556034009e-03,4.774216882758145625e-03,1.603384434334150996e-02,-3.126164973742218828e-02,-7.041909438134134891e-02,1.094462662704610983e-01,-9.686901313666609892e-02,-6.893343271856954002e-02,6.548619631003910202e-02,-1.064689164578206670e-01,3.052949550237092635e-02,-2.060891221886760119e-02,9.238223607841321294e-02,1.251809269571700460e-02,-4.272418809861438377e-03,-1.935374024756150160e-03,-1.780117740018716602e-02,1.185744146262397297e-01,-2.042860180532392669e-02,4.995000839635378720e-02,6.529698742070146056e-02,1.213576142860230437e-03,-9.107016262615506494e-03,3.450316066042452470e-03,5.835163617069757253e-02,9.703828699892051712e-02,-2.447512591627461903e-02,1.670765878280468589e-02,6.533672884738135622e-02,8.589597099097005806e-03,8.487535016769146012e-03,9.590997957137348956e-03,-6.927823682087447255e-02,1.678923690712890229e-02,1.555387053067684433e-01,-1.754405287818244785e-02,3.898636132241769386e-02,-3.098450499161184077e-02,7.281800495691864022e-03,9.286302101748394877e-02,5.484909731862940008e-02,-7.954749204175460067e-03,-3.205823459157259442e-02,-5.902638162861782029e-02,1.283330825161997993e-02,4.312233479763787763e-02,2.398283441969209506e-02,3.831557329252211624e-02,-1.916236122652674109e-02,-1.332766672514148487e-01,1.795733425540864403e-02,2.750210430731367135e-03,-2.192754181284381487e-02,-8.517070968148868215e-02,-3.475622751020016749e-02,1.251028397685012006e-01,5.928314778030720211e-02,-3.594262198761326299e-02
-1.013717788669443287e+00,-1.385984499892597199e+00,-8.202006757896269651e-01,5.339547964967147342e-01,3.464986283044031445e-01,-6.896777568617077359e-01,-6.194353354059882744e-01,-3.245690096882281050e-01,-8.381676982418005961e-01,-6.745691366654356091e-01,-3.498515959396596986e-01,-3.759037850632994116e-01,-1.390647255410382976e-01,-1.657244920250432463e-01,9.615191945881945701e-02,-6.845371953037189539e-02,3.206721880278667891e-02,-1.126982575346263449e+00,-1.533913882702842013e+00,-9.462951372209447154e-01,-1.976672199626993420e-01,2.050051154973818457e-01,-4.149471773986103673e-01,-5.125538269442794226e-01,-2.035769489738640248e-01,-1.070807335735730836e+00,-8.037315153735676843e-01,-4.949388534122215466e-01,-3.915924381288303779e-01,-1.277764991301999498e-01,-1.517888301768955360e-02,1.328616208695040067e-02,-3.965794784159279440e-02,-1.286773369671821536e-02,-9.850047556041515717e-01,-8.505369585361995943e-01,-1.303871379851682388e-01,1.045680369929157527e-01,-1.679034102459169876e-03,-3.614037315696385505e-02,1.571917337507020285e-01,-4.205431941485529568e-01,-8.155707269165801687e-01,-5.644450492997800106e-01,-2.928220005023682848e-01,-1.693866471972364784e-01,-1.963476689071909642e-01,-1.282775564570122762e-01,2.963907331479867166e-02,-5.803476674147941584e-03,9.082308413382828710e-03,-5.077993697678619966e-01,-4.268281790299213729e-01,-4.288501361447712851e-02,-1.298591207596942465e-01,-2.561322028302269460e-02,2.312004363911480675e-01,-5.589291861670191153e-02,-1.877761541988670346e-01,-8.192675395933344262e-01,-5.518175186752229955e-01,-3.013964162128742741e-01,-1.275291008155789163e-01,-2.089002441563219681e-01,-1.399763249345283844e-01,-3.034541886794539902e-04,-6.846384830450977232e-02,-9.045256268568929725e-02,-4.838792805029043520e-01,-1.452001110953230201e-01,6.075616745873273494e-01,2.211697305102881816e-01,4.018949808679719848e-02,3.946392989938059537e-01,-2.020060345486593967e-01,-3.699756295356541047e-01,-6.236817152879956527e-01,-2.905894320865942126e-01,-2.108310147924166433e-01,-3.178015706753322539e-02,-2.899272865889401807e-01,-2.089631812369868169e-01,-1.883451622426604855e-01,-4.819304815254904506e-02,-4.619890162129423883e-02,-5.305049420855336706e-01,-4.020016947047095335e-01,1.051257417930066829e-01,1.109761794497087922e-01,-4.646655374839261596e-03,1.363992483088873053e-01,-5.672691332927948249e-01,1.825386314247846309e-01,-7.921361940942692748e-01,-4.560706036505645100e-01,-3.217040864794161736e-01,-1.121112809208415634e-01,-2.724530345028571832e-01,-1.431992274666238629e-01,4.720172647141236688e-02,-9.039060071860340051e-02,-2.143587997725927841e-02,-7.707958361687761162e-01,-6.257081984050502088e-01,-6.309446454074131572e-02,3.023571256338416710e-02,-3.506455581021907242e-01,-1.309509813401255052e-01,-4.921513416510019390e-01,1.339584966071727112e-01,-6.880106400679428802e-01,-5.710511496791735864e-01,-2.211723613735969707e-01,3.378237853770148236e-02,-1.469965930197096315e-01,-8.835629144809187263e-02,-7.620472167262479224e-02,-4.467363581861037714e-02,-4.941845296464116022e-02,-6.223960790098059803e-01,-4.520253874026016194e-01,4.122235459252039658e-02,-2.311701882210863770e-02,-3.814391548531359533e-02,-1.677745389115698274e-02,2.063306695995181517e-01,3.929238702173953324e-01,-5.554275277345813722e-01,-1.575917331141396260e-01,-1.784179980057910286e-01,1.456060416164768785e-02,-1.630719191450334948e-01,-1.004099324662804243e-01,-1.191403864473985358e-01,-3.035879784810557522e-02,1.983687643401398776e-02,-3.046611365814893557e-01,-3.532310812069087702e-01,-2.725824696680034243e-01,-3.303907672769543780e-01,-3.304250294346980366e-01,3.154073685818080119e-01,2.765532668228498081e-01,3.906029906096936122e-01,-1.240788493128595071e-01,-2.614754895784625610e-01,-1.667513507588969102e-01,-3.706600181827286733e-02,-1.070758492801034134e-01,-1.394664101395063083e-01,-5.726956991900014615e-02,-1.946758194942299972e-02,-1.385722123231683534e-02,-5.449808092450088015e-01,-9.246202303554323931e-01,-9.684659969711140182e-01,-6.484094054918976280e-01,-2.061602931734125496e-02,6.725816383624283468e-01,8.353952397571637878e-01,5.414055633090955055e-01,-4.242594102892517927e-01,-3.314161072433163269e-01,-2.012516268582582868e-01,-2.813290131520326809e-02,-1.990640264723847752e-01,-1.599952608158913131e-02,-1.020258701974887106e-01,1.298804581428979199e-02,4.818851857228138857e-02,-5.881914397204490719e-01,-2.103121879105659953e-02,-1.370151615527260835e-01,-1.724522081115888172e-01,3.338360046483680038e-02,2.565678643835583861e-01,8.440198533334969389e-01,9.124385974537898777e-03,-4.342787262185658914e-01,-3.945237550603812871e-01,-1.987906061431700677e-01,-4.065590298499833777e-01,-2.323790831500341936e-01,-6.456748945002983853e-02,-2.748372162817499034e-02,-3.517599357061520354e-02,-4.864458591975458907e-02,1.114356797178212233e+00,1.024538873919127235e+00,1.297550502921491322e+00,1.246103626262072384e+00,4.507589530118749632e-01,6.290547346538806484e-02,-1.475079561903957885e-02,-1.013747662167435726e+00,-8.881564287681780190e-01,-5.913657085076430286e-01,-3.003745982115701429e-01,-2.549906533078618587e-01,-2.269022069281979026e-01,-5.771734319089806553e-02,-1.117074152287479086e-03,7.199137322736144651e-02,8.125990585664583099e-02,4.210770636993417804e-01,4.179486881104982343e-01,2.633882153553421812e-01,4.782306153313874986e-01,2.071417443846506334e-01,-3.960346255949830363e-01,-3.135100886750956661e-01,-7.229165839133036009e-01,-5.126339878166688013e-01,-5.185599886844810547e-01,-2.010574240680813585e-01,-1.401055197937267072e-01,-3.785132836226191150e-02,-1.112643167108023218e-01,-1.441483926083156515e-02,-5.580903988684358247e-02,2.738499559249409770e-02,1.769911247775101115e-01,1.241218429634001336e-01,-4.499101010763851410e-02,1.070770674206912056e-02,-2.323990228813593018e-01,-2.160911724433116354e-01,-2.318058910392855054e-01,-3.526578378963487470e-01,-3.295724527730292674e-01,-2.712432030257919680e-01,-1.727623750905222799e-01,4.635639951183320034e-02,-1.503129512221134390e-01,-9.623027720096826929e-03,2.922733864890052560e-02,-3.507333247949062649e-02,5.939901598821326761e-02,-9.161752168163647680e-02,-3.561163352099021989e-02,-1.789533355388883695e-01,-6.240478204589598038e-02,-9.524626671556982171e-02,-1.494592930880956072e-01,-1.380537723517688276e-01,-1.609703799714767292e-01,-1.715901095489749395e-01,-1.302308508949288623e-01,6.092208386504542605e-02,-3.466829859620728510e-02,-8.869689354241545864e-03,-3.861067505926405602e-02,1.995318844080466031e-02,-6.416705116429619049e-02,1.216563810214225418e-02,-3.337941504185602121e-02,9.732029191240190030e-03,-3.593777866137762289e-02,-1.054490677548017979e-02,2.975011572481984015e-02,3.836692391676869984e-02,1.032304956104121568e-01,-2.594666018982845837e-02,-8.149353305900892963e-03,1.643081817492341237e-02,-5.169262906663707469e-02,4.925137282576724784e-02,-2.626812692207926292e-02,1.428470653806769297e-01,-8.068013892158285016e-02,2.146905822453538254e-02,5.754405919686187559e-02,-4.861252720300830027e-02,-1.087714466519529820e-02,-8.443344972213495669e-03,1.708379665826198490e-02,6.133353513267661428e-02,-1.033137401831442787e-01,4.495579283277176263e-02,1.161927899167226365e-02,-4.406818440178966040e-03,-2.062072875089907692e-02,-5.942130985596175141e-02,-1.193887557503569598e-02,-2.177342502987936537e-02,8.581082215825890092e-02,-2.269601657729755639e-02,-1.636171881079342624e-02,4.495534115586902191e-02
-6.296000264531032009e-01,-4.016824972310118480e-01,-8.698009516937317276e-01,-1.003153219767937143e+00,-2.631706591925834227e-01,-4.928819830121367040e-01,-1.729621639679225220e-01,1.049937749372312212e-01,1.359512454833434747e-01,-5.202386643889837792e-02,-3.517619497912674587e-01,-1.724525547467253006e-01,1.143632078362360055e-01,-1.406442440568905494e-01,-1.210461797201197245e-02,2.734750444941556197e-02,4.612254213486352561e-02,-8.001064809050063564e-01,-1.060024395609963976e+00,-9.932683821185387396e-01,-1.123128630825583896e+00,-8.858091142929219730e-01,-7.382291497299481309e-01,1.423039316612210725e-01,4.378165777418478455e-01,1.452155937842616318e-01,5.199351180376878823e-01,-3.339041628656788663e-01,-3.099008289906086122e-01,-1.859974161869388520e-01,-3.063785039945461919e-01,-1.647488535075933985e-02,2.528100942110568950e-03,2.511338659863134731e-02,1.065212765817953773e-02,-4.907921063647644605e-02,-4.280856042006778162e-01,-1.491555834782499312e+00,-4.346074569019082734e-01,-1.222477544114016768e-01,5.486787859138210210e-01,7.757748807472120145e-01,1.900197718831831695e-01,8.591060990547384757e-02,-2.076605611162101184e-01,-1.866899928313046630e-01,-7.628696828490154347e-02,-1.898837806479924950e-01,-3.911269842977042888e-02,1.325416257268998421e-01,-2.984832207504145574e-02,-1.216742027379191654e-01,4.644172636845524393e-01,-1.296403615669620979e-01,-1.121317648771407605e+00,-2.207985940230245414e-01,4.123045618189619677e-01,-1.529232907720015910e-01,-2.138386473257314069e-01,-1.824445023650195230e-02,-3.982328114670279362e-01,2.378742542470329603e-03,-1.039271738108376308e-01,-1.831147234393575018e-01,-1.716237827048207321e-01,-7.917992970878458270e-02,-1.246973006912106136e-01,-5.586506196631457408e-03,-1.660676441709788842e-01,4.754884228290499060e-01,-1.606165962892253662e-01,-7.675995967777283768e-01,9.890407156920179021e-01,8.962914205670036161e-01,-4.584921073426291294e-01,-9.328495957569095109e-01,-6.586443418051062260e-01,-4.838926450435244164e-01,-2.559554877687082453e-01,-2.115853311626394451e-01,-8.391241741968900880e-02,-1.557876359034653657e-01,-8.889142664165534946e-02,-1.205051334871514758e-02,-2.866796481992297391e-02,-8.173890271568426402e-02,2.806376524446038689e-01,1.797052709528467185e-01,-7.028309108284143403e-02,1.100384650191042368e+00,9.817986442975519257e-01,-1.106792993336174064e-01,-8.771365875014004443e-01,-6.782047269428184144e-01,-1.898305033186957758e-01,-2.458086149777580776e-01,-2.271552105753782691e-01,1.152754760459169803e-01,6.568801913392285918e-02,-6.053901135313505266e-02,2.851988683739113337e-02,2.296247080828322240e-01,-3.550260229402921741e-01,-1.135638329391326987e-02,8.901100220678248576e-01,7.378445337516572611e-01,3.108861609961736105e-01,3.913462567636297740e-01,4.042964052603406078e-01,-4.831950507411339468e-01,-7.530552974398500021e-01,-2.210699298157690895e-01,-2.034247943694023619e-01,-1.783764730899537743e-01,1.189039093200423974e-01,-3.174175393980489118e-02,-9.037321013958718452e-02,-6.993359799122717858e-03,7.050385713812673538e-02,-1.340914454333702321e-01,4.500893327249045894e-01,8.794993737838240344e-01,4.368728124892932718e-01,-9.158645366053144374e-03,2.559360382435611481e-01,6.070475121495457760e-01,4.837220608857322190e-01,-1.090488756044090263e-01,-3.889957521067296531e-01,-3.081686274680239812e-01,-1.699473605597886239e-01,-4.262659297029064431e-02,-5.944898614990450775e-02,2.749186240354299648e-02,-3.101469934499812009e-02,1.235317135666265560e-02,3.495348876416868311e-01,7.343837006651514343e-02,1.261160097947503778e-01,6.781122251775922871e-02,-4.309861488394572393e-01,-2.555376927880394500e-01,2.064613774288533432e-01,4.440222346393489783e-01,-3.244245086732716610e-01,-4.151660110519842517e-01,-2.212542167476438948e-01,-8.561176843087611732e-02,-9.324922273803531309e-03,-1.154724766330740698e-01,2.940965952992547622e-02,1.182646739027840982e-01,-8.039832585191451775e-02,-2.911721609380277243e-01,-2.481991895373368839e-01,-3.007500606327635495e-01,-8.276128040835967203e-01,-5.869148672652787502e-01,-1.380379831448520722e+00,-5.449936912260986560e-02,6.800283635970477691e-01,6.644182985017900167e-01,-3.082128691662010950e-02,-3.378397188096868287e-01,4.705503643792022239e-02,6.466793274850350659e-02,-1.680169515665806135e-01,-1.753770651691113902e-01,-1.068100904590860850e-01,-1.656483498046867342e-01,-5.457695971553023773e-01,-8.157826572728336112e-01,-9.174360945519312027e-01,-8.921121897824116909e-01,-7.651427213852035614e-01,-5.634813376495467763e-01,-1.842202106091910541e-01,3.031744228879961756e-01,3.352239491042448560e-01,-1.672241559364306129e-01,-2.286741940048541699e-01,-1.352790784788252265e-01,-1.506931592006795495e-01,-2.565484166573289149e-01,-6.473856468964429844e-03,-8.599051579828745351e-02,-5.769746985269184197e-02,-8.404081347754542852e-01,-1.101143985291835659e+00,-8.344313424736760076e-01,-9.021195675997212282e-01,-7.848685395915608876e-01,-1.320909415467908632e+00,-8.726163000752238386e-01,2.990505666196145995e-01,3.433622749000969088e-01,2.073861220680054684e-01,1.045058962963140020e-01,-1.995734780258615337e-01,-2.454742378774645573e-01,-4.023171538606735986e-02,1.227470789283538338e-01,1.972863448903219297e-01,-6.458116853819065306e-02,-5.475711267367593393e-01,-6.102132433522020616e-01,-5.136719798564520767e-01,-6.642531729783301975e-01,-4.704560363990934468e-01,-8.646278499616909530e-01,-6.815542402174442627e-01,1.125766720544993556e-02,3.015949827844836562e-01,8.298916876300105328e-02,-1.360771077071173396e-01,3.286793668732653634e-02,-1.406228928838725578e-01,-1.630321609160256813e-01,1.362218338397236037e-02,-9.250182015809951808e-02,-4.183543626647701075e-02,-2.981208777817356045e-03,4.106040479816136513e-01,-2.115142417972684652e-01,-1.541264632427355452e-01,-3.757748354528658297e-01,-3.124243545125414689e-01,-2.833880913608697316e-01,2.389012617152665718e-01,2.551054253022460028e-01,3.239498008925408845e-01,-2.782034277130040478e-01,-6.169614276636641026e-02,-3.342164100509219943e-02,-3.345884204211578561e-02,-4.439736971146139577e-02,1.207467818738547222e-01,-2.151882901164465720e-02,-1.962894701325179972e-02,-1.121514870478951958e-01,-1.498178659355192399e-01,-4.080163353225767925e-02,-9.447727385000155576e-02,-1.415976296291028003e-01,-7.950373018980601281e-02,1.312599304907019204e-01,-1.382196686526947493e-01,-1.323549117942904862e-01,-2.858696751258904545e-02,1.200532339561038997e-02,1.595383363784755315e-02,-4.315347526264762951e-02,1.632773818760121509e-01,8.322850679430669751e-02,1.397738979553798389e-01,-5.384317655370662870e-02,4.958772162441573567e-02,9.948090894503119896e-02,2.976923289609229029e-02,-1.331032847871342628e-02,8.670924435100900440e-02,5.447293849962346612e-02,5.453614292004899805e-02,-2.530441038139688570e-02,1.188307775749324058e-02,-4.621802575354779646e-02,-7.391900923492210340e-02,-4.036281780718257994e-02,3.809645315657811393e-02,2.877422665674649396e-02,-1.627262030379600724e-02,1.489328353352048495e-02,-2.528883315242471774e-04,7.263876714219826784e-04,4.972048024574339531e-02,5.641473479823096854e-02,-2.614277331008430308e-02,5.750353540695855858e-02,5.281184776691968258e-02,6.509572454668434427e-02,5.776213039128594989e-03,7.084642349655480287e-02,8.282885354326552374e-02,-9.650124770166894350e-02,4.900886791217341082e-02,6.344967508566118353e-02,-1.025732090784455958e-01,-2.679463841833279805e-02,-4.403216842574786405e-02
-4.759334626852366190e-01,6.091710455468540841e-01,-4.160182650273134830e-01,-1.373724306615796920e+00,-1.391349917847264805e+00,-1.789864675967482333e+00,-1.329331823026436821e+00,-1.832539623551789065e-01,-9.522747533025509303e-02,-4.673091373385022257e-02,-3.756640890326379267e-02,-4.136205718979442392e-02,-1.376265138679888811e-01,-2.517440087369353721e-02,1.873154292185292809e-03,-8.335832967436693219e-02,2.438004546352448218e-02,-3.843418013652034060e-01,-3.020583346700741467e-01,8.792895892685881343e-01,-1.350479343220085893e+00,-2.191827749183164364e+00,-1.623674699225901685e+00,-1.534080564221554699e+00,-5.502447468990898649e-01,-7.230837475960527616e-01,-3.076415509778802626e-01,-2.683742508725517895e-01,-6.805645316938899181e-02,-3.952088984157142715e-02,3.870898593681356553e-02,-2.256847208337194044e-02,-8.345124340616319469e-02,-6.355625002849535354e-02,-4.545973240409376115e-02,-2.371227078384882392e-01,-1.202275199190681487e+00,3.270924160036745715e-02,-8.159122594814492979e-01,-6.405654843170599522e-01,-8.047461602432339767e-01,-4.826026934907362009e-01,-7.352639882881615296e-01,-3.783450700095916663e-01,-1.680546310694049639e-01,-2.116064124473402697e-01,-1.208938414449968884e-01,-5.658797709314977720e-02,-1.103899215374512383e-01,-4.135546371023275658e-02,-3.828762192850750784e-02,-4.114395706313873635e-01,-6.560609415470157468e-02,-2.870893592246911985e-01,-9.992632419736498239e-02,-6.355537180094829042e-01,-5.149566268995704466e-01,-2.020021327622462393e-01,-4.235591010433889525e-01,-7.185975757534664998e-01,-5.164258525027134450e-01,-2.119336321920239630e-01,-1.066714931985195403e-01,-8.631262113388457613e-02,-1.262900404352871632e-02,7.632163409581473046e-02,2.484747132349396370e-02,5.537997863786780356e-02,-3.673719058009048410e-01,-1.403229166073597101e-01,-1.278403720582543812e+00,-8.185248615829149310e-02,-5.624696232922440364e-01,-5.567653128461149681e-01,-3.802813090988550471e-01,-2.675752392505735822e-01,-7.419333768464118073e-01,-4.423776159383646656e-01,-2.549943548383212799e-01,-4.631301829843046530e-02,4.687252194310957340e-03,3.925858472505368117e-03,-2.875581627553012651e-02,8.081534237594789616e-02,3.484664422654089322e-02,-4.097783216438287690e-01,-1.480394472458992083e-01,5.064308547529110527e-01,-1.636925394351703700e+00,-1.824953420568001139e+00,-1.682899152916937480e+00,-7.018052706234226834e-01,-3.288646826621836605e-01,-7.828817274376869140e-01,-4.763993195643667078e-01,-1.935902950672559464e-01,1.899042970913898329e-02,-6.699667448358830046e-02,1.222982042888166388e-03,-3.228346788573576223e-03,-2.081712781230582281e-03,3.469350034157428486e-02,-2.103534830079790419e-01,-1.955298835171433158e-01,-1.507841772144106640e+00,-8.602335298677200592e-01,-1.390636950530863336e+00,-1.289243585070965814e+00,-7.292860206261000400e-01,-2.365402776267041818e-01,-7.419946567001420856e-01,-3.877377089563118773e-01,-1.717312529986389780e-01,-1.162934186903356523e-02,-5.571838019846573481e-02,-2.926470031130519109e-02,-6.726668518002530683e-02,-2.592531251690669697e-02,-8.079897216189207976e-02,-3.128651312504804327e-01,3.036701967331505506e-02,-1.144262997461846565e+00,-1.030565198560054740e-01,-4.125136416620299173e-01,-4.865901645239520956e-01,-5.365402317704512924e-01,-3.032867213661167849e-01,-7.334440266182155055e-01,-2.684873645869143566e-01,-6.337046186605563292e-02,-9.842364244056253653e-02,7.500133235475554827e-02,8.617347488889472162e-02,-1.126238304887568036e-02,-4.480560819683453676e-03,-5.877698791015366353e-02,-3.216440874786345994e-01,-5.571447776309995659e-02,1.341726827214068107e+00,8.797093849785012076e-02,-6.365897913336890923e-01,-4.285225971023456926e-01,-6.150843307470964527e-01,-4.952392402486668899e-01,-5.820385890899117953e-01,-2.394294548148601376e-01,-1.020765566608895641e-01,-2.103810305747973175e-02,-5.401336049789864230e-02,-1.019263460979365626e-01,5.109616814325918660e-02,1.117069156126567885e-03,5.205360150489743432e-02,-1.920709495935923605e-01,-7.473177194559881345e-03,-8.197284958062903693e-01,2.733785187761008859e-02,-7.335997235068982825e-01,-6.390627768873177184e-01,-4.527897120502382688e-01,-3.244643460566670190e-01,-6.326710003957347617e-01,-2.739678950924898104e-01,-3.125660321592611812e-02,-1.617294763538369359e-02,3.038542796651940922e-02,8.554081064362703546e-02,1.375564002512401698e-02,-7.588914789543473038e-02,2.679573429714777848e-03,5.277626862751080283e-01,2.847856758390450715e-01,-6.775602076613228553e-01,-5.349582201126193981e-01,-6.041269945850969991e-01,-5.972251508785502150e-01,-9.639502041687552092e-01,-7.310519670116538693e-01,-6.382612290545771616e-01,-2.260459093349311555e-01,-3.028907652425863115e-02,-5.435897172448848902e-02,-1.401032250982213803e-02,7.603745536219884416e-02,2.466654329886374189e-02,8.318771030451296844e-02,1.059952044808236925e-02,4.443335440096050637e-01,2.409359182624577211e-01,2.703275650576034472e+00,1.579647928062076767e+00,1.759938222196413493e+00,1.783935222915409513e+00,7.005389501765958427e-01,-1.395734425128953293e-01,-1.837333825009623556e-01,-3.814656476752120023e-02,-3.543544473195590905e-02,-2.539451632800334910e-02,-5.779680674687964065e-02,-6.231902846632066811e-02,2.727164295712672729e-02,-2.737199611570776195e-02,-1.014253110912637229e-01,2.621231505530233208e-01,-5.386844523530670559e-01,1.378261492066258143e+00,2.420192551994016839e+00,1.675593549643477953e+00,1.750712566923845914e+00,4.748703759683565728e-01,-6.925532832329970301e-01,2.781411402253494147e-01,-6.256680522496257946e-02,-1.041568386338962288e-01,-1.499358238801133947e-01,8.055507100957040589e-02,-2.620034556474492085e-02,-5.384600050157935247e-02,-2.909606938428854761e-02,8.434262836034962796e-02,3.252832609465400870e-01,3.317312756319401590e-01,4.730498978925275488e-01,7.787892365566289055e-01,8.764715585777732576e-01,9.864185152668429879e-01,4.654418480075602216e-01,1.215379584035558222e-02,-1.379027085363040694e-01,5.850565271155386965e-02,-7.390037174385158392e-02,-9.552636553899712668e-02,9.992243030509534440e-02,-6.354068850790735301e-02,-1.570509378251529545e-02,-6.467933672343438578e-02,3.259065731466379706e-02,-1.164293022339026595e-01,-1.497896430087840569e-01,-1.007552632680699389e-01,-1.075554039008776441e-01,-2.757515326585055319e-03,-1.668422301568461275e-01,-4.110196538332977489e-02,1.979090994075008089e-02,3.400967621610077722e-04,-1.038707710050584127e-01,4.359496990139300615e-02,-1.105430432963592710e-02,-4.196418598308451070e-02,3.229291793559804259e-03,2.405652464845421321e-02,1.110778614576052488e-02,-1.079929099591549202e-01,-4.235117855688359627e-03,3.487407569421509951e-02,1.134123073833990941e-01,-8.246636027722550888e-02,2.369951705836395583e-02,9.457755573300097307e-02,1.088070175959003905e-01,-2.706109127201567627e-02,-7.959963294797170463e-02,-2.243503708516338124e-02,6.472117274371699813e-02,5.695907084296122913e-02,2.047945936180489007e-02,-1.314850578040484795e-02,-4.311916432630207019e-02,4.765849579055203566e-02,-8.155403522677025230e-02,6.352682517868406264e-02,1.382777080282723142e-02,-3.621719404689248412e-02,-6.449192296712658035e-02,2.205668132792876907e-02,-4.533160757060289425e-02,1.013941363638536652e-01,5.979663948008961949e-02,8.735507273565742969e-02,1.639691090833480039e-02,7.971428656254444037e-03,-5.793705773174227108e-02,-2.234458008940337637e-02,8.069828212101082254e-02,7.289360814950307521e-02,2.497757189313851156e-02,1.780429777951340192e-02
-7.429772440307939041e-01,-8.871467632540316339e-01,-1.894353965338192447e-01,2.474905866813215116e-01,-7.647136351416203848e-01,-6.014523096779977179e-02,-9.646535909451209312e-01,-8.561451916421943809e-01,-6.360577123475010808e-01,-9.537095553893736311e-01,-6.393915923308959304e-01,-3.548411303427449481e-01,-8.896032436511243716e-03,-1.353643937163375444e-01,7.410699084098198997e-02,7.533322654768523363e-02,-6.938669371526372254e-02,-6.751626005762231264e-01,-9.071471291169200812e-01,-1.086856098044255425e+00,1.592446214285747896e-01,-8.355907957568160516e-01,-7.703454885739795532e-01,-5.108412509915833954e-01,-1.403969655755987977e+00,-9.039495091223878065e-01,-4.537587136044200498e-01,-6.321327801381410039e-01,9.505397047520934561e-02,3.142040635775564805e-01,1.023901612897951452e+00,3.780445977052621087e-01,3.727418984537831381e-01,-2.001445782144479768e-01,6.093447581582656092e-02,-2.499383290993437701e-01,-3.807403182290452492e-01,6.188762568785129980e-01,1.498303744850376096e-01,-4.612227269655543860e-01,-6.401551536266263387e-01,-1.368747087791820416e+00,-9.684474007784598104e-01,-3.151910288684514616e-01,4.505638979926637200e-01,9.265902544562650001e-02,8.332571479971757622e-01,4.550708320372242044e-01,2.509381042115455540e-01,2.705946533916553376e-01,-1.162948916600750199e-01,-1.322373761299190653e-01,-6.502813162922524426e-02,-5.460418675174224523e-01,-5.369694491242806844e-01,1.141189766852570703e-01,-7.280888220487122808e-01,-5.340455504095784622e-01,-8.862738264049012660e-01,-1.736874676839867737e+00,-5.764154484048743532e-01,-9.046038408928283592e-02,-1.861518882137968289e-01,1.861737417576701525e-01,-2.427420698042175862e-01,-4.219070357706182772e-01,2.381575813217268744e-01,-8.669725159869755282e-02,-1.917703856714771948e-01,2.196258035430140865e-01,-2.492869675669154017e-01,-7.883192282738724632e-01,-1.860220040792261720e-01,-5.328370831262936314e-01,-1.641368220519135446e-01,-1.248844621889527579e-01,-6.485697731131989663e-01,-4.363603599980794279e-01,7.670876419974645977e-01,2.465105093221876542e-01,3.758270024400981457e-01,-3.094862266818101393e-01,-2.087327102064534257e-01,4.258420170527530968e-01,-2.926594842233628049e-02,-1.844217349800034711e-01,-1.679642506323985318e-01,2.063967554220513534e-01,-5.886462273046136895e-01,-2.518870085661189528e-01,2.587856414345663381e-01,-8.882971336742420121e-01,-4.838218396367438903e-03,2.851440937400803177e-01,2.283783321588960524e-01,5.006141416062874772e-01,3.394470464631346163e-01,-3.662620403278703529e-01,-2.183752949780814745e-01,-1.156492490786541760e-01,3.734041473177786563e-01,-2.440509010675643436e-02,-2.188907204392112060e-01,-9.205468482992350612e-03,5.379386090252092911e-01,-5.323438468706436222e-01,-2.412811596074152520e-01,6.276285022726686424e-01,-1.007326459618667958e+00,-7.882857374462697297e-01,-3.814235193495904563e-01,3.759242666721908654e-01,-3.914198866811425398e-02,2.934774817239222955e-01,-2.532979947075357854e-02,-5.309755366372726632e-02,6.740259992744229711e-01,4.793623688393700566e-01,-3.561788296833278550e-02,-2.295499687438649905e-01,2.253269172834750644e-01,4.770440596605820538e-01,-2.736798668645323285e-01,4.876697983515562718e-01,5.323102875527500055e-01,3.569609874786073278e-01,-3.488714528986586738e-01,1.618988721213668602e-01,-3.667408268385104475e-01,-3.384128987172511649e-01,4.545900143109815050e-01,8.446554925667818514e-01,6.549141416304146146e-01,5.829641713067801323e-01,2.133823015518883093e-01,4.725095204512971998e-03,5.716943247881078882e-02,6.503763064731631072e-02,4.257802867372800226e-01,-4.552447095509096209e-02,2.118411459610194669e-01,7.593923172068013649e-02,9.278938075331607527e-01,-2.535932395901905334e-01,1.435982986664838146e+00,1.298109305729756857e-02,-1.039112157563394784e-01,5.155803632852452578e-01,1.451787331037276974e-01,5.686578338538814670e-01,5.221615598563533744e-01,4.523058816818210648e-01,8.083921720159022162e-02,-8.586575545108973695e-02,3.955014155937632836e-01,8.200061077299781731e-01,8.996397329192590275e-01,-2.857495497369312853e-01,3.812806568399210172e-01,5.400608831280919730e-01,1.921793738891567627e-01,1.539923371801690255e+00,8.786183915483929130e-02,-4.523485522065033293e-01,6.885050127819033472e-01,2.600576323627766806e-01,4.329097551759032991e-01,5.896862032922406405e-01,3.137438199564118735e-01,-3.434080111725693052e-02,1.863978491863564901e-01,1.398662517878813683e-01,3.950707161366850961e-01,7.636958551346646473e-01,-3.248516259438383735e-01,7.209633440284004546e-01,3.079631364483098044e-01,8.416852096867897259e-01,8.672823767041064613e-01,6.455762983481247441e-02,-4.351933538019498449e-01,5.942450032467414545e-01,6.359033382521366018e-02,5.298780128970973502e-01,3.291429938721120996e-01,5.996731609990166856e-01,5.110262714353731514e-03,-5.565778879597111928e-01,-8.427657170820198607e-01,-4.950833519893715201e-02,-7.123158745651421431e-02,-9.271363324811046080e-01,-6.557740956123059295e-01,-8.466346589509782250e-01,2.564290462584138397e-01,7.337617022027226321e-02,-5.706306645461820537e-01,-1.472970353753155548e+00,-1.793520762653416090e-01,3.331625837750495922e-01,3.933097942359951027e-01,2.891971677976636346e-01,1.407767392309812460e-01,5.997922958637633833e-02,-6.285681255781033760e-01,-7.800196117666816642e-01,-6.126598190048627712e-01,-4.454102372599664378e-02,-1.615536628276066367e-01,-8.852101168012028731e-01,-9.329113757045247590e-01,-9.166717127955159583e-02,-4.708059894438771376e-01,-3.256923399657332685e-01,-1.037969979366316631e+00,-1.590690752924930063e-01,-5.788393637729667696e-02,3.307673829628299256e-01,4.692763853436131005e-01,3.414404214867414744e-01,-9.392896514186943602e-02,2.339063273630137274e-01,-2.815983908333787866e-01,-2.389092764966284088e-01,-1.471229398769236252e-01,-1.768292340179854483e-01,-7.543713930004586343e-01,-2.037247348023240034e-01,4.423304441573971957e-01,-1.132500159999556139e-01,-4.202813914716720389e-01,-6.111234457289527189e-01,-6.307573813058386936e-02,6.428124562176221191e-02,-3.041639704055565732e-02,-4.245574675458860248e-02,7.646006369374999667e-03,-2.233652209277876485e-02,-8.757548884039470516e-02,-1.091912760215807132e-01,-1.709738133049102382e-01,-4.072193798170251067e-02,-1.058956781873481023e-01,-1.310811646986765819e-02,-6.515005226389435078e-02,-1.340065321323685721e-01,-1.822726543534132840e-02,-2.414388168164537385e-01,1.542217998151476296e-02,-4.954676563211572043e-02,5.064933839708106456e-02,-1.906342329168684083e-02,-4.741740828617238557e-02,1.901113211917088847e-02,5.755964675735483760e-02,-1.944420978677212364e-02,-9.590437102256639534e-02,-9.247958203706062308e-02,-3.845164637452293255e-02,6.524719946367588119e-02,-2.122178046324291883e-02,-3.394215572862348262e-02,-8.334341764771879824e-02,-9.832398764875704966e-02,-1.897443233142100671e-01,-5.267719988084337140e-02,-2.570501102226374970e-02,-7.009042974239677870e-02,-9.388935022672571795e-02,-1.550906345506233297e-01,3.441069726902742237e-02,-8.257802812987764807e-02,5.040660988520853647e-02,3.035745824020845765e-02,-1.303979955522726886e-01,3.051086155736453323e-02,4.909750826267877087e-03,-7.843281355643036412e-04,-1.226683417468495650e-02,-8.813862799663002567e-02,3.945022855165453840e-02,6.302011360027989784e-02,-4.468515518263361380e-02,9.280326705342447843e-03,2.614991814783502316e-02,-1.077665118038950709e-01,-9.833909870785143004e-02,-2.476330149790409788e-02,-8.936056914729198150e-03
